{"version": 5, "architecture": "zero_native_char_attention_v1", "vocab": ["\n", " ", "'", "(", ")", "*", ",", "-", ".", "1", "2", "3", "4", "5", ":", "A", "C", "E", "I", "L", "O", "P", "R", "S", "T", "W", "a", "b", "c", "d", "e", "f", "g", "h", "i", "k", "l", "m", "n", "o", "p", "q", "r", "s", "t", "u", "v", "w", "x", "y", "z"], "tokenizer": {"mode": "char", "vocab": ["\n", " ", "'", "(", ")", "*", ",", "-", ".", "1", "2", "3", "4", "5", ":", "A", "C", "E", "I", "L", "O", "P", "R", "S", "T", "W", "a", "b", "c", "d", "e", "f", "g", "h", "i", "k", "l", "m", "n", "o", "p", "q", "r", "s", "t", "u", "v", "w", "x", "y", "z"], "lowercase": false, "vocab_size": 51}, "dataset": {"source_path": "C:\\Users\\gomez\\Documents\\New folder\\laws\\recursion_law.txt", "artifact_path": "C:\\Users\\gomez\\Documents\\New folder\\ai_from_scratch\\checkpoint.dataset.json", "stats": {"source_path": "C:\\Users\\gomez\\Documents\\New folder\\laws\\recursion_law.txt", "tokenizer_mode": "char", "lowercase": false, "vocab_size": 51, "token_count": 1627, "train_token_count": 1464, "valid_token_count": 163, "train_example_count": 1463, "valid_example_count": 162, "block_size": 12, "valid_fraction": 0.1}}, "eval_metrics": {"dataset_source_path": "C:\\Users\\gomez\\Documents\\New folder\\laws\\recursion_law.txt", "tokenizer_mode": "char", "train": {"split": "train", "ready": true, "token_count": 1464, "example_count": 1463, "loss": 2.6844618576568995, "perplexity": 14.650315303532508}, "valid": {"split": "valid", "ready": true, "token_count": 163, "example_count": 162, "loss": 2.914976516240433, "perplexity": 18.44837916035926}, "primary_split": "valid", "primary_loss": 2.914976516240433, "primary_perplexity": 18.44837916035926}, "training_steps": 300, "model_info": {"architecture": "zero_native_char_attention_v1", "fully_native": true, "production_grade": true, "vocab_size": 51, "block_size": 12, "embed_dim": 32, "hidden_dim": 96, "attention_block": true, "attention_heads": 4, "attention_head_dim": 8, "mlp_hidden_layer": true, "training_steps": 300, "tokenizer_mode": "char", "tokenizer_lowercase": false, "dataset_source_path": "C:\\Users\\gomez\\Documents\\New folder\\laws\\recursion_law.txt", "dataset_artifact_path": "C:\\Users\\gomez\\Documents\\New folder\\ai_from_scratch\\checkpoint.dataset.json", "dataset_stats": {"source_path": "C:\\Users\\gomez\\Documents\\New folder\\laws\\recursion_law.txt", "tokenizer_mode": "char", "lowercase": false, "vocab_size": 51, "token_count": 1627, "train_token_count": 1464, "valid_token_count": 163, "train_example_count": 1463, "valid_example_count": 162, "block_size": 12, "valid_fraction": 0.1}, "eval_ready": true, "primary_eval_split": "valid", "primary_eval_loss": 2.914976516240433, "primary_eval_perplexity": 18.44837916035926}, "block_size": 12, "embed_dim": 32, "hidden_dim": 96, "heads": 4, "weights": {"embeddings": [[-0.016336557709469384, -0.043430896062366886, 0.036980300102692244, 0.06088883900711793, -0.09912211603873626, -0.04498601833737581, 0.0005123981622392234, -0.0020948984883470798, 0.005585009902908626, -0.038196275829593604, 0.044094608140458486, 0.012770223046886823, 0.01864978563489294, 0.038964442994823274, 0.023434069018755756, -0.030938521145600223, 0.04218691911323705, -0.05118183847570516, 0.04743918770295967, -0.021295318383529882, -0.009856520250244227, -0.046815871340885606, 0.05735346064308129, -0.019516494721515808, -0.01523167940333632, -0.00657253493703996, 0.015034899445555236, -0.005481137997200491, 0.009230709051078607, 0.011430199901458995, 0.09094671658084437, -0.029368329977867], [-0.2524948075778385, -0.02082775057118004, 0.1683102361628245, -0.16955212538555897, -0.20000745705230824, -0.022073455707018172, -0.07179889843948781, 0.11686006097828633, -0.016014148474477564, 0.11481549997769132, -0.23905182268931918, -0.02590259211767908, 0.14269782350640153, 0.04970193171806617, 0.28193295933147844, 0.02421479286465781, 0.05434342867003596, -0.12983383149776986, 0.0854511353262248, 0.1665805537490282, 0.2624434774770033, -0.1480840845347733, -0.16916353034789997, 0.0835556220421401, -0.12936452622368058, 0.05451776455730507, 0.1333815443490336, -0.29654078986149124, -0.16315925738943135, 0.1793800741842764, 0.11725043948821022, 0.2575614076765749], [0.059984772322046825, 0.05484235132569576, -0.031070222531213207, -0.032486519839448835, 0.04631438347989885, -0.016939817088377187, -0.06801846339264861, -0.058317474599004326, -0.027851530327608842, 0.02564713823998748, 0.026124818774839385, 0.03855268492327632, -0.04031876925766574, 0.008943415582455462, 0.013028402949459991, -0.004841760576783487, 0.022941738330193837, -0.016698261736587727, -0.0152640153279129, -0.0242740437410304, -0.08151983829152797, 0.014732006606222743, -0.0337110491802073, 0.0009593864210885515, 0.024921214868562896, 0.020674296509384224, 0.04233501714923765, 0.005381793305285149, -0.02238616887620315, -0.028730833728447043, -0.07977564825457696, -0.07608081803717122], [-0.0679582878095143, -0.04882036855422038, 0.029145239637422313, -0.03993770498500098, -0.012459539161228597, 0.06805050930267445, -0.017941756701554127, 0.03699567894788209, -0.05078124884214181, -0.011072700649564162, -0.04748945998449065, -0.017896648337680187, 0.04436474258589152, -0.08805744690672192, 0.023894401367852307, 0.011562743776259396, -0.034944042488996165, -0.07271089968681609, 0.001690678123778317, -0.029707000378441786, 0.012895020234404081, -0.00038282227504618006, 0.08116756988967562, -0.01656527800827011, -0.04832540444631979, 0.010400385081689079, 0.005321320981299078, 0.06892884274235454, 0.03795185054887261, 0.014710530825856808, 0.06880848377538916, -0.06316313606438502], [-0.00394837755428797, -0.04536508293427952, -0.04153169502618405, -0.06144630731530241, 0.03911522776758122, -0.016264886757823175, -0.08114890656361073, -0.05447580707653823, 0.023217130403537255, 0.03887586973444371, 0.11504607618217413, 0.1435695148684409, 0.0020688595150839635, -0.04914398616641388, -0.1326951438848219, 0.015571086517790924, -0.033331172236037356, 0.0009940494297559564, -0.029789595465292695, -0.01664635226194497, 0.023800984943533027, 0.006708761575423192, -0.001261635468804874, -0.059777642753998474, -0.07660777386920874, -0.03121116414918765, -0.0007523342900700255, 0.09425647219181771, 0.009859354286130233, 0.030338046068962225, -0.02554558725131478, -0.06348561638548297], [0.06694322749758636, 0.10696002542753902, 0.08444553422336785, -0.12249139348613255, 0.01744636341147991, -0.09439896795489482, 0.09472620962893832, 0.01617044367780963, 0.09006720969001, 0.012043932244002185, 0.07520490016548519, 0.03270039121114511, -0.12892857326609805, -0.0629922132386885, -0.1429879099755526, 0.013777695165979223, -0.004520564426289543, 0.019867446757461413, -0.025908568603543715, 0.015377035330861146, -0.04570821254218835, 0.014423066561309851, -0.05809821701016333, 0.1582214851800335, 0.027559069140635196, 0.11415074580368721, 0.10186575400309755, -0.06552992935066618, -0.0833962714707643, 0.06998080792164126, 0.18374100972149063, -0.028969138995693235], [0.154884624134279, 0.08721449149012046, -0.23623935810214616, 0.05424182896925362, 0.08047100327249432, -0.05371649887987499, -0.06450960965431324, -0.01795289096438846, 0.09371889535880784, 0.045482743015478985, 0.13772162803048213, -0.008030936764939404, -0.23137784227051544, -0.04618436172339455, -0.2394331294186226, -0.04952944324937236, 0.055314430840811384, 0.18091114109809014, 0.02686915133507928, -0.1868998035915708, -0.24402231944688751, -0.04640657096085378, 0.05595924480509069, -0.056681269156804, 0.10447359304641853, 0.03456296506541665, -0.03128422287435411, -0.0020691430356894317, 0.002181429610585607, -0.17168221038466605, -0.05756554371091898, -0.08601428659374791], [-0.017688718917269766, 0.03810257993691093, 0.16986444537503734, 0.09616334755418343, -0.0701703714344384, 0.010227521296783117, -0.04742714317218471, -0.004663678241899515, 0.021758101134480613, 0.10093252672015164, -0.03934382903712474, -0.057266667445028674, -0.10109471966432222, 0.0035102583828415896, -0.03275740369309775, -0.010853523499734102, -0.05823711412129991, -0.023008944377632214, -0.09636152190795598, -0.057857926239850095, 0.1439020877332982, -0.07803377848595369, -0.07731921415257456, 0.11081278491325035, 0.14793847652477987, -0.033247266502755946, -0.012277582555030432, -0.004002936699433882, 0.06957117146358985, -0.05675157705558887, 0.009650814960662432, 0.055187546413173034], [0.22400123780674894, -0.005974900954384577, -0.18947285194853786, -0.05270715827011216, 0.01257404878267873, -0.07462762206924367, -0.07279748668022654, -0.07873780438090865, 0.1025746987808812, 0.03661029766299018, 0.11576550658084497, 0.03359513347702787, -0.15967989042017156, 0.002824254616648011, -0.22105052781189546, 0.044895350856609104, 0.0395631577998009, 0.2783356391728669, 0.0883057486312226, -0.06127492767794936, -0.23723112600666768, -0.07658760854291075, 0.09271032750372059, -0.03683933333382893, 0.04831835492887134, -0.1133236613319489, 0.06528118913584811, 0.10707576883189422, -0.02795600961063374, -0.16806613678022492, 0.01177309805208188, -0.033732896257237466], [-0.018247151223925492, -0.002843036579617853, -0.01414994470670846, 0.008116791974161102, 0.0727959594255534, -0.12816475286299508, -0.009977034031655029, 0.004699085111587127, 0.019065403163700655, -0.014834447764517528, -0.0912989206521955, 0.0227068314349397, 0.08210395383388353, -0.07868032362710828, 0.04395146825948225, -0.015784876025297177, 0.0004211549894855953, -0.04945546599423283, -0.01874405157703048, 0.06445382201242984, 0.02799725359655903, 0.07920136608570985, 0.05404886674133624, 0.02341795681580499, 0.08569148765465821, 0.02339488467580422, 0.043643805504487765, -0.013595105450178323, 0.0007238002171942155, -0.03301764177260162, 0.05023654547295754, -0.0560659553375573], [0.02778713229554791, -0.005333441803156329, 0.05555221337939505, 0.037920304372217654, 0.09025942993145149, 0.04018817318818635, -0.07880315580574175, -0.005683391291154535, -0.050013891394193835, -0.018418178337300806, 0.0687468110584962, 0.039217957376448564, -0.039702078072257195, -0.053717218958328816, 0.0049185573376092405, -0.06082988105385516, -0.02277149737774579, 0.01730601286911926, 0.05635340174662666, 0.03158351894101497, -0.11313426452835497, 0.0013592022475013477, -0.008521636470203412, 0.02429916872438295, 0.07891327220023234, -0.09856431505670273, -0.023368285450745485, 0.02938719955761285, -0.08613453304739692, 0.07463183036912767, 0.022458036889806698, 0.044806619981988864], [-0.029037170120956305, 0.03920607069920798, 0.05095093773388592, 0.009436744184818956, 0.008444326890614797, 0.013505893470007082, -0.04674954235075948, -0.01256133041948374, -0.0013771551617377726, 0.02243326068039935, 0.043150384175595975, -0.04479497688047152, -0.012680005824224506, 0.078962415775478, -0.03735801748120515, -0.03830307407292494, 0.011676756725291228, 0.04617592547327267, 0.0002768562120369508, 0.06701430052503125, 0.0408126717329129, 0.03903173492716269, 0.021236621844477915, 0.11967931724828651, -0.014393461521113982, -0.09970972449065409, 0.08661645691688563, -0.02168979112991842, 0.004611965211835253, 0.06671896005649408, -0.0750356896662005, -0.06240763509121412], [-0.08825106609383956, -0.034559755388337415, 0.017757063346762667, 0.02537344316787011, 0.014281243362947697, -0.06790053990439109, -0.11498496779252437, -0.0007554385594120677, -0.015606142614455995, 0.030055799887840542, 0.028891386055659156, 0.01603850310533632, 0.03178431827111409, 0.008442779584164766, 0.028550958032485883, -0.0367168530076906, -0.0005020798913017, 0.011563230365840277, 0.03948340834922226, -0.01691751911878236, 0.02715891457991735, -0.02596601932106262, -0.016380912900318036, 0.0450109843131187, -0.1007129832889252, -0.06019438204687252, -0.06814822121327364, -0.11388625014657296, -0.04109321198314929, 0.03784332178366759, -0.00945129040203163, 0.01229871440581193], [0.05303049687491825, 0.06387552353498784, -0.008377877858480537, 0.0661580497283087, 0.0016706134351093423, -0.039474643604445914, -0.0350512261653968, -0.07903420095941738, -0.03796917250363615, -0.0145612599697848, 0.03300186033350459, 0.0927239199767774, -0.073827436720426, 0.02379634467266874, -0.051362529860716044, 0.027620409942358246, -0.0031913824694816506, -0.08573033448111728, 0.04762761228813038, -0.03037994282008885, -0.02895410774894617, -0.056543220251482715, -0.04081301626465534, 0.025154266794845465, -0.014863892292978177, 0.0177436008082144, 0.02328393439951521, 0.06730807386172555, -0.018156456354428512, -0.07278628394664499, 0.05763385529471844, -0.018455727625848583], [0.11430191258715727, 0.06514689135754852, -0.008272078986223069, -0.022579397234485734, 0.10469248261079393, 0.06325210807369423, 0.019576140075088226, -0.012356923072489588, 0.0737560333314287, -0.05953776560036274, 0.05647164384268486, 0.017489344247702814, -0.019296300618691434, -0.04144011011696812, -0.11930946976810541, -0.12024069768436015, -0.09745973406271748, -0.031162916159699662, -0.02339109779554213, 0.10640494037216308, 0.014236660358873079, -0.021331653360618565, 0.02594916477166368, 0.0195484107445127, -0.008042156511020861, 0.0061827671370134184, 0.06658133151714767, -0.005149340262023868, 0.04941940724340455, -0.034266130856956394, 0.05368299788976317, 0.11859564873202988], [-0.0009192023579045494, 0.06139969289971935, 0.02218501972615981, 0.012664616560332128, -0.03905747634700911, -0.018379497201390975, -0.028139755494872347, 0.03240558351628902, -0.05582989881514851, 0.031747056116535735, 0.034394441239069755, 0.01877603079073, 0.00029778232083322307, 0.03614896102062423, 0.013579996871803175, 0.07537704739220566, -0.10261938077454653, -0.029278038097531572, -0.08370706621217253, -0.06003052376959193, 0.10861085853018944, 0.05432087683687893, -0.05134226544504247, -0.05598179388340953, -0.15004582071196718, -0.021624979908105305, 0.1193731450155843, 0.023833228917973445, -0.019580180582306532, 0.05366287542122043, -0.07690698176112, -0.00849266972513615], [-0.014203940893235026, -0.005469087174607364, 0.028241304389903157, 0.018534385328208305, 0.018101272973115066, -0.04611997956043051, 0.041717532836809484, 0.06617897460823795, -0.03852415770147743, -0.05224043231795199, 0.04887628779281913, 0.007471001942255475, 0.07032585551558307, -0.03160717710915303, 0.06310734849280389, 0.007130386342333249, 0.030491548921345455, 0.0720748836172482, -0.02428521754348716, -0.048720324994653785, -0.033483063318530376, 0.03032447689418281, -0.08975649994094807, 0.03048270613734032, -0.02774055421716021, 0.044969792852588446, -0.11253219675569717, -0.03572464700185993, -0.07962153538215785, -0.02900588736387833, 0.020790058767468308, -0.004439343975437813], [-0.02195753709235889, -0.010914291755407321, 0.008437787562877046, -0.05235352014634265, 0.021545492619894295, 0.0318522287149156, 0.024464319922529596, 0.02892313019435052, 0.011921822275442261, 0.09966966607199476, -0.010596650785486779, -0.012720815509585308, -0.03254111902188372, -0.05605123082764016, -0.05003437498836143, -0.038831129996073244, -0.00207149741742786, 0.01680759842676475, 0.010749305662121143, -0.03925122345504192, 0.05025766029808297, 0.03693192798102657, -0.016717224968045022, -0.03220562452049223, 0.02920862715861979, 0.015413943936832396, -0.07523641754278643, -0.00010914797436452974, 0.015743455381498458, -0.03759840597427543, -0.0003715226085732298, -0.07675910594712278], [0.07375617518365114, 0.06390944875917293, -0.033464092824078535, 0.027395806250845593, -0.11800621567827597, -0.05771830302024491, -0.015516258383417884, -0.053456464727148566, 0.04273772868661542, 0.10159195265841729, -0.0533817041502235, -0.04924671921248192, 0.0028960838444379664, 0.07004400279594784, -0.08206254328175336, 0.010899387449896466, 0.1005836102521427, -0.0750837998529618, -0.0679548390254965, -0.024840752811462752, -0.02845995254705178, 0.054056684107171335, 0.02064651730444606, -0.09645752637447139, 0.025449371019463776, -0.03529455304205751, 0.05989990864307828, -0.029094797700720144, -0.02665013492441785, 0.025851338975638235, 0.03252246843744155, 0.02025300330511111], [-0.09562856298439269, 0.026712103285232804, -0.03256133951142853, 0.012124162069356239, -0.041630556959155296, 0.027370482313482346, -0.04837918003582268, -0.07000017511977155, 0.01718132343572083, 0.02013289004080836, -0.037418572227361994, 0.06253625798082442, -0.0113294582581879, -0.0064299508049545165, 0.01803228047568191, -0.042652942781004496, 0.011101108384778815, -0.02355202896096571, -0.025640208487070982, 0.059824743503905466, -0.024829802857326985, -0.12690829321524302, 0.0842155487450032, 0.12086850666030662, -0.02493416128976671, -0.08329693602677528, -0.0018065130042135224, -0.03189598344234106, -0.030489172033871855, -0.05422790143925593, 0.026277336002441073, 0.028115142010200933], [-0.09397051955747877, 0.02557409695914631, 0.1061294209015882, -0.00530049273001499, -0.04293082939113788, -0.0150016295689581, 0.060723750783346284, -0.09484264758367619, 0.005241126408271025, -0.027793480473693965, 0.07769435362074255, 0.010202710582385597, 0.10877855976609187, -0.05843738834630246, 0.055726237655795145, 0.019818378501266828, -0.050040613802430876, -0.0014156787148063665, 0.08501726504397801, -0.013242683759648188, -0.0632761619533106, 0.01177593589331464, -0.05435877903157886, -0.0031658139341287504, -0.005009784524837454, -0.07990081219364026, -0.07489618915585562, 0.04505335269816844, -0.01145967628362215, -0.09723792767590951, 0.016792291473162656, 0.018586524988125606], [-0.04795690060486385, -0.07221702579855578, 0.047165675030581056, 0.012325373831468082, 0.13902661881585385, 0.03586984182686496, 0.019539144812244034, -0.008451696615651547, 0.0436228514463024, 0.027989553215271638, 0.056512704550750276, -0.024667084909470265, -0.010417214384521277, -0.02520456267644992, 0.04903747431580172, 0.06365187266460688, -0.01999449154496565, -0.025018042801322686, 0.029800583395442677, -0.01456424408248698, 0.05800360429987974, -0.12682139777296525, -0.04916715245105625, -0.03623625516324925, -0.12483534995182959, -0.04832062632823591, -0.03229999629394741, -0.009425921406965106, 0.05354068352109362, -0.015736405784489035, -0.06263182781344429, 0.0018068285840746462], [0.026056025643283957, -0.04529666664602738, 0.01546603305008637, 0.061337124193620876, 0.03067851615795727, 0.06508727900021309, -0.008075810880678633, 0.04530097273006606, -0.08343668411816872, -0.01017528180186852, -0.01500143595180315, -0.07657392563875533, -0.052712245579745944, 0.028608367644935382, -0.0036495529323566363, -0.05654452430261595, -0.039844943601049024, 0.03264277117478787, -0.11944055190452799, -0.0863356588355763, -0.020786871877526845, 0.07130105657247429, 0.018010213549396387, 0.009648231547625851, -0.044863763530323064, -0.04676566036652761, -0.004887109869789128, 0.002892894041123593, -0.0005552199191893949, -0.027078985059594884, -0.003445110562019806, -0.027849312321662847], [0.043521540318656494, 0.04933231783366369, -0.058613145407457455, -0.1051547642810961, 0.042389309723845484, 0.05894895857599169, -0.0638344087234439, -0.09057987535747501, 0.010579840371820427, 0.050224298849555524, 0.08240711994303386, 0.029330134462572103, -0.01177340185656856, -0.03151836810855233, 0.012287257648383778, -0.002261420250774119, -0.06697864897478858, 0.08928501850148357, 0.08542524444294688, 0.06635195908911193, -0.04596841478669061, 0.05942652606896493, 0.03047888735135902, 0.02213370053788733, 0.045327676477234166, 0.036838432871728555, 0.04323738098152265, 0.008986407030282867, 0.01788925987063061, -0.08188144725503256, 0.002051179601115612, -0.027882818845930885], [0.08079988178107783, 0.0993591393799309, 0.0997212933071484, 0.10381812910875418, -0.0025671988835330502, 0.11605518752774827, -0.05100625162275302, 0.005581467880212817, -0.026230722223387383, 0.04493226613037125, 0.1133116949069382, -0.10976541425056727, -0.04767167671415412, 0.08567034225927637, 0.07618717426191096, 0.032121476246479826, 0.0361682778773191, 0.013976981037217347, 0.1192024588041987, 0.05519704230330525, -0.08352866538980641, 0.06025711066682275, -0.02305754957012402, -0.04130945173864591, 0.004420836616115108, -0.02738043137403368, -0.06231996222339281, -0.0676901886138126, 0.088301523113104, 0.0791520252355712, 0.020276438723501725, 0.04986197918781598], [-0.025374927941630748, -0.05396339054368455, 0.035997780246464106, 0.03648566613880118, 0.07465299458504439, 0.07067030237303634, -0.01795033989881169, -0.06053293210740912, -0.023504882170132895, 0.01097814597285605, 0.0021740555281638614, -0.037739215092090654, 0.010745962194501229, -0.011166236931095794, -0.026243915387917132, 0.015732362820018483, -0.026321960620730396, 0.010678207167006995, 0.0270062897692845, -0.04942388230375018, -0.025378043166935295, 0.08145038145203562, -0.060311265930865186, -0.10922315738250589, -0.09581748332339461, -0.0028355082548829954, -0.002118201240041085, -0.012865990382355613, 0.0617301009277033, -0.1357968319991204, 0.010625709611870536, 0.07312791293236716], [-0.08960749990462485, -0.12562332922607314, -0.11833958705758714, -0.21177212043678312, -0.28004485567275866, -0.02613020673171831, 0.2097968187699967, 0.025025031054002306, 0.09468333228012728, 0.016033910507403337, -0.04561909663470535, 0.11060756506731796, 0.04790367007799804, 0.0526503292071142, 0.23941162615584896, 0.07197639542364184, -0.048296717183181265, 0.09137200183784801, 0.05381667806782806, 0.053944669362079326, 0.1409907762780268, 0.18925303895424678, 0.05112968414996774, 0.054075068997834375, 0.016467672062644895, -0.043218225391496015, -0.1165558061447566, 0.10566507741019959, -0.01249879385445004, 0.14201996756282267, -0.052320432349389455, 0.10139730490990878], [-0.06129915054210863, 0.032873310324009086, 0.0186400866451661, 0.03264182987459531, 0.03852471848654493, 0.03345465337886363, 0.00234276597018997, -0.04601202650720529, -0.028450992389481265, -0.009975234818912073, -0.09968394656795775, -0.11952957656495863, 0.04774816086717762, -0.023802119627406564, 0.03199660538766792, -0.022175658309113264, -0.04077403333036446, 0.012193307646227163, -0.08349878289055898, -0.07500755236670636, -0.019232705274060135, 0.006363836750468259, 0.07093080353999622, -0.05946932175809574, -0.11149282753312623, -0.06578938777998827, -0.09087275297946806, -0.054258509624329154, -0.06627975361969002, -0.012331095373556195, -0.019332595976269292, 0.01303531437200061], [-0.05189672665442486, -0.05813140238581239, 0.10732850491278635, -0.005700894907082447, 0.013461055900847998, 0.021803571148665143, -0.10586363299129938, 0.07989234275589012, -0.07024109183817184, 0.14238450596926883, -0.0370182766184846, -0.14450032162370338, 0.03299426450262746, -0.021196676194492017, -0.05217830284241945, 0.07674238829541295, 0.002272703686049647, -0.09708920028865861, 0.011066056582301349, 0.08902192152682484, 0.1326691795637171, 0.15890292474720158, 0.15476749477961843, -0.0992791281359663, -0.12097504450965893, -0.06955153782857701, -0.038752330281048485, -0.15270730230537957, 0.027149527564261876, 0.17575362234047234, -0.07439278999548778, 0.03673976883186634], [0.04475697691207911, 0.002621327054612675, 0.018009468927276708, 0.15475918824483492, 0.2058535869307113, 0.12568399047511639, -0.05056653477305998, -0.00013937432125012364, -0.09418392206619156, -0.02145759841776965, 0.09789714057656755, -0.007869783324364549, -0.01957388902920016, 0.016815228951163053, -0.06247907621626228, 0.007321875542626444, 0.008825728792962118, 0.0430636838689637, -0.05823910777617109, -0.2176587123641596, -0.056567091489422384, -0.20242037310556646, -0.03840064871583703, -0.08097758658406469, 0.08850209151383395, -0.04201883100880954, -0.06983294305544226, 0.05637602147568099, -0.09179781144282055, -0.018548353413981235, -0.02943810979927502, -0.03080970492939598], [-0.0682750519860887, -0.1446764646223905, -0.09424324161313245, -0.17477443359380165, -0.024620944109713078, -0.08842914628372175, 0.30762642068134455, 0.09197926323339502, 0.09400991810217038, -0.0031076560044203286, -0.05590892660337106, 0.03775787694832698, 0.14478295342516856, 0.06505743744496456, 0.13652574702065887, -0.14305383812571013, 0.1821096410017181, 0.023962086390903067, -0.05649527992508443, 0.08829768384984191, -0.04144878461692057, -0.2242932335260986, -0.0016769340822470054, 0.12301838640305916, 0.15975549714440387, 0.1389029643851488, -0.0684151289262151, 0.2560979218064468, 0.050382311916586625, -0.09963590401423973, 0.14065973881666008, 0.10723845989678857], [0.0986476345630082, 0.07550867302318061, -0.006736447164612139, -0.031050758660553002, -0.011143838488168065, -0.030695899465107923, -0.04346148944864857, 0.049802333988038905, -0.0055173912202599856, 0.02420722742520493, -0.026151854784797375, 0.03011412650680798, -0.05859889499981186, 0.007910621246263055, 0.010482933906650265, 0.020985373407096882, 0.04286969117474531, 0.0328958952380308, -0.10391050890773985, 0.08167851688428933, -0.05321327016617546, -0.06642764231265463, -0.0454273236019139, -0.04345525216929405, -0.009046676197460427, -0.00909821820798603, -0.03284621304821769, -0.02049359436776331, 0.001241607432578638, 0.020497929970309574, 0.06523190182458101, 0.02204174871621672], [0.027001217151987444, -0.0248930527215553, -0.21255571608622142, 0.08697144123130147, 0.05140870077592034, 0.0472448444026646, -0.023899220409987237, -0.013184682549372263, -0.013837668348975766, -0.011517352691437197, 0.07647940651892082, -0.03122314184693989, -0.036059351684760814, -0.043446827386455354, -0.07070607721545658, 0.03165738538782307, 0.008777302112368933, 0.1497231858878403, 0.028840780547750054, -0.06033268030682401, -0.18080440183841115, -0.061774843412532206, -0.0009451663832727014, -0.04611923883854477, -0.026162852406672255, -0.0012750799586872348, -0.08748774161105594, -0.03240055587542567, 0.003232956452332632, 0.01841285350764099, -0.08207057524502187, 0.04417723653097961], [-0.04033964736328454, 0.0106612022796425, 0.12215143672297318, 0.13740638359464072, 0.2046166080641523, 0.12235947262131583, -0.07268459030319005, 0.046861310615516794, -0.14439388230828448, -0.042809833600660006, -0.04903060958473219, -0.039883916261913496, 0.14409533061180357, -0.07585471624425542, -0.011835126002243707, -0.16200301769159353, -0.04638410364685978, -0.09771597007892648, -0.11409279608429877, -0.05906686547799715, 0.10625734565710371, 0.0960042444038827, 0.011600836050210332, -0.055192797498380144, 0.07178868746691448, 0.022071499612325424, 0.00871986067403172, -0.06607600273150467, -0.10720670190641383, -0.10601374514779209, -0.1003254682774335, -0.11835086969813426], [-0.2225301409058683, -0.07070296851511895, -0.08048364275470028, 0.003764986688558374, -0.19187350387083832, -0.0903489445959261, 0.09541582000429574, -0.04132090134134152, 0.05617425218491618, -0.007651227021648797, -0.2257005288758918, 0.14440429677273814, 0.17570070619146283, -0.14164695727865473, 0.03674664652957722, 0.04595079040132639, -0.0349019182053022, -0.026703211756225063, -0.16857160468887686, 0.0034923210867426595, 0.2145997628331928, 0.3337495660988449, 0.04470856957227591, 0.012965576669410771, -0.01256014670553153, -0.03286720889041029, -0.028664582236442623, 0.1412162837592349, 0.1957459846562643, 0.2764225746451042, 0.009106961852875168, -0.05931995687837203], [0.0443900961061821, 0.0029705379736069243, -0.05520972548085069, -0.005687981819872642, -0.001674103369104158, -0.017913560336471547, 0.08335575455669791, -0.008878177883257815, -0.005645071785861073, -0.10735840773256465, -0.028883373706913885, -0.015761413276409196, -0.04834237283140676, 0.0662454544723135, -0.03052170864012431, 0.06242176763762222, 0.008596272039365374, 0.019114499280420777, -0.005839591220891946, -0.008884505945680308, 0.062034380232328094, -0.11613310299754773, -0.09063066316733724, -0.03476574829148955, 0.009018100351188794, 0.030828311543152184, 0.02230074774321456, -0.013986855108705896, 0.052571296162120584, 0.0349916635897982, 0.006116198418325756, 0.04571799025780499], [-0.007405340004992822, -0.03681862106596179, 0.019781605540705363, 0.013882909510322365, 0.07939051396058594, -0.02746667358722171, -0.20452819113113815, -0.1502031143534891, -0.12538940454686834, -0.05214449401368307, -0.05113992603327228, -0.023099678057439423, 0.007127328470636768, -0.11275986626045266, 0.16137655736549195, -0.005250694794308082, -0.012958707590829628, -0.04719509452115666, -0.17516813588906877, -0.09856401441434376, -0.012699002858692307, -0.03600164001224397, -0.007065884361566502, -0.1096202806411006, -0.12573592332619765, 0.035047757441438045, 0.07212771409470459, -0.15334787765292715, -0.15103731247799054, 0.10420787307955824, 0.055672715510424305, 0.09456743577327133], [-0.018502086571675482, -0.0672943409096945, 0.026078828706267022, -0.01588080266885276, 0.06399453767890116, 0.0033338622960660644, 0.09171601786254927, 0.08224244790407412, -0.021644934728769973, 0.07805723145242789, 0.07337321422390579, 0.0852553917826385, -0.07450085032783477, -0.02678458014605785, 0.10322871627411948, -0.05857427548345375, -0.06772558539216188, -0.030235320524461918, 0.014243730329173752, -0.002794020443430019, -0.008150287064126368, -0.05823190355098039, -0.03825973018314672, -0.07683692957798698, 0.13926524763113735, 0.04732274521635882, 0.07221767521087658, -0.02346433494980111, -0.04520643142708248, -0.0747541813935334, -0.10724839288440711, -0.08479011625274521], [-0.17967110415123688, -0.04341449833642459, -0.19959153893716094, 0.05843508344215107, -0.1001305679908958, -0.10891453743083616, 0.06509146825128015, -0.04718198681433977, 0.005412304815119215, 0.01778365821383658, -0.0034042645236592667, 0.07273815017205022, -0.045983261158682114, -0.12099699872726814, -0.13723392751765343, -0.09820961027956344, 0.04676540109924248, -0.009122975996139936, -0.08057019867260996, -0.025898657606765397, -0.05744533367969607, 0.08052591038991934, 0.04871648937759806, 0.17938990786198913, 0.08450654744556814, -0.1343910845149301, 0.0878200290394313, 0.10195140518074858, 0.1440452851949236, 0.10906138563014794, 0.10518998742256722, -0.041483951790741595], [-0.10823000899368361, -0.09937135663835761, -0.021675058083870442, -0.10148087921198069, -0.3048981908427502, -0.03722727088158196, 0.19609337869080434, -0.006035930535980253, 0.0671255727946549, -0.0722032136531769, 0.02905704279998715, 0.10931873502282606, 0.11681031221583357, 0.060564436030518955, 0.18886291585270726, 0.002285777379730426, -0.0283821317324532, -0.022085060654885497, 0.2492814841120934, 0.017637072590517257, 0.11508123490982367, 0.06422719236499586, 0.06854359958560488, 0.10772134145926615, 0.06878047319461365, 0.08662300230327469, -0.04167964961888195, 0.2517972116076191, 0.0743738665879697, 0.2143726949174508, -0.25740366386473607, 0.00158112649803453], [-0.07837580008416388, -0.13861353859445355, -0.10003405006917747, 0.04160889724798013, 0.05470689989098811, 0.1017185665766949, -0.01939366647644827, 0.03354513469075399, 0.18949854567054106, -0.002731881086993479, -0.03578644990245715, -0.025884740147804203, 0.09015866177199225, -0.13430982975816413, 0.05121555974963061, 0.0017505793999685485, 0.025300668934499518, -0.09634539077896545, 0.01724667164317613, -0.0796705647031939, -0.010246569141353338, -0.15009325242471305, 0.016224021275317697, 0.03689660473532669, -0.03085144087995053, -0.17052817212787402, -0.016290668215979007, 0.06830769163133343, -0.10070125010031725, -0.03580083217348821, -0.16103139865028757, 0.08360466470896562], [-0.03365458175838185, 0.02013719843044339, 0.028188328574212627, 0.09153626947546116, -0.01011670135677528, 0.018745896069933477, -0.07403034832763584, 0.0593423828154608, -0.03791153645118531, -0.02795372070407732, -0.0011090575573490208, -0.07791013474412391, 0.011404237192864685, 0.04822841044427541, 0.014602816726545852, -0.07920689953091588, -0.006171921059009112, 0.03699030704834109, -0.09361816070436023, -0.05357732656585982, 0.04369589503325741, 0.013464317903515396, 0.02053687566194535, 0.09269623273782829, 0.023357460977199762, 0.03279586470504126, 0.13513127181313422, -0.010658205118892436, -0.03977463451399123, 0.021325746290738808, 0.02188380116105987, -0.026256880287203705], [-0.11516995051820274, 0.1297719375192383, 0.27345547818977634, 0.14199389368363383, 0.2695937701339335, 0.09728674947895781, -0.14240093901185083, 0.03125637403805883, -0.24849806310201886, -0.019056828021805, 0.09117532957611328, -0.14500325559846752, 0.0816886299368052, -0.04530548515501887, -0.05757188249337694, -0.04201158193472669, -0.15306249221538248, 0.027359058643115095, -0.27143708504166725, -0.050239748295264765, 0.047479115710369474, 0.010519674653415268, 0.08927213351949122, -0.1103120679117311, 0.16377861814630493, 0.13212830980995782, -0.20340348046858367, -0.031722273911654865, -0.11077810669832731, -0.21901188927697698, 0.005057880351637196, -0.14035177488219164], [0.16083193413294797, -0.0034356399611637114, -0.009424029576040723, 0.2355026288110922, 0.1149119275918175, -0.16145326916402974, -0.0541228142198943, 0.014254944011051249, -0.11942807363686768, 0.0295871875702751, 0.1332513301127469, -0.15782508870918133, -0.05439889260258608, -0.052605422968890064, -0.14183412183460314, 0.09233253662705695, -0.04354220224032752, -0.0016721772633786704, -0.28746786076637953, 0.0922560536782338, 0.0015410791704800106, 0.15745543505402335, 0.21525972589230086, -0.16163156845747262, 0.010469132904288162, -0.02737747091889484, -0.1901602703894954, -0.1011227169097889, 0.029207234386440826, -0.02318316452173579, -0.014621986438691448, 0.006037587385968734], [0.22853481296985506, -0.05104174182761502, 0.14020112840454554, 0.2864767424013752, 0.06231530945110428, 0.21468635231900637, -0.11188339806158316, -0.047961817597385215, 0.02949912711826594, 0.008167046705832133, 0.19132207401697585, -0.0732259818779871, -0.008122534444251709, 0.13826947711614207, 0.08003274085510424, 0.028743432906505433, -0.014306102456949474, -0.13760008184047576, 0.1134111609692747, 0.11425477911169632, -0.014710831048084834, 0.07072310419164662, -0.017360263008732786, -0.10584034408528964, -0.08723881467932826, -0.13881030076315823, -0.043690194772603386, -0.18409335336230637, -0.038946875432554026, -0.2280750698672279, -0.07490381570643455, 0.042739978017723286], [-0.2679424962861301, -0.06467233526192609, -0.03233710701417645, 0.033762073937639026, 0.10125592135642189, 0.19366501637072, 0.2655039921625097, 0.129533064400234, 0.11213708843421065, -0.1167438590140683, -0.0901790055295297, 0.07882741906821934, 0.2073323025086463, -0.0441451114414116, 0.22284128340767184, -0.06196179149381478, 0.22880407096730251, -0.09489758243244333, 0.32017371257876853, 0.03629188860231713, 0.12215234854921345, -0.18524416457374945, -0.1052066955882367, 0.14042675151021283, -0.04952251300015245, -0.06827263314406416, 0.01339898756771031, 0.05788925817002992, 0.058644082485271996, -0.06107113367418236, -0.18679166169064276, 0.12045971827499008], [-0.07035685969376088, -0.1297247403134168, 0.12403436291316916, 0.08249880382750506, 0.22905135208466468, -0.03338186684993881, -0.06719086019884668, 0.06411761854941989, -0.11620901777351193, -0.01255547909506881, -0.016567270613706105, -0.01027143805489345, 0.12111418363518872, -0.07667790233779528, 0.09436425176813869, -0.12661221323145774, -0.0695208450888843, -0.07700157599625042, -0.1335782025251521, -0.035790233304174475, 0.06518216372675907, -0.08681211356248457, -0.00467309147337468, -0.12796659938063015, 0.0035616366918262395, -0.017534671465404585, -0.020087646613489187, -0.16124082615207136, -0.12193477747695448, -0.022279262060038746, 0.10452221560254901, -0.031982980405127655], [0.14953277370140125, 0.01185386673922539, -0.17976101244702866, 0.10448717494612225, 0.11183748418437106, -0.006914135744106431, -0.051763092220523436, 0.020858499997827327, 0.030946427910036725, -0.13669438127341962, 0.05757268207828874, -0.032131480686444204, -0.08698754591490077, 0.06613277640328173, -0.08461727555893477, -0.09033244926725234, -0.0012974910526194535, -0.04855291568427958, 0.009880772209616553, -0.05901095933146188, -0.16721747174378412, 0.06244342202758595, 0.08306565512043872, -0.05556373733930915, -0.0669291867256093, 0.009898842930070989, -0.014082722267897169, -0.0321298623222507, 0.07524069119771806, -0.13157276398473652, 0.05722571621400975, -0.052657582995503965], [0.016199161140960688, -0.06682351322929676, -0.016105864783942943, 0.06641339435819155, -0.007979849299399891, 0.04284652239904525, 0.027715781435403323, 0.01082726914062663, 0.05292258243391536, -0.007964291083081946, -0.08645048062770012, -0.0401916617770266, 0.03625844490959725, 0.02114288269488015, -0.06560186598740139, -0.022002245267350142, -0.04730887580624754, -0.027857124155160642, -0.0651257990579787, -0.039952971344669685, -0.024483880114727862, 0.032888922951813136, 0.04111294422604305, -0.003054113309807486, -0.020164033957097052, 0.01377328315581362, -0.04085482805144104, -0.0439787430786138, -0.050742712583273675, -0.032509151851607056, -0.075377859047304, -0.0007538501718402946], [0.12057959873523402, -0.11847247976710727, -0.07300402092696451, -0.0007479677062327186, 0.033928009969724636, 0.014130128983391506, -0.056285632783001784, -0.052571833390535186, 0.048856668305827376, 0.081328810658863, -0.07470483103421441, -0.005030205937072245, -0.006982237514182463, 0.0055018411438470995, -0.042747073853747375, -0.026609775666687506, 0.07860921120066774, -0.016551932661480452, -0.13940915219506694, 0.04063378731310428, -0.1548391166862006, -0.03330870786444229, -0.08535863107574336, -0.08694694826093301, 0.06766166367426035, -0.07008931216446514, 0.033037179697560225, 0.06312658063070929, 0.02993323067011824, -0.10725257020701238, 0.10379004141399972, -0.0391962367085659], [-0.010644077477858109, 0.055662794177573895, 0.07810880533464301, -0.06225375550745609, 0.0009049655507429476, 0.07621593759559334, 0.01596097397401355, 0.010639169312432476, -0.022103225357261152, -0.017788188009447682, 0.006883735850457826, -0.01923323601147634, 0.005331762470433028, 0.0035841824766526726, -0.02849606956093598, 0.02086523394894758, 0.13650536678720854, -0.08810477669403678, 0.00809453020780215, -0.04302308251142403, 0.03966203385185327, 0.0023982306432103295, 0.040681101849260284, 0.04804707368300703, 0.010732238276379268, 0.06470484328204969, -0.11288586800341399, 0.0689344471299839, 0.00811967121800402, 0.04910695727792514, -0.0674232430648055, -0.04829340857261295]], "position_embeddings": [[-0.009561175997059676, 0.010736733061539782, 0.02547747036982278, 0.04077634772528412, -0.0206190953724446, 0.024209437068346707, 0.011459736240877661, 0.012415154821601038, -0.0375013753359436, 0.009814085888575429, -0.03894069651384255, -0.007456150455120674, -0.009215126223216324, -0.01491529086958816, -0.0012503667529472034, 0.014569547666407088, 0.009970555145580548, -0.02178413118550195, -0.02110971080312727, 0.024948916682391655, 0.00582301450604565, -0.001559714862732501, 0.008852570039952493, -0.04548379204826356, 0.02193755834786188, -0.03233905176531413, 0.008782856761079646, -0.013428980915745752, 0.04735768927588477, -0.03437411154096623, -0.011372611176615307, 0.0443874631698538], [0.012342304677255113, -0.002630132269749523, 0.024182779002191762, 0.01765066232936002, 0.020659134859878234, -0.009932152037469985, 0.009631624908262044, -0.01610331099843409, -0.005106887417942705, 0.009286690471200202, 0.005384233881971965, -0.05249413958623675, 0.040446047882945944, -0.008642785198179471, -0.01322927568604168, -0.014333852356141602, -0.01725631542705541, -0.028719110023091424, -0.02122406784094828, 0.024102141050533852, -0.017094913078544483, 0.019428171356577484, 0.0037446775938113092, -0.008935316564787224, 0.011196704594158214, 0.019767147079399538, -0.016669482580113814, -0.04652744985651732, -0.027999369888821055, -0.0229489027871204, -0.03364141158799806, 0.016592569540737203], [-0.02065456581981023, 0.059640689476943475, -0.015469800535403536, 0.02246972035208709, -0.005625600614817179, -0.006021119952138529, 0.013672237349009209, -0.030942645025796613, -0.002367265921305153, 0.03750798590051263, 0.0005349806644368694, -0.015862649194612614, 0.042034636542810366, -0.018492748470933143, -0.010778874550388758, -0.05492174205406695, 0.025174347579613066, -0.012253389658213373, -0.030789410206730646, 0.002793503507436083, -0.016100476338936163, -0.00554866499717174, 0.02557604392682149, -0.041091242153447935, 0.03575777074551732, -0.024747290508413938, -0.019188578122137385, 0.022667742958826096, 0.022059313530562067, -0.010805695901704555, -0.0277250716086752, -0.002256538438268078], [-0.010767563817144854, 0.012497644731548149, 0.017326125828102643, 0.01866017383818386, 0.012062983143548802, -0.025186002700079663, 0.00046295845744489503, 0.03370957142258579, -0.03440103051560166, -0.0046303750780674335, -0.00785067682008679, -0.017872050245499586, 0.013387154725727997, 0.014279530728097593, 0.011470297318751816, -0.034371473657855894, 0.026483351735781507, -0.026087261067294473, -0.02233249077063771, 0.0069228432078843345, -0.014005786492722291, 0.022751251826091994, -0.0024253824254082046, -0.02749188739333375, 0.0016277719815962343, -0.008616528195408866, 0.015006422660620744, -0.003885373719412534, 0.03302507592327697, 0.03274540183238974, -0.029246976008910432, 0.009717889759108556], [-0.03573503278415601, -0.004518395731949183, 0.006754551439613645, -0.002735326414979304, -0.0062720339499930545, 0.0011757234055767226, -0.012320683305255674, 0.03115814179425916, -0.025805240439366755, 0.05674207090669724, 0.0007590645037404701, -0.019130490426397306, -0.006067411397413715, 0.01805121457025904, 0.02377863896541036, -0.003291640142568883, -0.01384576091046891, -0.00559767469133462, -0.032476995526825106, 0.02956706304942039, 0.011586566791933543, 0.008550256605015783, -0.034636438815500104, -0.033284112147951156, 0.027592827681451687, 0.025991202238341317, 0.016229469536953166, -0.0483644233767807, 0.006649203169724379, 0.008943396815844966, -0.04158503415833921, 0.00906945442683813], [-0.006496741368290475, 0.0057580415966458345, -0.017532046748792784, 0.011297713315308513, 0.008931514418201352, 0.000673542808652059, -0.00077937105869614, 0.007020215246935521, -0.007602314707266247, 0.008939028200351118, 0.0031525081088371485, -0.028149772832946562, 0.023111681226321196, -0.053943054455403386, 0.01069631976561479, -0.009122326147078096, 0.013344581464431508, 0.009861335037605438, -0.04925147776890525, -0.039006562907454974, 0.0008988045352754119, 0.005209870248588582, 0.016486528521210842, -0.02345980957971002, 0.02734284852561909, 0.02175777813516226, 0.003246531088434618, -0.020681654728294745, -0.04260767751289346, 0.002445213447145425, 0.015297185698640825, 0.021373915954236405], [-0.0280345642862094, 0.025834613009299595, 0.037092319540532256, 0.04834740139397726, -0.0011604494992026211, -0.0007954270562474073, 0.024856450282196046, 0.01636587149657896, -0.029540698178426306, 0.008271621235064957, 0.020540561329027065, -0.018298172469295722, 0.02478097037797492, -0.01977055137208753, 0.030816317496484637, -0.026425293445311394, 0.0002599201664917379, -0.008187880004810041, 0.006853651083959886, -0.029974333900846827, -0.030769104409539418, -0.03487533600370189, 0.014478793266547054, -0.036242909713581226, 0.006405771127960018, 0.01687065199469589, -0.01848098589873777, -0.010151249015377315, -0.00656998786795028, 0.0003100337465852046, 0.0004115233354745181, -0.0054562515416874645], [-0.01491073235662445, 0.03321050280422335, 0.026499947676042277, -0.009342968356675144, 0.02995754389787933, -0.01816126542396563, 0.03973183459349353, 0.034799883229933715, -0.0005041385922207884, 0.002536795905663589, 0.004858286792509769, -0.007026137725059986, 0.013693519583073804, -0.01056941200655244, 0.018273449280596363, -0.020020528297571904, 3.775087605580702e-05, -0.03458006736975605, -0.031972276274383246, -0.035444249571123056, 0.010271899983165531, 0.040792238102943544, 0.042399663457320505, -0.047379117366272205, 0.028402257298944265, 0.03178951921524574, -0.015000126360416874, -0.013815495603351663, -0.04137824110881789, -0.006789510472716186, -0.030191134978685925, 0.01253006628450616], [-0.04261166749081061, 0.021972298210072776, 0.03961399800259681, 0.0014071976093822114, -0.007605709380541928, -0.038645006771061655, 0.004493494047419282, 0.0044948758523074405, -0.03842995506349286, 0.009590855923956953, 0.00047390339503341106, -0.04213064401850352, 0.009660922358501847, 0.005997661006068078, 0.013509142387313789, -0.010798215465781818, 0.025341719874855447, -0.03220408489449422, -0.009071755748426795, 0.0025453494019859607, -0.01355059517317216, 0.014652901050194305, -0.0017439495094775177, -0.003430416005738811, 0.02486123955798869, -0.055381022066225236, 0.018307439962924266, -0.07601158191197889, -0.012599036797875798, 0.007361162629786324, -0.015409903409565166, -0.020909114256556054], [-0.034210665060040085, 0.031198079882682462, -0.018351796610745853, 0.03964499409499446, 0.013382351720343579, -0.019099192864565413, -0.0004776131174419288, -0.004936257062611475, 0.009024473185644937, 0.015653129328876338, -0.02480154456848357, -0.029569354101317388, 0.0021019574353935712, 0.009086399501072135, -0.0248235098787459, 0.02342839659911115, 0.012539167120680431, -0.03257076767799529, -0.022538545362893663, -0.016362784823705952, -0.029700556379906085, 0.00777026685020663, -0.010536638773906927, -0.05572411126635647, 0.005703344923789196, -0.03362947128606395, -0.020387110225131577, -0.03356953471608139, -0.0173693957216953, 0.02840758490533588, -0.008640893441249355, 0.013499913319365573], [-0.04811658483717778, -0.00176351242540877, 0.025285079341942948, -0.0027599916149812585, 0.03265987010494724, -0.019544944681549967, 0.005810840340654246, 0.004192759589562719, -0.005667473708147507, -0.012320129123279962, 0.0030888919888392707, -0.026591454030013836, 0.002496794979285265, -0.006090738266838268, 0.006820391356242159, -0.010655922924839595, 0.004091269114076923, 0.007006542117196817, -0.014535701854588733, -0.006218428841760981, -0.0029003477092451723, 0.03927403193099792, -0.013093596313686005, 0.003134330693146818, -0.02436304530087803, 0.0076144019819853245, 0.026818477414937415, -0.006021259655721116, 0.0034970626377776566, -0.02268164720721296, -0.00880240577640604, 0.0038118420943783742], [0.005051007585637378, -0.38133568157409337, -0.04929920277572501, 0.19505743504547998, 0.06291675437949476, 0.014182697864299312, -0.09681866645913437, -0.138784574148711, -0.06904416957156416, -0.1917245173890989, -0.09946338870925554, 0.01615242013022511, 0.11750831982047506, -0.05891474371144055, -0.044578874970691976, -0.19379081765992637, 0.15361446811376486, 0.0991086845358105, 0.00201852927213286, -0.1477121370222476, -0.1631519581436638, 0.2707894433364932, 0.1805703003626937, -0.20721249010048967, 0.10679823240868297, -0.06715289028551849, -0.09346155439026435, -0.058514757591952654, 0.055608143865382646, 0.01788709938884562, -0.17588573425781398, -0.009773883046140618]], "q_proj": [[-0.004406958005057804, -0.11637804977380287, 0.10254095153770235, 0.08426083032632405, 0.002711317481157902, -0.1388000270228609, 0.02312464362835414, -0.012549081602574305, -0.2347115426783938, -0.2594836214405117, 0.09932356308014054, -0.45896471396839444, 0.03619138335338894, -0.08423059483229642, 0.2304573974800653, -0.08710098160863361, 0.11613595890956553, -0.07006020807794379, 0.020085935570668272, 0.12979387771105025, -0.08125540229116972, 0.17543947317742078, -0.1750690917021093, 0.051958487258527454, 0.1630429505022168, 0.1161259734873746, 0.3380302243222697, -0.13456471057756053, -0.2435283735704147, -0.17516654155466976, 0.1164694727534065, 0.08749146990315171], [0.01823465974401785, -0.1976647928632515, 0.13478416390349485, -0.2158132872269424, 0.2044784551310501, 0.503954684503437, 0.06484783498181548, 0.10276270787046264, -0.08690495800245607, -0.31877238206167124, -0.10623604357738659, -0.19301315763333626, -0.25478269859853975, 0.30361991311439057, 0.04808324654789381, 0.06663021276797836, -0.0545681568770108, -0.030562534852445252, 0.1704653881028948, -0.005928537114896114, 0.09323134509991175, -0.03471173731758834, -0.06030650037538754, -0.2485108233271768, -0.3484680265109994, -0.04633639400876761, 0.010106293025642754, -0.22643788069336337, -0.00636458766299817, 0.009171120803154421, -0.37997262814387284, -0.1611263601086136], [0.07190803178406346, 0.06829645078953371, -0.20321576127264307, 0.028052154555916014, 0.18019568202398475, 0.137088024886298, -0.01660045777042366, -0.08263528051084608, -0.11113236348457681, 0.08240672699753172, 0.03458719634713971, 0.11114831611957292, 0.023293403861945075, 0.14412506582561999, 0.01670274036933623, 0.13843571768420443, 0.1535131823020382, -0.14188857067267996, -0.3187952435276548, 0.2721091643507962, 0.04546144067163987, -0.30207893656005924, -0.12597572880334157, 0.13596445456661824, -0.04955544753514532, -0.0902120611955057, 0.24684420059779782, -0.18447217927432333, -0.14043762065276072, 0.03707662094540759, 0.06887785545794152, 0.0876603975609899], [0.16117387341725622, 0.03489525847418898, 0.08660566470757523, -0.045277935859822316, 0.011068538006324137, 0.019233094560371443, 0.038173169603477816, 0.13574034366086557, 0.09801089496499467, 0.00748781396719836, -0.1427378865556696, 0.012047307376248637, -0.00504114581095619, 0.033938388172511574, 0.3887864716407529, -0.09192226703366582, 0.07458072600700588, 0.18821609591415603, 0.01714598031153768, 0.41231713147227833, -0.0657359488072201, 0.05707833599511077, -0.1414680660225135, -0.06151543352382314, 0.04411002972535496, 0.1492691708076814, 0.05632380833039827, 0.22178352282716024, -0.016896504521594115, -0.05834586119969014, 0.4766326370581834, 0.06925829832398171], [-0.1261541858049862, -0.12227619852586166, -0.1660775773195987, 0.1654829988385304, -0.06419212209901322, 0.02295745161483774, -0.01087460098373858, 0.128602783100384, -0.14896304062641094, -0.18984209556636614, 0.03933150770423786, 0.10584721700000295, 0.05845983468788473, -0.14280953277827185, 0.11925567883971462, -0.13104359519625344, -0.0916475079402723, -0.16643040024000672, 0.22937887823024242, 0.11197939204233559, 0.10763641995696312, 0.21980071148623248, 0.4947460119160546, -0.30078886181092374, -0.12991813569330338, -0.10885453687556661, -0.14974072397279664, -0.1899022984202213, -0.05306190301864647, -0.21437185130488715, 0.059022607236753497, 0.008979930324462496], [0.0849223030015272, 0.08951750189472946, 0.1063058179593844, -0.06572105688292311, 0.3738522520318822, 0.041398485452344536, -0.3281246357318059, -0.17678840787178385, -0.3066956612048421, 0.003068900076097252, -0.021511419956268693, -0.08256162684489511, 0.35437358425231735, 0.09670083797883589, 0.12798149335916711, -0.16419269427777022, -0.17612797858903073, 0.006543775223638718, 0.03051432983333674, -0.3271852179370274, -0.031919785765321, 0.002373181802744424, -0.03813402160895781, -0.1435369869942855, -0.09515456248805552, -0.031047993157408953, 0.015964248931988584, 0.10661265136047948, 0.19058997206336978, -0.05188855927817326, -0.08025271072975326, 0.07717637867867128], [0.10698544031249374, -0.07653267397794782, 0.13918610132109918, 0.17226555046882186, 0.22760999455545783, 0.312939107497195, -0.1530470811046835, 0.0028055449033514736, 0.0018281562159096429, -0.017090030243101302, -0.11436592126226668, -0.2618689408360097, 0.016347381659504858, -0.13534923402325538, 0.015212914000089211, -0.14026086244537525, -0.19394140510284222, 0.04142577424101295, 0.02679225437043485, 0.10196972091042249, 0.38480296102409517, 0.04884688903308127, 0.08572573361044232, -0.19015030373713596, -0.22711434661365779, 0.27909600966857184, -0.16300886628752284, -0.1839579620399184, -0.006572035039539754, -0.01601095172146309, -0.15906535427913066, -0.05351796273309023], [0.2165695973398446, -0.14194476318019847, -0.24580662009751966, 0.16603342341368432, 0.08678401797584287, -0.10933843149586485, -0.2788404125240778, -0.13114068938446988, -0.00974266263012934, 0.20557016840460998, -0.1826392869351596, -0.014921253594992011, 0.11905682646436155, -0.41970480579205993, 0.1822250459291545, -0.20853144246647376, 0.05847954889478675, 0.043457518830312576, 0.19125704367693633, 0.09700816816640404, -0.4191946054102198, -0.13834061299177025, 0.02435753703767207, -0.03458602280080305, 0.08400199023803556, 0.13907841924066966, 0.10717115921222725, -0.03764227476298022, -0.32529554060741905, -0.08045038610657868, 0.073380584958821, -0.19197918786828772], [0.11089315767218784, 0.16009336681008965, 0.022120480943686568, -0.540308559294657, -0.22524949301028677, 0.33220648681470927, -0.09655006715678434, -0.34942241320743705, 0.21773874765231457, 0.0025661260113323315, 0.19470393089720592, 0.048678466700954555, 0.08085110497063622, 0.06408840140776, 0.12300038858038184, 0.4011092888314615, 0.1709033625976578, -0.278412959392467, 0.07881578173963132, 0.20084459578783265, 0.21096401532630074, -0.07534714661508342, 0.2059544755427927, 0.16309424679801393, 0.4533941921394685, -0.13215287337172546, -0.08951003395425473, -0.053924454295916364, -0.08639504071827263, -0.1568753820168182, -0.4868731847216659, -0.07656473384020539], [0.06507004424420532, -0.08681713911789767, 0.34087093110811145, 0.0022400486654548567, 0.22760386088633003, 0.04617535308590189, 0.14568608726084015, 0.049323823487737006, 0.24110803051758947, 0.01006635081276195, 0.08754441941061222, 0.06440317775278802, -0.05062877476875548, 0.07145874468663066, 0.3938287430557237, -0.047766370994237826, 0.07379793154590468, 0.22158884641600496, 0.20112911643917927, 0.0018266105841165175, -0.4204451813165395, 0.09096800005507841, -0.39080135756088563, 0.2587440856553217, 0.029899356000496917, 0.17601469216688972, -0.15894046619677757, -0.2735106558127724, 0.045849989084525346, -0.0060402205563875955, -0.08670189082505403, 0.015009766404574265], [0.48817508001708837, 0.1471129742064833, 0.1850380445868093, 0.14900280947740077, 0.26090031551341253, -0.033196498790493564, -0.36192394549620066, -0.03347170227295341, 0.14326027625516283, -0.1709573174557592, -0.03132566726303957, -0.12232057737437772, 0.26477113522261186, 0.13211108007893818, 0.11470162812946166, 0.10940789046483546, -0.0065717240011000785, 0.03475078226680699, -0.20869736725036928, -0.38531013103003153, 0.026957870112325796, 0.05698555550999098, 0.21281985319507127, 0.27701597860026966, 0.27694275997875517, -0.17591498818112764, -0.061942063011667284, 0.08465295611936981, 0.44597484332421516, 0.26081352091877763, 0.19735754448013768, -0.06841838029926763], [-0.15606347999494596, 0.13900979094828303, -0.19405006317961623, -0.04225323137103844, -0.02027010324040479, 0.28040041337210386, -0.06271383581262195, -0.4297036669561546, 0.08890126822263543, -0.12312505033247058, 0.0075385673048128056, -0.015205640250800017, -0.04823614327190568, 0.1393385073646108, -0.2701005237899211, -0.09113095648885476, 0.12053536883251185, -0.1081057366743795, -0.2834853572219662, 0.11778078474523052, 0.19761340544134062, -0.007921538888695595, -0.34546764224870447, 0.12432332293277137, -0.29258995561747386, 0.054511878005074565, -0.15648181005695316, -0.20445452837415817, -0.07783355669593853, -0.03229248178458726, -0.11356779160151595, 0.10376707572767394], [-0.07890993723405486, 0.1726771205600211, 0.04976781852608227, -0.1230228328616003, -0.1527809707156841, -0.29065733695165513, 0.05111584117869024, -0.062460443093822884, -0.41831288376587217, -0.09448268185069374, -0.15857295625300027, 0.27817514798993365, -0.3002429486944794, -0.2541411263124301, 0.1957345939420966, 0.23927079876112295, -0.13118818697470147, -0.11136707930708244, 0.10843041555141836, -0.40997076693730616, -0.32776465430874546, -0.049318233950720713, 0.272882471339317, -0.07660279591459628, 0.01739938721848093, 0.1999975450219766, 0.37107692366411243, -0.10167350669392469, -0.0024937217186356045, 0.32117169062461987, -0.2682914851257426, 0.18126323628095667], [-0.17945672884690833, 0.018105612413499544, -0.04280544503722739, -0.1688505043664366, -0.1732384405478996, 0.0487701662220282, 0.1755367936060513, -0.02290211408734958, 0.012405976300513362, 0.10073310504732767, -0.1713376940894199, 0.13021776536520308, 0.14440286304606234, 0.458893906993091, -0.06630407958564592, -0.08095984727154577, 0.1353962114172472, 0.14430371762959662, -0.09432133768607467, -0.07122067406894654, 0.09513232149224839, -0.1459382078786031, -0.07201640532112713, 0.015582335763540648, 0.1755396646926454, -0.10658438418131307, -0.32470424084035604, -0.33775225266164877, -0.22199770847473083, -0.23149865331401187, -0.027169100789786505, -0.2095117316642481], [-0.12426412558799986, -0.13642315448136186, -0.07765982123431824, 0.23284492236401708, 0.11655628176555571, 0.002593793333797321, -0.08141383479168551, -0.07618444893910283, 0.05745093429301135, 0.10307730384702672, -0.15973894202488476, 0.006764051490600061, -0.3581132836084023, 0.03722398844949249, 0.13448004603594518, -0.04951280802412109, 0.32005413558030577, -0.15530220166552786, 0.038113629420611424, -0.006469048524861814, -0.01820960689971047, -0.020058517116793177, 0.019287645728147933, 0.14911749367623747, 0.2423105162717772, -0.00018077329921107927, 0.14343535984205255, -0.12362083681953742, 0.13556252901556487, -0.13443590372008482, 0.19234889962324914, 0.389909402948212], [-0.021386141997208525, -0.38641311564756803, -0.09669560635443214, 0.21712406099886594, 0.0975908067216199, 0.04404123114835619, 0.1778496778344156, 0.08532682919981358, 0.21453312487628473, 0.1622623398243757, 0.2682760136118516, 0.06306068413206825, 0.15972385747139212, -0.054051648426765846, -0.10596380535178783, 0.3007707635314272, 0.037983321641459206, 0.1418043804919113, 0.022001681533905127, -0.10355796977248259, 0.0016309684506027558, 0.2530304484071317, 0.09812238944522085, -0.30200141582263135, -0.03801322061932015, 0.3142271336109615, -0.037731502687220135, -0.3172531457477563, 0.33370289545365145, 0.12015550488602157, -0.01226938454684539, -0.0653568506950276], [0.19050896777959664, -0.09555813661412206, 0.20229171327619283, 0.09534942550087673, 0.04297228074728678, 0.02551733414392951, -0.031082821839212543, 0.18449517670471538, -0.15245187599095605, -0.2859492912080062, 0.10819762571072557, 0.11134436931850977, 0.0844987245913443, 0.07189070578030429, -0.056503256128891614, 0.13871979718971802, -0.00805885334626196, -0.0857298853794027, -0.0552216634874301, 0.3561127252948716, -0.3061607932526585, 0.0880946120342676, -0.29569513649340007, -0.018987758937024913, -0.07639607284920916, -0.36759817265443695, 0.06855166517747646, -0.06706034792739901, -0.369967812768306, 0.14811115683690443, 0.2528944779963525, 0.2625490305557923], [0.06338094646301173, 0.008020802260213847, 0.23422450387367458, 0.29662873588234345, 0.1997709283538102, -0.16594782565985483, 0.03546670563832591, 0.0773702631025782, -0.31871751469672144, 0.08260599941624895, 0.40044864724790746, 0.11263303927274272, 0.25956710937932376, 0.03229241619231649, -0.012972504383790658, 0.06713667624849379, -0.14367928764185534, -0.16982492369065844, 0.22317551243983438, 0.24198924063644392, -0.17435931993920872, 0.1706426467424111, -0.01546242653490741, 0.06016357925550509, 0.08135997842887034, 0.17521714622698661, 0.014733796635733213, 0.24839731141601512, 0.05426938180211766, 0.11007554232056124, -0.14691786751657213, 0.38029357281276605], [0.08254160451888302, 0.1256413306912183, -0.28364495390546146, -0.14525698654301464, 0.21815559717762495, 0.05042419465471472, -0.33746358944490584, 0.18314515724652577, -0.09570069866189619, 0.24893811173043373, -0.015706528830600586, 0.035893054338751215, 0.2077322707189146, -0.15805426552676444, -0.17491169932979725, -0.03504733402343242, 0.14554181132003163, -0.23438358280097937, -0.2940994587340923, 0.14482042987405416, -0.1076694068199858, -0.06927142253946936, -0.3264896477544274, -0.12020465491475274, -0.0015084359214573755, 0.1643093981036346, -0.13607262446469706, 0.2920663267471984, -0.1204707676120943, -0.12046449773318545, 0.2711953599027412, 0.03737706892723286], [-0.0975167181230025, -0.027247329919473734, 0.23829445899859397, 0.2582049031619486, -0.14394915504868963, -0.007516460456807806, 0.015833113572527056, -0.17364574773969862, -0.010061333417442087, 0.00110533868422938, 0.20111288631545485, 0.2127966699240344, -0.05789604581768468, -0.03768910209953817, 0.11714385562225345, -0.10324908211441819, 0.10353673312992684, -0.015564970496162586, -0.17088703253177928, -0.16886838181534514, 0.2545753331609641, -0.027615082025738848, 0.28960365207067157, -0.09085111585280603, 0.051138446171464035, 0.42169675889674885, -0.18649684668981178, -0.3343858400394509, 0.2269338162131339, -0.14586923836580942, -0.0036059017346838818, -0.10309188149037736], [0.04685625476598795, -0.16749735833218307, -0.03174639664202451, 0.07907235818002951, -0.1777262184586697, -0.12365361640244549, -0.061304411747867917, -0.25167386019489246, -0.07492285765722285, 0.021172303714052987, -0.07001689955742471, -0.04753374888801717, -0.0033308192257938763, -0.11561962985402166, 0.12196425446059556, 0.253180730057176, -0.08191322243343718, 0.08549929791429747, -0.042142317244051, 0.06433245343416173, 0.2756855246699591, 0.08974034413703252, -0.3125004265598475, 0.0796180229344841, 0.21673827712049148, -0.03878173313283987, 0.17514533144546973, -0.12148385042943073, -0.2612748240037203, 0.024648382670216865, -0.3095178195731499, -0.04187482495001973], [0.22699031412497495, -0.3369311339606578, -0.22478983782959663, -0.1815397762353769, -0.01116824958453998, -0.06471489681569231, 0.24667276839808067, 0.16781687808279644, 0.08727630603530306, 0.025574058292729036, 0.06945689665086074, -0.1515477989976118, 0.15108529097689863, -0.19598642720025156, 0.14728330412077403, 0.20972624370421633, 0.0373053267932729, -0.031104117638662897, 0.07036275383137852, -0.5040048154884298, 0.05419127714642354, -0.019820406348106643, -0.00932256739750538, 0.12503567494613774, -0.013144123955919972, -0.20034029192412714, -0.025094615097924575, 0.011585518850580418, 0.020390680107045648, 0.028757474063499624, 0.18324957591614743, -0.19161071931538573], [0.031225818075642134, 0.22714410961525938, -0.3052962778579357, 0.031950635626992706, -0.1031997270169668, -0.06534812317096983, -0.15942130321276765, -0.030144679458478665, 0.32462481256719594, -0.22302963577930762, -0.2061862228652044, -0.22941395390279284, 0.3043508009613716, -0.08149992983374856, -0.004574089490452353, -0.07077707832573697, -0.1662968688727592, -0.04147814218206497, 0.433161564711193, 0.2456379172655031, -0.14948978560475543, 0.11423226522835711, -0.14699008114608433, -0.3125528106018933, 0.1797518003192997, 0.20474048861086608, 0.18430798925329697, -0.08300824246438132, -0.02934862333791256, 0.1323164725098795, 0.06900389335190713, -0.06952817138502954], [-0.28608696418308277, 0.020218792531704895, 0.1897473786634319, -0.2115772417922749, 0.11259034065447587, 0.05803786663871863, 0.1319079887415938, 0.15419104823195975, -0.12260833632309452, -0.2847427526948904, -0.09391555721400564, 0.15660790950841005, -0.09536638647034595, -0.12223559892288219, -0.3209269161188856, 0.30862239237856653, 0.14532188262148213, 0.1358368364246117, 0.17075530790032403, 0.1013654274198909, -0.04402222731035601, -0.028939455466620165, -0.07487890651014374, 0.4638596838779135, 0.09781963020833208, -0.081904168649434, 0.08196243536326382, -0.17798266576875085, 0.2652230237837084, -0.11671270662129189, 0.08826144413210397, 0.18812119082692813], [0.06764845372918497, 0.01660775306019369, 0.002079137136797009, -0.00994265152559119, -0.10172845576534263, -0.07945190968061458, 0.2606707999441229, -0.019087560258899898, -0.13838971053353608, -0.09120701845409397, 0.19384678642739, 0.11906624626420241, 0.09862404682245898, -0.04544116565947605, 0.10095742148351526, -0.11338593482063009, -0.0455962041242569, 0.17095726179487508, 0.15404093509438696, -0.17282411898526326, -0.15013458963177115, 0.019227634237969124, 0.3037942524127664, -0.3371511684778584, 0.04921602876886516, -0.24260969431711105, -0.11171219086963961, -0.06434633898096506, -0.07426458917943259, -0.0940090777548955, 0.0011372877635009093, -0.09443058555465784], [-0.25785511483189877, 0.13752574265720105, 0.13269182056561288, 0.14860468542828245, -0.2715554448971735, 0.0526440834572582, 0.11915949536131412, -0.18171829421041896, 0.0015917333133664087, -0.020455674433392298, 0.32467060780028845, 0.33918333722410404, -0.2933923032573022, 0.4395098325747976, -0.16131521214624342, 0.17266678981300576, 0.1711060058794989, -0.17549517337671203, 0.08694804881262945, -0.018915942715602065, 0.09775947467194426, 0.040747994077444415, 0.21086838307579728, 0.013316995130554312, -0.029627461881022187, 0.1930131179157505, 0.10234539755290421, 0.12905411867874078, -0.11717272895043583, -0.1843697566759811, -0.10008853884805351, -0.10933195711938502], [0.1383105240198133, 0.17215178898432895, -0.027771071007204027, 0.25188028659290007, 0.24123429678786418, 0.042866244288236814, -0.14495858240420562, 0.27796276223919325, -0.010854722584288995, 0.02240655109479738, -0.05979885421944221, -0.1568739311078466, -0.25868320436450465, 0.11162601822071633, -0.13799260102723682, 0.539184597475853, -0.19160379092850122, -0.2215629414402377, 0.08994871993975591, 0.26923291793191395, 0.010435471254073122, 0.10074781385397344, -0.3243243936486479, -0.11986133046018581, -0.1891709741365549, -0.33418189630502865, 0.02068415670337119, -0.39517218934260995, -0.23317585421069323, -0.0947347967077989, -0.14652652149981635, 0.0698691116226952], [0.05340143184910188, 0.1574748836361064, 0.13262931405624848, 0.20087088032299183, -0.0003656396697423898, 0.05304124186827583, 0.08990698237714867, 0.025170872342832447, -0.06998428476239588, -0.058504771706657646, -0.14409431053793445, 0.07417617410611366, -0.01660308713672049, -0.11682122797323416, -0.11670590973885422, -0.21357225585820205, 0.17253932514440207, 0.013974093910818311, -0.15173171355050621, 0.14253505580743653, -0.0986504555778087, -0.24793668743113387, 0.1797299205571553, -0.09457232317153658, -0.0721296729875439, 0.007262767678773284, 0.20126477015789296, 0.0035365924715506634, -0.21121841398384766, 0.09591722168538679, -0.08555956872129235, 0.3327956691718787], [-0.00048048079725318326, -0.39404225942477966, 0.06315077667646221, 0.3426579603606211, 0.27773689817941416, 0.3223285151218317, -0.17986117413042063, 0.16081423754824742, -0.12727240491280756, 0.03959870323627077, -0.22429869476272726, -0.11350057349541143, -0.11915772029119641, 0.1584465792762661, 0.1411544633670465, 0.048971254103658275, -0.2380153867461174, -0.054899842569552236, -0.13139601842180146, 0.15330370918477237, 0.20769854194509452, 0.18613899231883857, -0.13313908520316656, -0.4826998047011736, -0.31136443724403007, 0.2507263808804716, -0.07083538563380101, -0.1324263789252644, 0.289531857248951, 0.22311051213963087, 0.00427661299635186, -0.05179465391649745], [-0.02378818902365619, 0.03989639927167076, 0.28207133353146985, 0.07422718548355807, 0.12789885059869177, 0.20568562203664623, -0.2064357485245653, 0.13321135909661813, -0.05218543497271906, -0.44323607228247974, -0.37482281878441465, -0.17918137204165577, 0.09375035026422154, 0.02018435690177885, 0.032617347296864184, 0.3441487493416533, -0.22372850380467998, -0.0047409329571066324, 0.05355473165571216, -0.1298417679057423, 0.0044056831143462274, -0.2818299800338947, 0.2491021101688835, -0.12026980218187804, 0.35779640468659574, -0.005496219263865653, 0.18100551814765523, -0.009411546045919258, -0.005153944285298541, -0.10292508636764089, 0.020939923989976367, 0.0561137924153346], [-0.1383476709391548, -0.02184816287031351, -0.1078640168496621, 0.405147783653888, -0.01576564703062093, 0.27243850005489834, -0.034458563478147436, 0.04590082584553935, -0.23299171237314958, -0.07868897624531121, 0.03720242303145028, 0.2794310220034206, 0.03926496736071568, 0.2439154757453933, 0.11290086386941332, 0.2867824930532567, -0.010498189143376527, 0.4211766200637042, -0.08544730710971565, -0.1352543165371257, -0.21352271275621051, 0.4108107162476544, 0.1448139775038258, -0.059066440572351685, 0.2203385507629612, 0.12070440787062833, 0.34669514568529647, -0.2726344433147221, -0.047094087743771974, -0.081608341205107, -0.3480207039301532, 0.18687156713730393], [-0.04784943316405634, 0.13038678380307112, 0.41570583949624, -0.06249194786845606, -0.07429067465871386, 0.020925007181162796, 0.17384002784682182, -0.09968797761580367, -0.11136418561832005, 0.18638772816138616, 0.06680192333465562, -0.36030739040196436, -0.2159956322610827, 0.2646179835392908, 0.07088527886855568, -0.13450977995305938, -0.030195339171840963, 0.0023510183599163284, 0.12942247487133632, -0.23961310509200393, -0.1489588594297195, 0.04813990453318885, -0.016920179184496672, 0.10049844212311168, -0.21687829651591817, 0.06286001479245878, 0.19231142913587723, 0.0858692669446874, 0.024689815439918134, -0.01696026259861711, -0.14708195277568614, -0.012580433466984038]], "k_proj": [[0.2221971986233444, -0.02102568308047296, -0.1571496464356358, -0.0869016575688382, 0.03526667400879516, -0.0661795134921522, 0.08555161493661542, 0.09222170832870223, 0.15676763554613823, 0.2507816903338647, 0.17541267992400472, -0.16458194800368414, -0.15968277957221633, -0.013074053815740014, -0.07946155467240103, -0.2000925030378175, -0.0778285715070473, -0.08347584581829615, -0.11840558958795606, -0.05600580155789245, 0.20767987924073833, 0.0350220815551895, 0.43562640319684404, 0.030193466762394223, -0.05112883891385443, 0.0002769621060501841, 0.044975125713737886, 0.07718662702205281, 0.3661112690928552, -0.14914643662247487, 0.1521347008647378, 0.03617444273355975], [-0.27703109288952116, 0.13596855112290146, 0.2234636340365947, -0.1511510569938472, -0.0017281190370891852, -0.3040667950600155, -0.2219116663749315, 0.18451576598079122, -0.08223556800179443, -0.1953923140213399, 0.04081070336197825, -0.09219863629854927, -0.08269433642078353, 0.13058134030770155, -0.20503514342344564, -0.1599692537822193, 0.02711418438974591, 0.1708080665904841, 0.21821474357781198, -0.11700837693012445, 0.16507433387707146, -0.1381829112633505, 0.32171925388422157, -0.19980062617178612, 0.2340555688187382, -0.11580362224663053, 0.35493298801118917, 0.10391753228769961, -0.17917393020686492, -0.0923134025192137, 0.13737566389252676, 0.1855160605224635], [-0.012387722588055042, 0.007783120630495087, 0.13358445597320567, 0.023297908828001698, -0.22806427324224526, -0.143386996542871, 0.041506469142176074, 0.21416631569838915, 0.2845901184183799, 0.13757563154159136, 0.050723459990175114, 0.1321538616122444, -0.11743382470136188, -0.027124609059126874, -0.14540957807013072, -0.2206761517122852, 0.05855290222135663, 0.03293436108583505, 0.1214642743708943, 0.09633261359915347, 0.04275550579491489, 0.09830980411705911, -0.006991324324161144, 0.07228681832206521, -0.12810783632701794, 0.06516654641190371, 0.11785257828881762, -0.1177999774908764, 0.009025996058679372, -0.109709514070025, -0.09266686256836575, -0.1979330645117057], [0.22347004911657578, 0.18766590537501343, 0.09415162859928572, 0.3475100947253674, -0.03361476403910085, 0.5335409685568954, -0.03986114451814849, 0.0451827933714797, -0.07010220942477123, 0.06563698912946048, 0.1469185137190927, -0.01987320768010367, 0.3126757905451619, 0.04195044555320189, 0.047807118767977635, -0.1597775792527307, 0.07354375293184089, -0.023174005508331125, -0.10683858426639069, -0.13725686275677668, 0.4709931501264578, -0.04620263200454943, -0.25607172346091295, -0.12346226558512507, -0.009222297629796278, 0.09608903442942318, 0.09734227111269406, 0.11957786461890953, -0.1134336551554552, 0.05991384607473379, -0.1539104939153978, -0.10958750184762794], [-0.1613821472455603, -0.20967245006881247, 0.18694355993522138, 0.12131908066149351, 0.1719167564098319, 0.006216538948959674, 0.13715583759783476, -0.31024286419343977, 0.1519186950319044, 0.031354556807115866, 0.11032475599058435, 0.06733223931896364, -0.17441027642282583, -0.2641429038933902, -0.1254124483344756, 0.09950499123226433, 0.12115685272130722, -0.24081216151091878, -0.1724111846646476, -0.12792584789690484, -0.06314817802505687, -0.2399853472348775, -0.24972655896872697, -0.14547397381520033, 0.01506354890361094, -0.2085451214203623, -0.020763362023430702, 0.18710284252268067, -0.2294772510048574, -0.03653456181150238, 0.18129991595314332, -0.07389069746356101], [-0.10108751788840979, 0.20507801399386721, -0.05396359946593095, 0.19464643383371288, 0.07558312970359016, -0.06046823508867716, 0.08457891110777, 0.056537254093174595, 0.17989354186417378, -0.09654797344453217, 0.007184737232054116, -0.01072237335186426, 0.12379543151027077, -0.18064235036365814, 0.17918064929549052, 0.08234438661964928, -0.23215500240192105, 0.21306721828857997, 0.3937831392800986, 0.1765194308217409, 0.2517592729132078, 0.014952546754038874, -0.2926663623417362, -0.32513367918607, 0.044878015918509685, -0.10428918766260133, -0.16132087755576607, -0.011005665129728701, 0.10857320363924404, -0.25607895631049726, -0.07897440669567526, 0.26603261926350574], [-0.18981502359387728, 0.1533433851822821, -0.08499088138354922, 0.09624684241340065, 0.193713874210635, 0.13137706928633447, 0.16005781906748476, -0.20312168507135714, 0.19641065627299567, -0.15049522923855774, 0.04617701463177078, 0.04522106112416954, 0.08624140538486585, 0.05952448765735134, -0.14875215711530967, -0.2383987342853634, 0.15390401597518358, 0.03245147441876733, 0.2023585213896908, -0.007528484723897749, -0.24759475682973034, 0.17010713845391828, -0.06575818129543613, 0.06056160604917782, -0.11391712225876552, 0.2902453375459777, -0.15422344002324917, -0.06032712757701402, 0.018994507631037705, -0.19268659592179974, 0.05727371698261195, 0.2840880456778775], [-0.08653468114000802, 0.06962435182658747, -0.48440912956295984, -0.0068572857327911215, -0.05504185805301529, -0.14392293674610396, 0.1904977588442277, -0.05762505465455481, -0.0312761126324035, -0.06643737330458467, -0.3375746684181618, -0.19964509520036666, 0.1697549801100501, -0.3717697958550485, -0.1351847567009786, -0.07084789367545406, 0.30736509428212155, 0.13548622732303944, -0.09825385956229893, 0.23016505025171674, -0.13042682029303893, 0.17791599528164947, -0.23961348710998193, 0.18917906917054886, -0.07156998899329202, -0.1810986830860446, -0.03811733707854458, 0.048656640512804473, -0.08726030739540089, 0.09767271029121638, -0.10308496581783196, 0.10953005174489605], [0.07770343767319922, -0.010643279504634827, -0.07737848973947321, 0.02669353055363129, 0.0972248073881319, 0.3640056994577433, 0.1653472037793353, 0.1718935070270515, 0.5444987479661471, 0.0908214044298738, 0.08552653439153683, 0.12384134789299757, -0.1775528349209658, -0.07812533017958122, -0.08918239711092556, 0.11420515209360402, -0.0303727088239647, 0.024093574204430646, 0.19125240550212055, 0.152224043839028, -0.028403302308880288, -0.11835585566128233, 0.1992632843098627, 0.13697205216986139, -0.28301649851683847, -0.055064628979493664, 0.029345426703893108, 0.13697910290688192, 0.1604333219656074, 0.049955844669568435, 0.10289696751751214, 0.011192587137063484], [-0.11887923503110454, -0.04597692130294259, 0.0035417924708180176, -0.006149894186011561, -0.33228674712447825, -0.06983142133023273, 0.009754931250211547, -0.04978780813202288, -0.0434370885857817, 0.08600574157405289, -0.1899632667639634, -0.28715299080923934, -0.06108203240400078, 0.13484375533407042, 0.2972393853277324, 0.1376704818404782, -0.25859165561895464, -0.04095397752001975, 0.04503617510650877, 0.031546069756145795, 0.09511800227638416, -0.16157516448793474, 0.01103531982113055, 0.07435757390107998, 0.1454820961953793, -0.14191508572553554, -0.06066320241677009, -0.47687169651493433, -0.10957375555081374, -0.09247405622284573, -0.1800937866804801, 0.02927382374956623], [-0.009727140516468004, -0.3982100936992295, 0.03770133346849225, -0.1637270120109538, 0.08543553054850643, -0.22628721146430228, 0.005362160935782602, -0.04992082809164548, 0.053449051045488125, 0.021864018656389345, -0.04485555121521363, -0.2707172635273231, -0.2603899845399313, -0.10271374830960223, -0.0014215010288274308, -0.10723211115571302, 0.11008352512239844, -0.04908691292790573, -0.16995576143725294, -0.049241513036519136, 0.03977769812301291, 0.057215632129466655, 0.33133341733317123, -0.11794690156158799, -0.012952575362647243, 0.07492926929541734, -0.004294530096553311, -0.08843382688658, -0.27293723018929883, -0.09038710560851547, -0.18934194507235755, -0.30467416435931893], [-0.14043800851604554, -0.18443825679707743, 0.10316265577297856, 0.10600669735233936, -0.15918974850859022, -0.04552813798756467, -0.32756649874345367, -0.08713816598487174, 0.07038284413842957, 0.145346185503202, -0.1256722762718377, 0.18530532436390773, -0.2670275214838858, -0.21992996846751442, 0.1251646973366515, 0.2945929385197972, 0.08703144816684007, -0.007391651901755545, -0.3870449945019347, -0.356382354679922, 0.022757732500847925, -0.0633100979051126, -0.19514460588058036, 0.011696816913964977, 0.02040904963607508, 0.16660935914562558, 0.024188957892018727, 0.21641039595914988, 0.0013660648985306392, -0.020309379338405858, 0.18745143178896403, -0.1723594481979112], [0.49599828540298135, 0.06608193193799312, 0.06722064228588169, 0.09264478220771942, 0.3309382280586215, 0.13981929255414155, -0.2828587871771651, 0.24736010863766755, -0.06013780534212541, 0.018908829129207473, -0.22542547754931488, 0.09276524549045438, -0.11455989887297618, 0.01740756832661235, -0.050046219860300424, 0.33894963021244456, 0.34925426154978023, 0.008236991258039407, 0.011423454531829092, -0.06559016365718674, 0.1950060846157087, -0.05781419407227669, -0.07397275537544949, 0.1721952727218726, -0.09484623159342244, -0.006378674441267419, -0.27861777779931207, 0.12399980381883022, 0.34206574668571227, 0.12727709334587198, 0.25745887001683115, -0.1488960264807483], [0.04162649600146716, -0.16621710071905912, -0.04004587879471663, 0.13608413390074733, 0.018009304030009346, -0.24877541963227068, -0.23183595431424087, -0.24344534855758396, 0.08668243144010498, 0.3637015505453925, 0.24027634860365923, -0.33426590104875187, 0.25064188247377794, 0.16514061735926486, -0.27236743691418397, -0.053545625016894145, 0.1931937713511551, 0.09701661159095963, -0.23086685364888557, 0.1077453449069445, -0.37655315419414875, -0.03931890421082215, 0.20036504316732925, 0.003366101735628652, -0.08788204470950624, 0.15687977598128414, 0.17187239288307346, 0.230665969720441, 0.15418043240260434, 0.1905765608201096, 0.12892520618886055, 0.04677642619906944], [0.01547607475500803, -0.04180449627453321, -0.21312564039661683, -0.16824113309896607, -0.04941547258377795, 0.043364871798940045, 0.25378405410835986, -0.0075081176347547235, 0.17681868248630658, 0.19030346505034387, -0.04057846697996859, 0.10473872578028116, -0.042704000659356686, 0.23305819622992538, 0.1118574797681526, -0.2100944155058515, 0.028639247096031224, 0.2904577421364566, -0.03211222422454564, 0.07940287790988437, 0.09657695819796072, -0.18262178909426027, 0.08979535371555644, -0.2455792524413952, -0.11023445250119202, 0.19003065889366605, 0.06310916704053225, -0.05389566680556291, 0.0787521362286554, -0.01031605937959874, 0.001879241117972659, 0.11602607416452132], [-0.12835434445861338, 0.007211737830563044, -0.054820346210458365, -0.2794428422041619, -0.16221639017305906, 0.27658770769184865, 0.06770428564880165, -0.23339694532387228, -0.27140947199474713, -0.019779267688318357, 0.27524124151015406, -0.03306052488200773, 0.23045246977566103, 0.06213093789291301, 0.08299428995700427, -0.23542091494370548, 0.16530027123124005, -0.0590681436949465, 0.1520390367797302, -0.14334580732374322, 0.031101144267796303, 0.0621080113944296, -0.027352059826148505, 0.07141908141688387, -0.04700231218319746, -0.1143156805763651, 0.28303417291636435, 0.18449928183247633, -0.1340357938941852, 0.10010789410248042, -0.13131647180926995, -0.20886754865726212], [0.18230527566645752, -0.3004181769644114, 0.16336203238511324, -0.04454326421691126, -0.03714707298932457, 0.0722759319697864, 0.1024384352905048, -0.14555957385223425, 0.126529001113027, 0.019938462754835667, -0.2214758514840405, -0.029916813758664427, 0.24322422375411965, 0.2956321385776748, 0.12635137689711254, -0.20949375960971078, 0.08656790636716415, 0.14992770896076832, 0.127772364961469, 0.13830595800885045, 0.0641711765052774, -0.012897490996789338, -0.10747381317244804, -0.33435170795618807, 0.05994422030466808, 0.03283226885999396, 0.09827158400818585, -0.23551503535354348, 0.11367354269661863, 0.36222462228786595, 0.014074325542698959, -0.010846060777865107], [0.05457409640095301, 0.35821814530256857, -0.18059070244937056, 0.03580536976407334, -0.14099538893403615, -0.09671132263453608, -0.008650798604784326, 0.23761602438906787, 0.31738953717773777, 0.078931538860667, -0.06653251428010046, 0.43949440124324995, -0.07566182960905715, -0.1006441227831788, -0.3126100549152887, 0.24623887044659964, 0.17040320912059964, 0.42594173486526266, -0.2447421516502693, 0.2567210682510553, 0.012048913154513315, 0.14189323406427246, -0.29013932590581215, 0.2586128599097035, 0.13871632687122462, -0.0070012567871011264, 0.1136749640460499, -0.1347706359603047, -0.10223248336989468, -0.08176480169850511, -0.3264619037046417, 0.15190603075400233], [0.2099331971696911, -0.12342422545397339, 0.06166378037614076, -0.04688125139359814, 0.057944380244359835, -0.11033146328955706, -0.15581102301455024, 0.18547866491548493, -0.01114375004870028, 0.3563977311253493, 0.00816946259257497, -0.16324201016404533, 0.2158433647429318, 0.1116740076747344, 0.12788234542598015, 0.21044099633764443, -0.11474430294225495, -0.022617630699430638, -0.030662420088830005, -0.22740044269944054, -0.04612347633290788, 0.23514834962707426, 0.04113759191453682, -0.23675408906053658, -0.27411313976293794, 0.29365251602333453, -0.015769979420357214, -0.11394970709644466, -0.04827616882430788, -0.2601861315995474, 0.2509759189439008, -0.069213340661883], [0.2408874896688638, 0.009100400851390827, 0.2522052020392219, 0.045260334596990213, 0.150480776446231, 0.12710470748091957, 0.10973424022747819, 0.06113392880787324, -0.04094971366778105, 0.3374727786708852, -0.1595337135129892, 0.0004779531066937355, 0.0033122785013836513, 0.07094434219106012, -0.07582935006346465, 0.054983758530031616, -0.02951725324559616, -0.27874431788992393, 0.0015107227773574067, -0.19364106230859887, -0.3055420199268109, 0.02426149005970267, 0.08563069036390188, 0.09305121120832631, 0.09999904045898325, -0.34037595726146297, -0.23962464716114304, 0.34751738576375935, -0.18456661931675739, 0.1077809381758068, -0.12146095785802863, 0.01415653424926061], [-0.11192393827654601, 0.09901919686577897, 0.024581484488930286, -0.07888480460346907, -0.18488969160131086, 0.0478472756094339, -0.21389500131747405, 0.07510535079071007, 0.46286961227915985, 0.23803318276603092, 0.12685915280476254, -0.015277728672269536, -0.34112861340667494, -0.23316985085507694, 0.22590815389697178, -0.13973931677669174, -0.12319298092995709, -0.029243170708316252, -0.18719690038100822, -0.21569245021614453, -0.008924211469146865, -0.15689009327824177, -0.13065008146157175, -0.1377837713300475, 0.0920491459380243, -0.04046974882988134, -0.03123154774344455, 0.10473325861002152, -0.025034236680186284, -0.048866738521633535, 0.08221881389619888, 0.11810635118894985], [-0.025854041125839847, 0.014231079795238369, -0.13799477414303096, -0.1516494077552178, 0.1353996743714927, 0.07799822949286421, 0.08042330038464092, 0.04969207596385938, 0.00819707318630654, 0.1226812140635665, 0.16442811539104854, 0.16068174537242588, -0.017897277990880974, 0.24395571512391165, 0.04062136829377883, 0.11183543408667868, 0.049497742947463896, 0.043565295793257984, -0.12936534435558142, 0.12335496535378822, 0.5010567812248187, -0.06580337952755012, 0.013059747113802771, -0.07895989825735338, -0.0860013328555142, 0.2721802476911297, -0.11884675166038303, -0.08327449678803597, -0.2796461965068813, -0.13333699953450404, -0.30084629133941426, 0.11124094943808484], [0.4936007865700015, -0.06470013496390367, -0.2940898837775278, 0.15858161677245614, -0.1281979703164707, 0.228605969693833, -0.0495955934638083, -0.1112225574914361, -0.03134840953705405, 0.13347001775481201, -0.04026346295214196, -0.08741765607449606, -0.03528475576437954, -0.22423341662480392, 0.07014432893391755, -0.3146225014996778, -0.07844374211810955, 0.1339592420247624, 0.05365705887885626, 0.10384568037389957, -0.01162068588134901, 0.20631246601051753, 0.16343070272433724, 0.0784258148198938, 0.16351718627737155, 0.13206087337535657, -0.0776395885333136, -0.23647589783342748, 0.07415916424671888, 0.09628563364006706, 0.19263803039361455, -0.16518285817454761], [-0.16003735186607249, 0.08115380257575429, -0.01210100906779928, -0.33232639506386596, 0.06631661587311069, -0.3258741596602129, -0.16677514749457908, 0.23801016244559892, 0.321699521255573, -0.2143395372243492, -0.05769985333014489, 0.007244835841555726, 0.3145766345107862, -0.08675824722058677, -0.08414224248921844, 0.2725023519810529, -0.06574616932683211, 0.1270014357920403, -0.26071338916921455, -0.029910725870973924, -0.2924080556214077, -0.18624979599557953, 0.1471682708624752, -0.008332783777064815, -0.05614901354374828, -0.13159117414922622, -0.038581966499476955, 0.05227977074569707, 0.1731707842458418, -0.46283013762222786, -0.14751802772879596, 0.028172567759386792], [-0.01731775363277731, 0.07098980994145938, 0.04695743472588347, -0.053697120065863864, -0.09286162304907238, -0.043450850599983486, 0.20256535486903152, -0.12897478578524615, -0.011119877662552404, 0.03221344043520398, 0.27507922771735716, -0.05284501039164287, 0.16913113395374246, 0.21705335959382568, -0.011065177668299741, -0.0374323655821961, -0.058273138226713865, -0.04509176116139757, 0.15078910936667317, 0.040590376029541665, 0.04139674190014461, -0.19833831675827157, -0.17002343662970942, 0.3774337953545987, -0.03126801944841686, -0.13652078223551975, 0.25214396420696156, 0.049482763222458995, 0.10185240715457956, -0.02452162947929132, -0.056423399890971115, -0.02984433593519781], [-0.24377825717792403, -0.015514940823427137, 0.05224795964011301, 0.3261782507922479, 0.015173147204637612, -0.41123927353613093, -0.01656349542811996, 0.48277614124343216, 0.15255396761909892, -0.14288098605237748, 0.10442995830999711, -0.1306724544739896, -0.2384071700411914, -0.06135968833989235, 0.016056919810191327, -0.330424600845868, -0.2026703624565416, 0.0018655983305087254, -0.07180526781924629, 0.06972143424034247, -0.21412320568917162, 0.12596452741863787, -0.20843203467636265, 0.2893088162600956, -0.3024042656386563, -0.19250684255809608, 0.07365029543545397, 0.2931510610049423, 0.05542344403079156, 0.09916290110326542, 0.0028158904215433342, -0.18071003204468952], [-0.08650178261634896, -0.21345798737334087, -0.2251287532724999, 0.07076512912885212, -0.19796393490053985, 0.05650714016693072, -0.22954733010930475, 0.0521282670208195, -0.08604348396285186, 0.24795915705679017, 0.05703884758268718, 0.21764863275646346, -0.13322468653291183, 0.010090478654583403, -0.1731321477468545, -0.07257902117901353, -0.04583677721801497, -0.12812429874101536, -0.21463724688813654, -0.2490557078086435, -0.4123068718581774, -0.18642687010371975, 0.10978577911931109, -0.2811755277466638, -0.24112443634107536, 0.3155880256599105, -0.1120044097722169, 0.056845152236639905, 0.11303337055415472, 0.11691865951385134, -0.26799905531488416, -0.040574056582316435], [-0.28545999177072934, 0.43125130615836327, -0.2808999392796074, -0.184613277706666, -0.1832864574356109, -0.26348474908372743, 0.23833917183809084, 0.4268786614065186, -0.08371966793695042, -0.23296202971359328, -0.3939920105354457, -0.04320101997261464, -0.05516589701485861, -0.11487773766663906, 0.03933684642407182, 0.06922081155546501, 0.056905828875821456, -0.055992423244284883, -0.19417527989494046, 0.1174204179143872, 0.002139460866078627, 0.15633587164847135, 0.1391586266031844, -0.2504425775230122, -0.25257881841159646, -0.1329649436856223, -0.18604648512636654, 0.132325253404433, 0.06191573524563169, 0.1932716717933968, 0.0690679147302066, 0.03661021096216245], [0.21136647004850417, 0.08282923715468453, 0.012052877846676354, 0.26096806457007915, 0.020316036686366237, -0.05361480606094315, -0.14764234227213052, 0.1239282571869324, 0.2182156741598334, -0.009103097359817073, 0.23050709315925652, -0.3474259670913775, -0.009343803713803224, -0.0073307237336778285, -0.12786868336237348, 0.42014788651689194, -0.011532182816960912, -0.07186662918220703, 0.004521321947324465, -0.3529844741439213, -0.13389619363521013, 0.17330324120257184, -0.11099869420198721, -0.1458721093590114, 0.23094218651442294, 0.23636208862794575, 0.09112107486074264, -0.0805506149056508, -0.04210406111098166, -0.1418660047384073, -0.17566331501416546, -0.18425507015658737], [-0.10924062264749006, -0.18221729217563945, -0.27517784096426845, 0.03878947870295572, 0.041490705754220696, 0.30020568806493375, -0.11793242227550364, 0.05207700667471225, 0.05523229382707782, -0.04473017534712069, 0.13125430257836537, 0.13644917886295405, 0.05776741510273003, -0.04495791448300516, -0.06314638643296085, -0.24077091798153788, -0.14174786189632976, -0.10980125402215839, -0.19837010054184542, 0.07790308114338373, 0.21088175058706843, -0.15994526892607352, 0.04935978048827572, -0.1819165764382439, -0.05368844517663599, -0.12143592889101029, 0.10632174766293576, -0.11973441304508085, 0.17827934768621695, -0.04304623243894984, -0.11468211236941776, -0.2206526925945066], [0.044623384929247854, 0.1577660268824237, 0.048202288410516575, 0.3945871086287177, 0.25201489676631367, -0.05407590473744594, -0.0561360695635505, 0.08267497563580267, -0.14770035012221755, 0.20556009973523776, 0.06391006928635039, 0.045036842704428724, 0.12146212025568263, 0.3036331609584412, 0.029965403784781637, -0.020271528956701756, 0.2661584436024481, 0.1704963544092767, -0.056784487848744555, 0.001043213000176427, 0.03444293053906809, 0.06375403981584818, -0.2395922589331641, -0.2715107675122708, -0.1564068724807721, -0.17019831520943554, -0.11325477888210196, 0.11196068936154795, -0.02994221522376281, 0.03466077009408111, -0.21566533854652864, -0.08121715362900676], [0.1034040599801048, 0.10482847691526308, -0.1273649559795343, 0.028520431654213058, 0.38779149005330127, -0.0025698307862932765, -0.1223491090481353, -0.03073636676336562, 0.016241408360176127, -0.026618211629114416, -0.005413249319921234, -0.2544990789187084, -0.16956315548187006, -0.026152429848672804, -0.0293553242358134, -0.09986385611789551, -0.030893444881681137, 0.010801486434394313, 0.15647829943151106, -0.01721588314408082, 0.07061111783393925, -0.09542372557942518, 0.10034123587963617, 0.06652791738158688, 0.15260210187008993, 0.12585213891532374, 0.10396177453434349, -0.017221960550115063, 0.043161906141218086, 0.18770462933871765, -0.11485124541617292, -0.11059287400124893]], "v_proj": [[0.04392824474813015, 0.07965248688283355, -0.142192034873181, -0.004996911402656119, -0.002673140929018449, -0.4068881836380649, -0.03227824071021445, -0.04394190608583054, -0.02284163675594327, 0.24617165260618415, -0.2144222154116678, -0.14862999022809228, -0.46783105693888144, -0.09455222176437181, -0.07058956009715193, -0.09155875065525522, 0.19497797508883627, 0.14551074382441326, 0.02320595535854486, -0.06978712696318644, 0.17595781153147472, 0.006925399896463077, -0.14877975062770205, -0.31439670004041553, -0.0860231204455464, 0.12918912786434147, 0.40476492979139284, 0.0013698055567390563, -0.1442872731722911, -0.2097908116822749, 0.09854841316608774, -0.30644083575428027], [0.09957511461394858, 0.1457754476769207, 0.06941228739133837, -0.04053646196460209, 0.10050559638541133, 0.030514708517393085, -0.1340359546267406, 0.3244201738212874, -0.06640949059418433, 0.1389999350079235, -0.42359791311574224, 0.22785696045331463, 0.25705025085466365, 0.005509038782084885, 0.1003797234846762, 0.10031394711700194, -0.10337581232037156, 0.09308596571696047, -0.14367457095513586, -0.118705820469854, 0.19221430375679285, 0.18092174014545392, -0.12492226241595544, -0.12789880097232853, -0.10802389445835887, 0.1266825810562095, -0.17823022327912252, 0.06408549670613976, 0.12852777354181075, -0.015398916198525854, 0.17526152378358575, -0.06056187259672631], [-0.03043333311107248, -0.16665673821014512, 0.15763292614055197, -0.14981384440720827, 0.05880838655115515, -0.00143984446213713, -0.18603869325068087, -0.10036401746276731, 0.2323563976264166, 0.04538155013446195, -0.16920132884304537, 0.05935753811128299, -0.017935349428316864, 0.6220892537026261, 0.06639607029156891, -0.053190505469160904, 0.2685989991026132, -0.32408791589691005, 0.011037884451844865, 0.3394593662732044, -0.03689360453352743, -0.2966600556365087, -0.07425312424524862, 0.26505601856865224, 0.07851222713484785, -0.15064720351497127, -0.13137945901229742, -0.09350443055441907, 0.06073886508708657, 0.2339293288442846, 0.17740295781631973, 0.07479186642404882], [-0.26273276263533096, -0.24077156947500883, 0.10660301104370204, -0.23654254648189638, -0.049716346660097444, 0.0700638452617517, -0.2053929985746215, -0.15538838892318416, -0.013118507379067952, 0.07786482840661946, 0.17670516440996592, 0.10987261975324589, 0.010410170534747316, -0.12621439162440898, -0.19624992659285997, -0.10774873289080067, 0.06455597109521918, 0.05105430805930111, -0.3716099183794988, -0.1330501294265196, 0.24427362884214346, 0.002724262294279763, -0.24185765850137522, 0.4193898686497465, 0.002967420074790177, 0.08338835748819681, 0.06596654328541789, -0.05361371623779765, -0.11155496147067649, 0.38303928785835817, 0.18892516317364696, 0.13235718710698435], [0.07612312523168085, -0.1748326070855455, 0.23084828436374646, -0.15319815109118073, 0.042825143371114274, -0.27050151742946454, -0.36607513195187724, 0.07536233394464928, -0.1479195627860618, -0.3571032906591856, 0.09137501932175707, 0.3741687741461958, 0.241477091991307, -0.03493010008802719, 0.004153710630836822, 0.14686996219687007, 0.20189845600256148, -0.07932277254782907, 0.0026384446497965167, 0.04620201769928215, 0.11817539216594251, -0.020800105051700178, -0.016428675890213816, 0.24649373082335602, 0.22509636734618413, 0.09651609133539686, 0.2880368815715666, -0.0626638768200565, 0.2926431793877366, 0.10930950942184688, 0.5915425884832658, -0.22766954372069254], [-0.1277647244379477, 0.0733331968984006, 0.07320132140749153, 0.34113320968549604, -0.12516161480647311, 0.16487533204580962, 0.2081560045774572, 0.13163980304239548, -0.17156626472567632, 0.24418445040949271, 0.2113672137958365, 0.10677960346839582, 0.034595642014547005, 0.04373941086932866, -0.020079989416769396, 0.10856891948755736, 0.008046991030458335, -0.1558827127517728, -0.18578586643342973, -0.13392215600304874, 0.04169170502611746, -0.0001447833421854678, 0.042563078058436093, 0.09247758639818504, -0.10334661580231107, 0.26182472665967643, -0.04817482636556188, -0.07294286884615252, 0.08939041019010324, -0.3231381059277376, -0.1337533295256626, 0.16969439157152522], [-0.30411432305355834, 0.20681997147452671, 0.2785836882644628, -0.05691278354840352, 0.05899991232699942, 0.18528290483752136, -0.08111431985159204, 0.13957610271646298, -0.11266090938442905, -0.09439755875745746, -0.1536653079324218, 0.05470110967805557, 0.2062217467626194, -0.035860060444893864, -0.23004181283222175, -0.19018387258984842, 0.056588066246351695, 0.32403218048190735, 0.08201192209168817, -0.05838973268021219, 0.13829721470910183, -0.03851873367614387, -0.06912460824893542, -0.1843455518969383, 0.23940510396863474, -0.4558944257485086, 0.14510481854660248, -0.08766976035106534, -0.0761755218791604, 0.29678503110503207, -0.11622110574578083, -0.10541510610664495], [-0.027874517467874352, 0.07383058140627063, -0.08977287893172714, -0.2827691542992449, -0.15649558336894517, 0.23701132302603345, 0.008131796357353865, 0.08609066984360776, -0.053807309498528105, -0.11276149702035226, 0.30082691691970215, -0.029678536325922548, -0.07405975620055678, 0.2026164529804233, -0.12128985477765103, -0.09982933167841848, -0.0008186562718917203, 0.004604219500721609, 0.03612447179308338, 0.3676953357461402, 0.05997159173240453, -0.42602262656918227, 0.05656455460003779, 0.015071812117499167, 0.013614748822444721, 0.04371615877024339, -0.01460360205379668, -0.006165038743649359, 0.112264447966078, -0.09112011184512207, -0.1691124188849035, 0.5355389677610983], [-0.11273362052526027, 0.019239347614993987, -0.2604119091546691, 0.024779746341886046, -0.15847131275956064, -0.09029421305289875, 0.18848379785419475, 0.07147847197018466, 0.10702521691475651, -0.3107547652562578, 0.32411331966228285, -0.21323455823011364, 0.270200887921368, 0.1717830984450807, 0.09944527564246575, -0.14750132781844963, 0.02335598463432703, -0.08090644419054156, 0.00903679573620819, -0.03963141520608145, -0.36771029250656256, 0.2012731018618571, -0.016314514221399068, -0.09135042896438768, -0.10874084235578951, 0.05803618502067988, -0.15003442762412103, -0.4049991943396255, 0.067543967695577, 0.08723732502173312, -0.03494262945881426, -0.18965537221691944], [0.02284938976951162, -0.2587510373698306, -0.19331379641437316, -0.136122850455422, 0.15119673395356834, -0.060023717187521516, -0.08189913038583045, 0.34252782155948835, 0.06046711540333602, 0.06855551733995537, -0.053398438491559806, -0.10380603027675767, -0.383466340593349, 0.17173373879127285, 0.08743090055042263, -0.02568505946009984, -0.018208978987891075, 0.1358426457849747, -0.27903787555393766, -0.10722316656633536, -0.20914065312581878, 0.3083205585788309, 0.1483871036363321, -0.38254732796385377, -0.2666678339763772, -0.024349456608117808, -0.08591508156759192, -0.23242609366924205, 0.339976249225495, 0.05565713823390732, 0.07512901381801175, -0.11966886561619142], [0.12071064554307383, -0.06114247636707482, -0.0389903852704772, 0.11746708721361737, -0.2808427303578419, 0.27726001440962605, 0.034059104593325236, 0.22347926134846927, -0.1856714827953591, -0.17482041965121842, -0.21671624474852536, 0.03921442787754877, 0.011778607904144324, -0.08436832209156081, -0.18432566255945443, -0.22868415877607465, -0.016733692949154194, -0.09207450806712093, -0.11299283582433477, 0.2722618400622799, -0.0038269017076807575, 0.23186101472662038, -0.09152159426235164, 0.032609050679015934, -0.010038182386180582, -0.2988984589026521, 0.2524980089723312, -0.026697478046967392, 0.13310272372920368, -0.12962563589097179, -0.016983198130234103, -0.15211906819952947], [0.23294698296040994, 0.061655950314668126, 0.06848694077035243, 0.24751486152100097, 0.21329361411542494, 0.12105245354645314, -0.24360739591044006, -0.14010063648709176, -0.17282956792017637, 0.1268317323243661, 0.03046801007609267, -0.24807163501183654, -0.0348481594019999, -0.2728833274932004, -0.013601703066311617, -0.2880597455852425, 0.08865486032233631, 0.06999020265258234, 0.34323744493125946, 0.14969966197615964, -0.08523735125106688, 0.1512760287028317, -0.24890402505910653, -0.176651627473125, 0.05099599673858511, -0.38762346899369515, 0.0010013550722945666, -0.18731811036148666, 0.01094250928037503, -0.196959777407122, 0.07524019186872938, 0.0135558141841179], [0.23578673880578654, -0.0007651364231708473, -0.13054524023757422, -0.04791452902462887, -0.24321937682887104, 0.07988721391710168, 0.09791206390926477, 0.4468720782990048, -0.10862001830127864, -0.05070368164801656, -0.10497326676433459, 0.0373564983437795, 0.0695014162983189, -0.0020396219073523744, 0.1933504313219867, -0.11051307029943586, 0.16591418426772916, 0.0937631136513072, -0.0035870957442791403, -0.04576386860833883, 0.44225297379561057, -0.15456676033576106, 0.051838612927262724, -0.1307400514682061, 0.31577147338913364, 0.16072028617944045, -0.12473059287508188, 0.0948501927577183, 0.052863425403138, 