{"version": 5, "architecture": "zero_native_char_attention_v1", "vocab": ["\n", " ", "'", "(", ")", "*", ",", "-", ".", "1", "2", "3", "4", "5", ":", "A", "C", "E", "I", "L", "O", "P", "R", "S", "T", "W", "a", "b", "c", "d", "e", "f", "g", "h", "i", "k", "l", "m", "n", "o", "p", "q", "r", "s", "t", "u", "v", "w", "x", "y", "z"], "tokenizer": {"mode": "char", "vocab": ["\n", " ", "'", "(", ")", "*", ",", "-", ".", "1", "2", "3", "4", "5", ":", "A", "C", "E", "I", "L", "O", "P", "R", "S", "T", "W", "a", "b", "c", "d", "e", "f", "g", "h", "i", "k", "l", "m", "n", "o", "p", "q", "r", "s", "t", "u", "v", "w", "x", "y", "z"], "lowercase": false, "vocab_size": 51}, "dataset": {"source_path": "C:\\Users\\gomez\\Documents\\New folder\\laws\\recursion_law.txt", "artifact_path": "C:\\Users\\gomez\\Documents\\New folder\\ai_from_scratch\\checkpoint.dataset.json", "stats": {"source_path": "C:\\Users\\gomez\\Documents\\New folder\\laws\\recursion_law.txt", "tokenizer_mode": "char", "lowercase": false, "vocab_size": 51, "token_count": 1627, "train_token_count": 1464, "valid_token_count": 163, "train_example_count": 1463, "valid_example_count": 162, "block_size": 12, "valid_fraction": 0.1}}, "eval_metrics": {"checkpoint": "C:\\Users\\gomez\\Documents\\New folder\\ai_from_scratch\\checkpoint.json", "dataset_resolution": "artifact", "dataset_source_path": "C:\\Users\\gomez\\Documents\\New folder\\laws\\recursion_law.txt", "dataset_artifact_path": "C:\\Users\\gomez\\Documents\\New folder\\ai_from_scratch\\checkpoint.dataset.json", "tokenizer_mode": "char", "train": {"split": "train", "ready": true, "token_count": 1464, "example_count": 1463, "loss": 2.6528849822570915, "perplexity": 14.194931755319017}, "valid": {"split": "valid", "ready": true, "token_count": 163, "example_count": 162, "loss": 2.897335432605984, "perplexity": 18.125783594495577}, "primary_split": "valid", "primary_loss": 2.897335432605984, "primary_perplexity": 18.125783594495577}, "training_steps": 380, "model_info": {"architecture": "zero_native_char_attention_v1", "fully_native": true, "production_grade": true, "vocab_size": 51, "block_size": 12, "embed_dim": 32, "hidden_dim": 96, "attention_block": true, "attention_heads": 4, "attention_head_dim": 8, "mlp_hidden_layer": true, "training_steps": 380, "tokenizer_mode": "char", "tokenizer_lowercase": false, "dataset_source_path": "C:\\Users\\gomez\\Documents\\New folder\\laws\\recursion_law.txt", "dataset_artifact_path": "C:\\Users\\gomez\\Documents\\New folder\\ai_from_scratch\\checkpoint.dataset.json", "dataset_stats": {"source_path": "C:\\Users\\gomez\\Documents\\New folder\\laws\\recursion_law.txt", "tokenizer_mode": "char", "lowercase": false, "vocab_size": 51, "token_count": 1627, "train_token_count": 1464, "valid_token_count": 163, "train_example_count": 1463, "valid_example_count": 162, "block_size": 12, "valid_fraction": 0.1}, "eval_ready": true, "primary_eval_split": "valid", "primary_eval_loss": 2.897335432605984, "primary_eval_perplexity": 18.125783594495577}, "block_size": 12, "embed_dim": 32, "hidden_dim": 96, "heads": 4, "weights": {"embeddings": [[-0.01872071596726658, -0.04302027467310646, 0.03766993727848171, 0.06194775546154445, -0.09912856534081092, -0.0436454402572789, -0.0005767298514093792, -0.001054665636653762, 0.006226762012528721, -0.03754925234149378, 0.04361637600375263, 0.010794102608230579, 0.019434226767541585, 0.038104453546546055, 0.02362771960853078, -0.03001443482115166, 0.043913939232966964, -0.05124265150870629, 0.04754254062454102, -0.0227526781986979, -0.010189122091456646, -0.0480396832328649, 0.05671391151193819, -0.020384328488210188, -0.014814604353897795, -0.005725793176954207, 0.01440653868908416, -0.007631729188784995, 0.008154868449672939, 0.010501327446269332, 0.08982078858146825, -0.02993370960157664], [-0.2583722093608167, -0.019832536441884534, 0.17962493121183945, -0.16929824858860967, -0.20493116615196583, -0.019068739212539664, -0.07801337593733361, 0.12244538409204916, -0.020716126650980042, 0.11612499200328798, -0.24356183501918402, -0.032841779872085815, 0.14707299841358987, 0.05161696701412829, 0.291176814649522, 0.027136297586165977, 0.057735891682259816, -0.1354426580574952, 0.08748057399730971, 0.1696222819444718, 0.26863947746794, -0.1516696191087607, -0.1755369828776486, 0.0796857510015302, -0.12703208763169033, 0.05493049516349682, 0.13349683178333951, -0.3135069254341659, -0.17067412020467532, 0.17938044967079733, 0.11863741818078193, 0.2599495740799567], [0.0613448821984629, 0.05525167800832591, -0.03218554537747746, -0.03285399740496038, 0.046358413509767694, -0.01725980044847464, -0.06830386373622929, -0.05852128199316096, -0.027208565585890916, 0.025523814341054444, 0.02693813098980159, 0.03884558900405659, -0.04156073592422069, 0.008947975813420009, 0.011775287519064004, -0.004615769249681837, 0.023008721380922147, -0.015655366568492018, -0.015136659407006404, -0.02467829814735165, -0.08280356335681142, 0.0141798452464902, -0.033938191475909284, 0.0007200018842840625, 0.02517207163884742, 0.020517045912705676, 0.04267656562444089, 0.0059660514211136205, -0.022259447841624626, -0.0296482925522134, -0.07959236089909752, -0.07641076589453641], [-0.06784274510345113, -0.04850857704502077, 0.029765194251147188, -0.03938560777812504, -0.011623394493240218, 0.06846600195825735, -0.018211099161859673, 0.03676394836404492, -0.05113973913560905, -0.011008253875784486, -0.04726246632438247, -0.01819070096552593, 0.04441219586237778, -0.08815417352460116, 0.023608910852727313, 0.011546063718461544, -0.0354811297659401, -0.07275011862637962, 0.001430894539539778, -0.03001888786240788, 0.012871219292081574, -0.0004282593280459886, 0.08130206639122822, -0.016925606716875798, -0.04830033258158356, 0.01049803328986145, 0.0049165233296987985, 0.06878199349839692, 0.0375658178865928, 0.014309990189217404, 0.0685739571965624, -0.06346550615615654], [-0.003800620378364078, -0.04547633778535902, -0.04147656747814817, -0.06134291089519755, 0.03913262139423541, -0.016341912247877746, -0.08113461312494157, -0.05441119367368424, 0.02311797355484705, 0.03887030904029672, 0.11499559084319404, 0.1435590474279374, 0.0020812751591781867, -0.049058279705247766, -0.13267440564111363, 0.01568546151803759, -0.033281459839912896, 0.001057762439389522, -0.029764159135781208, -0.01657940971246457, 0.023704584319386802, 0.006836120013625017, -0.001194541271882992, -0.05977551614985341, -0.07657528708940592, -0.031305064027167796, -0.0007602761422525469, 0.09421784981387854, 0.009894667176412748, 0.030289298283458704, -0.025462159740742445, -0.06347856589567863], [0.06782384161197227, 0.11589627898999344, 0.08944776476971524, -0.13080499240159965, 0.013086601387481748, -0.0976461358648158, 0.09858555108018499, 0.017610112067555177, 0.09448227958833853, 0.014418013876698716, 0.07739122540034271, 0.0346383245270864, -0.132743618244713, -0.06363738404355646, -0.14238655487340446, 0.013835398219684339, -0.011361944062111575, 0.01598269731303093, -0.0267684334541447, 0.01861287693657946, -0.045072394755637984, 0.013682994184008807, -0.06372069123350729, 0.1668973090035825, 0.02580880711617602, 0.11813234206405665, 0.10898229271575574, -0.06836544348935454, -0.08619175572381525, 0.07553958008694286, 0.1930359824888131, -0.028420281453826104], [0.15896187747296178, 0.08807024240444716, -0.24100555582177088, 0.0551622318449673, 0.08072332193101568, -0.05453640710695748, -0.0653862595399901, -0.017872408735830656, 0.09591319705084472, 0.04544820469124746, 0.1401638809848157, -0.008348369841325531, -0.23517200772831043, -0.047586699782501886, -0.24459334431038587, -0.04853758644802961, 0.05713494595554659, 0.1857864483242303, 0.0263369457406412, -0.1901182972612355, -0.2501906097455559, -0.049059611301059354, 0.056887127904270085, -0.05892651781935419, 0.1069920555706821, 0.034489092304191574, -0.031749290980899535, -0.0011155639948985207, 0.0021816480291915194, -0.17567549256607526, -0.05865576973362225, -0.08764602505981345], [-0.020026753481239088, 0.03964391506979227, 0.1739410537038425, 0.09769892336276945, -0.06983532654237093, 0.01244051623759034, -0.04778416034241694, -0.0032107280041725247, 0.02092533997137789, 0.10286924659125679, -0.039873956728070925, -0.059668541251657915, -0.10024688091957805, 0.003610273474487961, -0.03223085684647384, -0.009333398032265756, -0.059043511512029044, -0.023842788991710065, -0.0974207158005832, -0.05802066205155181, 0.14545234269390428, -0.07880915884601557, -0.07844608330676539, 0.1105607064477963, 0.14819028549240698, -0.03179155688774276, -0.01282555516733526, -0.005730688147522998, 0.06786033928800593, -0.057998852265702165, 0.009939519150853013, 0.054716099552345375], [0.22848315210878606, -0.005699470877135428, -0.19215327206829746, -0.05745643635645306, 0.010722382701608083, -0.07776343363388048, -0.07396355675268293, -0.08136347599481304, 0.10404534431711693, 0.03790927663172679, 0.11562261864889842, 0.03742295377518411, -0.16457030827264388, 0.004508827392793403, -0.22250719776750133, 0.047282980072774115, 0.037566796204549745, 0.28078619199364463, 0.09004915902265767, -0.060172088759664, -0.23822131496396387, -0.07835803531166947, 0.09061868095997273, -0.03451866998354786, 0.04652887445845422, -0.11265054319892404, 0.06741950251369852, 0.11142325819055922, -0.0269333343253189, -0.1681743265098824, 0.014712949936294394, -0.03414219092346327], [-0.01843761943714127, -0.0026588208240702956, -0.0143667430269217, 0.00808383174665117, 0.07271347947709404, -0.128176746964318, -0.009960119898630777, 0.004279832705843058, 0.019584383437395464, -0.014399435410199685, -0.09163130923762243, 0.02331238201104467, 0.0816271897366149, -0.07876069759034862, 0.04387463498617706, -0.015553015758799658, 0.0008042964963346252, -0.049055997467283244, -0.018749241247331006, 0.06436262920378545, 0.027688028842585075, 0.07850432265745969, 0.05347215531577831, 0.023696001815534627, 0.08541113428951835, 0.023448515858622624, 0.04398900922535265, -0.01351445247701529, 0.0004396526349523397, -0.03293787940952078, 0.05047239945172416, -0.05582592320343644], [0.027206260993441315, -0.0052296392551214686, 0.05542238403033007, 0.037916447676470455, 0.09007708022856624, 0.040430803970338706, -0.07893739357182944, -0.005637544051716828, -0.04970841558051504, -0.018151977260208355, 0.06849648555279111, 0.03931954121838081, -0.0398465377474506, -0.053910162860350955, 0.005161249325712472, -0.06077444368833946, -0.02229237862425284, 0.017316108185793967, 0.056473757309857105, 0.03154639194202029, -0.11304374461016264, 0.0007423808048886267, -0.009184867005600216, 0.024405356771577943, 0.07877453877824371, -0.09838782538663945, -0.023210160320625207, 0.02927544430849579, -0.08637901838546422, 0.07466215669244111, 0.02254614630588012, 0.044794729710073915], [-0.02929396523296258, 0.03932516767931637, 0.05069157681366957, 0.00929217430201956, 0.008389503406763274, 0.013446530455367615, -0.04672514642590433, -0.013047396173758406, -0.0006681812616015434, 0.022997888857824365, 0.04252542010280695, -0.04383331528476801, -0.013308425781061787, 0.07905386782199912, -0.03729894830249388, -0.038214923824653364, 0.012273326305270888, 0.046587855423834666, 0.00025643898891443276, 0.06715453386091091, 0.04051059398806558, 0.03815437551519068, 0.020417846253722685, 0.12017619314361423, -0.01461015430869186, -0.09959502648854562, 0.08730167929508208, -0.021542450166973173, 0.004218980186218775, 0.06675872062474672, -0.07443493310194074, -0.062064317341927897], [-0.08872099320889494, -0.03419616313132981, 0.017273931523318235, 0.02516928585450759, 0.014107960297419382, -0.06782268943271941, -0.11498852891038487, -0.0009629082076657836, -0.014954877842325236, 0.030499891158751458, 0.028448736799724057, 0.016862365943584888, 0.031091443798224976, 0.008179324328411968, 0.02859701880314183, -0.036741121291771726, 0.0001285439019731837, 0.011844708857638166, 0.039443375632379415, -0.016809726718617968, 0.02699036855200701, -0.027068131012534132, -0.017256251015514142, 0.045221088981968104, -0.10075172565986308, -0.05993434491011056, -0.0676819220723699, -0.1135537472764252, -0.041574883000700294, 0.0377391730751745, -0.009155244769543444, 0.012377844184064995], [0.052641810002465025, 0.06379852647439578, -0.008504853052593353, 0.06603151791258953, 0.0015151275459897393, -0.03935678662346385, -0.035186085133332864, -0.0793830199513173, -0.03749813760405265, -0.014145856648568055, 0.03240087054227367, 0.09329902087239292, -0.07414089864812437, 0.023995931937319387, -0.051056073329729466, 0.027795150276739906, -0.002814452695367271, -0.08547294409924407, 0.04775407199008922, -0.030224718787235556, -0.028968369054030624, -0.05703715555767191, -0.041613642250290385, 0.025638175010337088, -0.015299073701661073, 0.017903491436097006, 0.023740318802030605, 0.06732531865165246, -0.018374166971245103, -0.07255204992437461, 0.05807491848925766, -0.0183361434242812], [0.11742694514966122, 0.06754424628512018, -0.008472468819922911, -0.025911867732138213, 0.10398969882802338, 0.06065054417409856, 0.020609207684464746, -0.013726812573234666, 0.07507243295367375, -0.060107641115937784, 0.057855025326299214, 0.01955870161510808, -0.02184873437007292, -0.04144869453717493, -0.12159393788077655, -0.12099849430349491, -0.10008338666247235, -0.031264623296909405, -0.02368873958580515, 0.10718667453383816, 0.012678510770074146, -0.0201034543243902, 0.02565371254980752, 0.02228180174121328, -0.008310421361909747, 0.006216314566412829, 0.06931505757986182, -0.004355444673480738, 0.04928025120232306, -0.031692190544228185, 0.0575489487974276, 0.11825362995681224], [-0.0013713524071580305, 0.06092912100740279, 0.023184951355931363, 0.012190541913388236, -0.04061726723999654, -0.018457611698105343, -0.028498238105039955, 0.03358621651786422, -0.055909456311592484, 0.03221455725947798, 0.03361228489980179, 0.01849681806700532, 0.000575431354404474, 0.03714148954050674, 0.01451020506485226, 0.077088313810318, -0.10259124818185082, -0.029784562801176646, -0.08286420902424209, -0.05912073872682741, 0.10992145208457281, 0.054480250252552646, -0.05241702592710773, -0.055036590197157696, -0.1507163374971825, -0.021874869698721086, 0.11984872098731322, 0.023237595955637534, -0.019489245662858538, 0.05438363272977106, -0.07595216857560771, -0.008016504892157071], [-0.01588116122361031, -0.005611821298114809, 0.027706802321652783, 0.01832172189944513, 0.01660385807665102, -0.04686854635728482, 0.04145666881569834, 0.0656529665027165, -0.03794011593175681, -0.052550895023913906, 0.04745797217156226, 0.008617767552880639, 0.07042163456672058, -0.03245134337321395, 0.06280074233098992, 0.007333109472095478, 0.03133581509624446, 0.07165921876336784, -0.024796495808253136, -0.04885795908682214, -0.033460945137295896, 0.03091062028526779, -0.09046787281412572, 0.0304983129230822, -0.027973703849946328, 0.044346872647483236, -0.11203353659101001, -0.03549320477872971, -0.07926903109525084, -0.02777003375849732, 0.021225356624661428, -0.00442541610851293], [-0.02312460631530325, -0.01131525232085847, 0.008426797164165301, -0.05297393983721421, 0.019718541812408966, 0.03144821107382049, 0.02520486837130617, 0.02928302998889777, 0.012071925883453122, 0.0995834581509894, -0.011370800956518394, -0.012123294357215014, -0.03202020490118528, -0.056244052940574864, -0.048774699521559634, -0.03827424295798627, -0.001935453265967799, 0.016642119780811204, 0.011546303683317521, -0.0391489032131906, 0.05095692711198036, 0.03714299209678339, -0.017396628891755302, -0.03177341259953359, 0.029112368223572622, 0.015771684425122577, -0.07517192407737694, 0.0004640366668349302, 0.016103405290069196, -0.03659079918034837, -0.001051787067586482, -0.07687093797872932], [0.07307843949009758, 0.06351626203332764, -0.034494881393608935, 0.027972913343153785, -0.11876317476887856, -0.058042361382268134, -0.015100437488687958, -0.053487074813528754, 0.043128101397941335, 0.10196289792149847, -0.05399001750040881, -0.04954638295460016, 0.003107560984299314, 0.0693818396123748, -0.08285771686238913, 0.011041342186838757, 0.10108261353817735, -0.07534331956581038, -0.06846266612468477, -0.02454991543738814, -0.0272391661088013, 0.05624185143210995, 0.02136857851119697, -0.09623173126367271, 0.024883076563511825, -0.03594182153395031, 0.0597961907257643, -0.029120252808710202, -0.025812486680238098, 0.0276037075793083, 0.032557818352268536, 0.020400251041225975], [-0.09698866711104089, 0.026925132887823177, -0.03002775705729792, 0.012887458632628124, -0.038211436176273, 0.028383321632367748, -0.04972486679869081, -0.07037535029016656, 0.014883369238752697, 0.020681468212949382, -0.03818348896622399, 0.06130373690188155, -0.010002903819488646, -0.007151881547179249, 0.018836881509142776, -0.043827545478459226, 0.00985945998031104, -0.023754522106480127, -0.02650398899675881, 0.058925538248543914, -0.022329461969081477, -0.12760921980934892, 0.08458928486802832, 0.11962122459004026, -0.025226382975240994, -0.08197271104064942, -0.0012388781219820418, -0.034062555742630944, -0.032732530049505645, -0.0546583024058201, 0.02563486719033985, 0.027972931013503018], [-0.09583175461293533, 0.025012649880827718, 0.10600544579182776, -0.007040498959802627, -0.046452636387432175, -0.016726648462150575, 0.06378916685953481, -0.0950578301816015, 0.0053606784466408075, -0.028200021100445536, 0.07656419684938194, 0.01215432832654185, 0.11034240846107339, -0.058737497362812884, 0.057998054139692785, 0.020080105552077693, -0.05063019205835374, -0.0021729337684067906, 0.08638257694511926, -0.012738761981934863, -0.06120346932928855, 0.013364445963803226, -0.054535644993603034, -0.0017101813235207474, -0.005009745314476104, -0.0793845297771545, -0.07458217676175803, 0.047367285689478955, -0.010205433126061102, -0.0940513035660352, 0.01564559037424916, 0.01903068805103766], [-0.0498052518997083, -0.07285052299988587, 0.04758819422274786, 0.011843850025161135, 0.14015540900283333, 0.037252921572246904, 0.0202071021220791, -0.008160426812415229, 0.04412240509678165, 0.02762752130974097, 0.05585909772998804, -0.02444563884371983, -0.008779165066575532, -0.02523634778226576, 0.05087447881688102, 0.0627986529067873, -0.019293134801418425, -0.025809074287309997, 0.031633804459939616, -0.01464820199590043, 0.05921776626437965, -0.1283757927828089, -0.05015324443116095, -0.03548718634280799, -0.1255929846701958, -0.04840431746769427, -0.031540498346615216, -0.009176243890655852, 0.05318784434645377, -0.01612294561607154, -0.06392926204888293, 0.0023990648542860783], [0.024881266998115333, -0.0442530970224736, 0.019486905198679846, 0.06402306686887398, 0.03390030212792293, 0.06751493326066588, -0.009747494214339174, 0.04592466544002852, -0.08591976255413396, -0.01041837587697249, -0.014798758677741957, -0.07811968477865938, -0.05187996797670293, 0.02823610082112546, -0.0035808737214248505, -0.05661103726667026, -0.04248023239808958, 0.031189602369616227, -0.12036819427564431, -0.08710189211013654, -0.019352046116993357, 0.07121137698505876, 0.017968583841426772, 0.006997987941575399, -0.044471176963391784, -0.04632514232853779, -0.006598006008945926, 0.0019321636156932947, -0.0024219869311522986, -0.029105326114312113, -0.0047836282045220875, -0.030286444544651354], [0.04358918898549962, 0.0495488582419826, -0.05662285292347091, -0.10391369559015778, 0.04311534488732082, 0.05947268171052327, -0.06502585314432442, -0.09069220379793087, 0.009750533495479373, 0.05072873819649819, 0.08220265086625111, 0.028272532023477927, -0.011263342435104493, -0.030816629455694803, 0.012514155683382515, -0.001482779525955924, -0.06803735314107326, 0.08856996309838532, 0.08489655861823477, 0.06649774742639739, -0.04550086237416143, 0.06023204312891782, 0.03105517645382813, 0.02175300606447201, 0.044631808048320475, 0.03716488690247988, 0.04263146079047054, 0.007311270709419668, 0.017538138786842284, -0.08185788442676264, 0.0017425016889929077, -0.028081208456747705], [0.0917281311659346, 0.10147353351475645, 0.10088751026656877, 0.10823794705445801, -0.002461683831387319, 0.12049642459389642, -0.054971318021795126, 0.004147742766348999, -0.024794822206717613, 0.04575214091125682, 0.12192834092246432, -0.11369558203841808, -0.05130474027919517, 0.0919873488520756, 0.07514337344034332, 0.031120896994692247, 0.037288310828930624, 0.01340341562553618, 0.12802856177883135, 0.06008116027823613, -0.08601501540661276, 0.06503709202544875, -0.022141504292936383, -0.04216931759932042, 0.002821409543087155, -0.030918516069203945, -0.06167348645934751, -0.07227921357651575, 0.09090670148991399, 0.07972931736744039, 0.016462124966838396, 0.05280000827034701], [-0.02334008886313112, -0.05402202154467231, 0.036084208890917555, 0.03731792799167905, 0.07429000462312352, 0.07150049445748079, -0.019235993813663192, -0.06069319915993004, -0.023041179111200287, 0.011297917043214513, 0.0033805999076445595, -0.03830165680974114, 0.009811929215529824, -0.009775407522655665, -0.02634069183344691, 0.016429125858648672, -0.02576895566494454, 0.011107631850618018, 0.029019465475954617, -0.048690927205784114, -0.026331900415519253, 0.08214134396403898, -0.0609584141514039, -0.1091674370855288, -0.09661859440245422, -0.0036707393642837443, -0.001744913363200106, -0.013806091721756614, 0.06232387173444466, -0.1357694628597539, 0.01013748961689887, 0.07347979892558436], [-0.09255034817554153, -0.13420399956691764, -0.12335842661931479, -0.21937470974967443, -0.2891148541174876, -0.03201684122416696, 0.21266882559101208, 0.028424502899564108, 0.09413279021897951, 0.014091367074223631, -0.05130257156573393, 0.11586532093516534, 0.049972205829526, 0.0540548174505394, 0.24472895080900348, 0.07382304470335313, -0.04581239069495221, 0.09542166739426437, 0.05421479182535049, 0.055653818623119376, 0.1426216773036637, 0.19529140760214797, 0.054949791191406284, 0.05437387914795857, 0.015808716692628875, -0.04623288591604945, -0.11947430217760348, 0.10924902255608336, -0.011469766026690144, 0.14959361288557682, -0.052135607386814165, 0.10332319298518433], [-0.06216721049319142, 0.03297423378739596, 0.024790133133625696, 0.03681925952829217, 0.04598334586273799, 0.03661423888729977, -0.0014256921324068614, -0.046850329670794874, -0.034251936231094036, -0.009636986165058554, -0.1001243861639137, -0.12231238225625773, 0.05083418687265836, -0.0246173155699029, 0.034044158904208185, -0.02327855299239125, -0.04460403251037761, 0.010841445036433282, -0.08583160455552961, -0.07654844186295653, -0.016277113050059584, 0.0054499047476525625, 0.07102325553273112, -0.06269128166906901, -0.11233673212699712, -0.06404860752845898, -0.09263209832886345, -0.05929737818745882, -0.07088432221530622, -0.014182966309983249, -0.019330044672621345, 0.01139000608330186], [-0.05171289771068765, -0.05819275136876221, 0.11026783511623854, 0.001605242615146823, 0.014171180084152548, 0.022207270034261442, -0.11264858223448375, 0.07769486593375306, -0.07187715517800974, 0.1444959622137753, -0.03878395877394901, -0.14902195194837034, 0.032857740865659166, -0.022100850356853264, -0.05595611258117973, 0.0801081530434943, 0.0019990400105858955, -0.09779942372073994, 0.007340575472403427, 0.08876369277435768, 0.13404220152495608, 0.16808726535139892, 0.15924036302065434, -0.10318808468933177, -0.1253845969054337, -0.0716898878385734, -0.0411608817398762, -0.16116932320832913, 0.028141436243441585, 0.180693128794445, -0.0788109490814577, 0.03715047408928119], [0.0476819356759586, 0.00453961183594428, 0.019204349188763212, 0.16036057472239776, 0.21662768241910696, 0.12879805085322601, -0.055895714367816644, -0.003980288214451035, -0.09819049599664997, -0.02166720326441127, 0.10030976873385994, -0.010385897409222005, -0.021270703165969466, 0.014512516686721806, -0.06789261536062591, 0.004082002414550673, 0.0062270611055791625, 0.04570493629173181, -0.06325610268736813, -0.2221448542933033, -0.058794550982336324, -0.20625711427937862, -0.037591624364216786, -0.08569137526295692, 0.09000081002025019, -0.040006415302130706, -0.07037446444920863, 0.0532945283147472, -0.09717206642616145, -0.024362508976650633, -0.02903777606821119, -0.03334847335357286], [-0.07769777230918612, -0.1462073795783323, -0.09865473927819333, -0.18805467345896235, -0.02783939317682965, -0.09659247205807164, 0.328073801932421, 0.09806131783708909, 0.09781336088489165, -0.003978438690209918, -0.05638775486125427, 0.045999683523726485, 0.147094506311047, 0.06527850399601069, 0.14510503463161908, -0.14660250634044905, 0.18594995571826578, 0.030924956836184552, -0.06047292400536971, 0.08848478361064895, -0.0468672635696552, -0.23899405060453938, 0.0005934697413702579, 0.13080754109187653, 0.16552279719162336, 0.15018071693421678, -0.07229671538113984, 0.27526090055586394, 0.05151809636327121, -0.10292246619669992, 0.14558921230424987, 0.10618085581767471], [0.0989630084924037, 0.07653752740587096, -0.005087550670591728, -0.03353190531965335, -0.0138561864183084, -0.031295525415010864, -0.04759764071831819, 0.05161249340383186, -0.006486772049917974, 0.028047005543431723, -0.026833260166547742, 0.02842253833162451, -0.06258279560900966, 0.007482548268154036, 0.00965675928221207, 0.025256192269605227, 0.0424607817529204, 0.03439101422874887, -0.106287425921598, 0.08164217898965072, -0.05488059398978227, -0.06722100851176827, -0.04596711976015271, -0.0447962664413522, -0.009797669309886561, -0.007531689788679022, -0.034088995148393315, -0.02441763883344386, -9.776079497475929e-05, 0.019650381677692896, 0.06619539235401312, 0.02024474632488124], [0.03140289759759918, -0.024633847680073217, -0.21306015852789284, 0.09083984729596194, 0.053583931293317816, 0.048988869023134214, -0.028819521224977614, -0.014592386726812127, -0.015453215773488531, -0.012649244312524184, 0.07958917273892556, -0.03296737533206611, -0.038399473642609795, -0.042765758194848506, -0.07273754654756807, 0.032226865512872196, 0.009169234438276452, 0.15014311536065478, 0.029630443676585655, -0.06088283702642961, -0.18367678889139724, -0.06274026330512214, -0.0019814753378932736, -0.04905279434124444, -0.027032191122532547, -0.0022794960977312187, -0.0890153573225117, -0.036438248325402454, 0.0023698809185997895, 0.01659836836310887, -0.08109665735262989, 0.042780046199405196], [-0.03588606600550822, 0.0140032334600468, 0.12324258990585249, 0.14371801815752477, 0.21828578427952777, 0.12441563450192185, -0.07576017325582753, 0.0440385841349198, -0.14968601846191246, -0.046817634692889014, -0.04413987422464352, -0.041696744478130744, 0.14318939229633626, -0.07976058582718469, -0.0185663074217992, -0.1687412299551826, -0.049810654697621505, -0.0959472008103458, -0.11826450159295662, -0.06394658514317199, 0.10255838596508131, 0.09333673160559414, 0.0150475530570637, -0.06288053571946928, 0.07646680236013641, 0.02208636883702544, 0.007983049393160573, -0.06670608086774228, -0.111210443531662, -0.11372018612516376, -0.10273854427989026, -0.1215711911030383], [-0.22776264547863317, -0.07353898468052024, -0.07874315290355567, 0.008615252158842597, -0.19240524729644473, -0.09170912938183562, 0.09629110190128572, -0.04506676602613199, 0.05081597049788673, -0.008164156783669226, -0.23440572528094253, 0.14360142060277317, 0.1764751538307687, -0.14751664953868812, 0.031752388429369865, 0.045620591271582196, -0.03909687511598656, -0.02742131209134289, -0.1823365474401933, 0.004419504343235017, 0.22155814272192503, 0.34512016706995075, 0.04726649026473172, 0.010419391793232669, -0.005756259795245371, -0.03327438973060965, -0.0331386595297598, 0.14874654373429247, 0.20141061895522183, 0.2800187618371272, 0.01690637279841539, -0.06645838065374635], [0.04646042075249158, 0.003375255258955076, -0.056858637839578674, -0.005330624734750257, -0.0009116371172350694, -0.0182586977364852, 0.08312543574094952, -0.009395367135318085, -0.005078653273513196, -0.10758382732995353, -0.027515293271900353, -0.015876852500435534, -0.049742178713517785, 0.06601528626649045, -0.03263140272004621, 0.0622378253419739, 0.008946089108263508, 0.020798833403854793, -0.006107212036359911, -0.009820376965739975, 0.05972688876310902, -0.11657252589491643, -0.08987126590992216, -0.03538088293895252, 0.009940082430206403, 0.03069714085794711, 0.02219869469174901, -0.013474470479538916, 0.052759738196611956, 0.033631957830012264, 0.005925426667629743, 0.04537951821335507], [-0.003694513956745472, -0.03594104828568277, 0.012085774578151177, 0.012764155077715457, 0.0832508609082482, -0.03337177695451715, -0.2094101710009909, -0.15624804483545393, -0.12486021823878102, -0.05361713619887536, -0.051576300312315235, -0.019522447980164195, 0.006247675858263774, -0.11732282463658902, 0.15840137567701576, -0.008923040026878406, -0.00989028473734168, -0.04294437111731881, -0.17889423143359706, -0.10162717379355715, -0.019382168961497918, -0.03620950502263423, -0.006827301876068269, -0.11106015605113735, -0.12805355066800567, 0.03566697292191836, 0.07648816670631721, -0.15885491546501193, -0.15473525946896188, 0.10662910564156812, 0.0592932596268713, 0.09747469406401127], [-0.021561346268705203, -0.0684510968818305, 0.02882544989526784, -0.018192829920928327, 0.06424193658500713, 0.00404167909535183, 0.09180150698331861, 0.08444805122468786, -0.023057973933525218, 0.0796339126160261, 0.07021222918938776, 0.08563475407259291, -0.07471183612281038, -0.02609045777492854, 0.10717320944917458, -0.05774901778378777, -0.06756423538214291, -0.030459814542765577, 0.014276248099637383, -0.0023764231729704634, -0.005738265168990949, -0.060785416388072555, -0.0403182521423254, -0.07873334198673712, 0.14001841876906995, 0.049474822259669884, 0.07328703542459399, -0.0237079759828587, -0.046982339278979456, -0.07681420719905169, -0.10735107217353507, -0.08610960488440152], [-0.19028818942661568, -0.04036681171132717, -0.20516087071512842, 0.052545821733133394, -0.10938120677756932, -0.12020926534780606, 0.07167507842058675, -0.050749243584779447, 0.006392206942609743, 0.01850687540536863, -0.00723633930474407, 0.08154122651168005, -0.048266588214676616, -0.12973162440739855, -0.1373938034702928, -0.10123692714521097, 0.04713659819701983, -0.013335929158627163, -0.0858550386205612, -0.023901668144515876, -0.053174308939579897, 0.08084416120169674, 0.04862872778866371, 0.19290741809010767, 0.08406545975635554, -0.1373154908609194, 0.08815092503403216, 0.11196287107800951, 0.15067946604979532, 0.12212496027747533, 0.11694511383578438, -0.04063433907107961], [-0.10396948082698568, -0.09876692066296319, -0.027104297271857262, -0.10563057936203238, -0.31599715567537945, -0.04144136160034336, 0.20820140289361835, -0.007004695559625348, 0.07010820742310045, -0.07707225528102547, 0.035479145378265645, 0.11386041517766735, 0.11512663967292527, 0.06571702327724059, 0.19035599031174733, 0.002462954807939271, -0.030819511908100564, -0.017499970724885548, 0.26295693058210107, 0.012681283939593833, 0.11042872599382221, 0.061567308753400725, 0.0725736321921393, 0.10838512791169838, 0.07652035897497726, 0.09265997001690687, -0.04583348615727718, 0.2674445214612672, 0.07828296924162254, 0.2141191071052454, -0.27161882296507694, -0.0013690618673029306], [-0.08877701764034979, -0.139604346005776, -0.10061466081962787, 0.042698372352471405, 0.055139842379234326, 0.10525169214027898, -0.016718433950510706, 0.03511169690260095, 0.19574404587319946, -0.004374164080713318, -0.03886083094158968, -0.02697449265840195, 0.09685725073632902, -0.13724387931626983, 0.05336243087594218, 0.00016950336498099458, 0.0326983341787013, -0.09982446319125378, 0.019917575986721628, -0.08323438885324629, -0.010882863760027348, -0.15306540963127857, 0.015387317786681513, 0.03745596822921208, -0.030391217504695412, -0.17245422086467385, -0.01580183453387227, 0.06732958846011712, -0.10028793608353673, -0.036457127190977746, -0.16646852701144438, 0.08586180754823915], [-0.03364919745067231, 0.020133976733215483, 0.028183818797922696, 0.09152162482930341, -0.010115082812426658, 0.018742896963498092, -0.07401850440759834, 0.05933288878425902, -0.037905471084530004, -0.027949248462081328, -0.0011088801221576041, -0.07789767010729773, 0.01140241265905589, 0.048220694508179715, 0.01460048046043961, -0.07919422742811409, -0.006170933629648694, 0.036984389066746524, -0.09360318298191951, -0.05356875487079146, 0.043688904242339476, 0.01346216378283096, 0.020533590021412047, 0.09268140251220973, 0.023353724078666354, 0.03279061778120664, 0.13510965251761456, -0.010656499940786122, -0.039768271075194234, 0.021322334440875706, 0.021880300029470955, -0.026252679518227465], [-0.11568402878970575, 0.13010460120569367, 0.2716054727351362, 0.14002302961391977, 0.27094028613645565, 0.09451725916071042, -0.14276545634786172, 0.028534229364558513, -0.24651276092041302, -0.01935643565853896, 0.08952195905821682, -0.14791047113998257, 0.08240517630910399, -0.04648578645481069, -0.06474373854258432, -0.04180725382294595, -0.14985833235835216, 0.03157154583648243, -0.27893355929067287, -0.05390862145689733, 0.04309743298963453, 0.009289089032119174, 0.09507566457341285, -0.11062464879661511, 0.17004505157440414, 0.13460256065056878, -0.20312006109229438, -0.03075989390566974, -0.11155357823965661, -0.2227430616493935, 0.009605996961114664, -0.14032768289097006], [0.16204638624148698, -0.005132616007464389, -0.006963473778785628, 0.23528481093520784, 0.11165913544844476, -0.16476541316014148, -0.04851630478293551, 0.017607278231993543, -0.12469948102180815, 0.03155870661012323, 0.1312508844730771, -0.16011105810010412, -0.05632386601731864, -0.05119103114740693, -0.13861606429903622, 0.09489148835088496, -0.048907781926902254, -0.010152615993623038, -0.29663943559872363, 0.10005662369608744, 0.01041913234278929, 0.1664193255529377, 0.2225465237994664, -0.16504569482035567, 0.010125416766624243, -0.026441488014813008, -0.20018716247469895, -0.09989608451570448, 0.034674922267613484, -0.020425040282789648, -0.017136176285809164, 0.004692076890300546], [0.2402685444383325, -0.05300025033296255, 0.1393973664903329, 0.28898904170012996, 0.06889918475467537, 0.21997047333804237, -0.11554670469630844, -0.05125593158862065, 0.031249272413165368, 0.004041980173685742, 0.19672187113970988, -0.07192926770934743, -0.010309496633830595, 0.14391708924426566, 0.0803103545588361, 0.0267504865890267, -0.013338419148269847, -0.13928663782923836, 0.11902538491081172, 0.11678971726646913, -0.022012660442317283, 0.0675532851686987, -0.019926008584565655, -0.10890550905294132, -0.08794554907083174, -0.1424980711360036, -0.043246071419526785, -0.18610759485539363, -0.03864140631937847, -0.2362458618343595, -0.07768414642150506, 0.0440671170837754], [-0.2799534233702925, -0.06895327081588457, -0.03247475431473083, 0.030181018574069095, 0.10115843929783447, 0.19766129883391298, 0.2776221046596313, 0.13259382272149914, 0.11913777601713664, -0.12151201680524296, -0.09326514905672892, 0.083729397782148, 0.21874436449429108, -0.044739798522640706, 0.233480231569625, -0.06374632476837501, 0.23409032641753214, -0.09963788328474323, 0.33306650885215394, 0.037006054054653896, 0.12713399303689174, -0.19053443978475523, -0.10692843676200617, 0.14753493371690393, -0.05287457491371553, -0.07191018829206713, 0.015706375783971712, 0.06674759011935517, 0.063640331708984, -0.05962543062593212, -0.19891039787812764, 0.12466305111877396], [-0.07026354333150168, -0.12678870171309653, 0.13364409080543518, 0.09024766521670441, 0.24229299220495734, -0.028107879139490866, -0.07410594994882579, 0.06228474880552558, -0.1261404491526192, -0.013507612063826432, -0.015099420660043526, -0.014644777757280646, 0.12400215870736389, -0.07820025224066993, 0.09313945337371055, -0.13016183436223902, -0.07771655930930096, -0.08108006805972076, -0.13920732845513337, -0.03830714753325491, 0.07021326384994626, -0.08750895731223214, -0.0028840172071509856, -0.13544458256626446, 0.0026028611559607566, -0.015597821424420774, -0.022461045937758453, -0.16843459836792135, -0.12934834149450994, -0.02601658699969319, 0.10466149754797753, -0.03618251585065355], [0.15814335333275667, 0.012506301588743473, -0.18291118958913388, 0.10828139947331726, 0.11232460373760224, -0.0074453301893386125, -0.052206610182465994, 0.02021748790055251, 0.03013090592482614, -0.13841922139880583, 0.06425147076150725, -0.0336861171322106, -0.08946809528908752, 0.06729159245854496, -0.08676149850088728, -0.09084378825779461, -6.226067194587334e-05, -0.04569206120833638, 0.012291287235268336, -0.05919554329638824, -0.1733494620154926, 0.06268632482269738, 0.08426537871155787, -0.056876826717443624, -0.06469132285882266, 0.009208507746293683, -0.015492825934531853, -0.03376598740613504, 0.07725434914349363, -0.13345775689414388, 0.055281724385243744, -0.05224014705479134], [0.014624389527379173, -0.06600982604203078, -0.014399648439679133, 0.06653713416938536, -0.007590729023618832, 0.043391788710825864, 0.028109647975214314, 0.011618825219193317, 0.052226803211094706, -0.00769092538938734, -0.08649611448823902, -0.0406468311006186, 0.036918770104969655, 0.021127466668264674, -0.06492899770691433, -0.021415519040079975, -0.047886009676141705, -0.028490913275732697, -0.06482715633312815, -0.04061812954052032, -0.023920281794176875, 0.03254269159316731, 0.04112292165365667, -0.00328832562256974, -0.020306307527839185, 0.014184575392809626, -0.041032175679518855, -0.043738773041283825, -0.051132545644031066, -0.03276884807073125, -0.07639288530586258, -0.0013442634152256974], [0.12162721908824797, -0.12058652275213913, -0.07578260370006777, -0.0035328130614520176, 0.03159198350467459, 0.013549120310182482, -0.053835914753348105, -0.05143195631819704, 0.050329880701867856, 0.0831996584077557, -0.07558995667768738, -0.003520350514519439, -0.010113736684979963, 0.0064693167896342565, -0.04372694129658725, -0.024408380617916947, 0.08146897699273759, -0.014612010505742581, -0.1409353704819424, 0.042025232860933175, -0.15805198893737607, -0.03425790359090327, -0.08794785786110176, -0.08546926071634411, 0.07035114095937309, -0.0707066707486246, 0.033735357254589204, 0.06665849863093609, 0.03194372844848351, -0.1100398544905446, 0.1064830954984573, -0.03989706939229703], [-0.0106215979449265, 0.05562712779715385, 0.0784897419723787, -0.0616532846740672, 0.0012068553012193665, 0.07656568440442904, 0.015525930988529817, 0.010792693933361321, -0.022311331659947486, -0.017737240676243275, 0.0066917514661782125, -0.01949209890248088, 0.005513472238374104, 0.003797354636104162, -0.028509137431754095, 0.021085654465725186, 0.13631901081089406, -0.08802306577244746, 0.0077634616379034715, -0.04311205404094256, 0.03947970201667526, 0.002619486971539505, 0.0406896810406829, 0.04773993846511172, 0.010728996424038408, 0.06476002129379217, -0.11288788200453483, 0.06854864437356849, 0.008032381958925448, 0.04873647319547462, -0.06756246703553588, -0.048595996337862324]], "position_embeddings": [[-0.010067231080219414, 0.011148063296519036, 0.02598863870541766, 0.04089532517807074, -0.020091296132406122, 0.023912741956856658, 0.012085901909261957, 0.01216189862133229, -0.03764827687735234, 0.009863339620085954, -0.03920693115810568, -0.007392664983848912, -0.009411340509969906, -0.015420924582196498, -0.0010835951462032853, 0.014294205922369407, 0.010014616342800695, -0.021484720116828386, -0.02174219716292603, 0.02439181912949656, 0.005876369895284072, -0.0020227883485135663, 0.009490853724995365, -0.04647686548482795, 0.022755018281823004, -0.031641440278116044, 0.007738386749089351, -0.013587631450459572, 0.04676860367553186, -0.0346981257034708, -0.012409425640147373, 0.044044852176838394], [0.012010139906147093, -0.0022079719839443014, 0.02467004882595263, 0.017601013665108734, 0.02126618263983153, -0.010379172142582247, 0.01021371506382054, -0.016491282637499882, -0.005155938664131003, 0.009482631179480604, 0.005217993883532078, -0.05241460307619107, 0.04034608611047633, -0.009130749983161357, -0.013075598299089865, -0.014567331708592717, -0.017336024986326127, -0.02838111076370794, -0.021844954232723784, 0.023507782343245152, -0.0170268420721661, 0.01899933718990669, 0.004434857817591317, -0.009893620306610314, 0.012047134750296342, 0.020409558640411753, -0.017620114362614778, -0.04661621511632828, -0.028584640667526078, -0.023301961529378162, -0.034561152701249244, 0.016264557625371132], [-0.02102558840190231, 0.06009576714871079, -0.014974292087777792, 0.022476936800974012, -0.00495107008083711, -0.006409894241202279, 0.014275704960603569, -0.031365913832985405, -0.002420675169969776, 0.037624883494611246, 0.000331737094807272, -0.015927523768666223, 0.04186850620941986, -0.018945828288582447, -0.010623536884401711, -0.05523332423012045, 0.02512312970633886, -0.012107010020449942, -0.03138148283905938, 0.0022226702315648965, -0.016070649784187242, -0.006119682117630879, 0.02621964982065321, -0.04200874947499099, 0.03667817944764667, -0.024064867452502536, -0.020158974389919274, 0.02248063722547165, 0.021499037221934764, -0.011120402922508196, -0.028732589069274932, -0.0025560903512813907], [-0.011113494672476685, 0.013006384489462234, 0.017704023126364203, 0.018729634438806972, 0.012804761636897566, -0.025695744991222857, 0.00095072394969581, 0.03330204181288302, -0.0343626117924611, -0.00462817438327355, -0.008173769374710394, -0.017735557730433598, 0.013349843194869166, 0.013913633549501057, 0.011651173084769364, -0.03458114098975549, 0.026411595804270546, -0.026050867773155368, -0.02292373685308349, 0.006530853209028553, -0.013919786652215577, 0.022110427629205048, -0.0019274618614307907, -0.028548214298098264, 0.0025643731034124136, -0.007833826076428924, 0.013890738147073645, -0.003969175400420504, 0.03238771729785505, 0.03229837781974321, -0.03015048997211578, 0.009361723493362277], [-0.03619800262823667, -0.004196132408661819, 0.0073060532869426535, -0.0027240047230830465, -0.005853305096439742, 0.0008755443911423296, -0.011528625345382014, 0.03062501169840146, -0.025960527388536114, 0.05706780678204171, 0.0006454075738801757, -0.019254409793025225, -0.006433874062998224, 0.017421626339065244, 0.02401354318091876, -0.003624380962294517, -0.013827636216131402, -0.005254396441816491, -0.03307256659377657, 0.02890935374183015, 0.011554200633942548, 0.008335305116032157, -0.033866117329773196, -0.03412038283301475, 0.028399215492425738, 0.02648288216465065, 0.015281648893365403, -0.04866738131789773, 0.00621960202486921, 0.008749271197898121, -0.042513628578827345, 0.008841782267947833], [-0.006866257637164106, 0.006287370437200249, -0.017047449914758556, 0.011266390609644905, 0.00953161862116906, 0.00028572947040443245, -0.0002337707615978758, 0.006683565488301417, -0.007553724632602204, 0.009150994848520225, 0.0029857953153024624, -0.028146592715842116, 0.02306435160935504, -0.05442477681977011, 0.010829898865684215, -0.00947707700183388, 0.013316572358072236, 0.010077024306825333, -0.049781433405065814, -0.0395658039665647, 0.0009245783551404011, 0.00464645751063658, 0.017087677991423498, -0.02434256182497809, 0.028217764429773782, 0.022515026474914882, 0.002132038010036865, -0.020775661090387764, -0.04317820179996509, 0.0020435061839989676, 0.014349973814192491, 0.02108618827877183], [-0.028232338696561478, 0.026366067497326316, 0.03761884120927995, 0.048262482707245626, -0.00032903044034057613, -0.0012453629987213182, 0.02525728609162189, 0.015888464919270814, -0.029568401885914225, 0.008355223017701566, 0.020233127249490133, -0.018166499267071163, 0.024564049700171283, -0.02010916302589142, 0.030966126179079928, -0.026572704348941757, 8.805053063838867e-05, -0.007953814933981524, 0.0062580922154398585, -0.030497534709128936, -0.03072020772931451, -0.03550184489994422, 0.01507703782466547, -0.037155465118381956, 0.007213097102751655, 0.017751197502570593, -0.01944137122029545, -0.010148768984467843, -0.007234894069013728, -0.0001025974195907289, -0.0006153846789788454, -0.0058378110914683035], [-0.015233962467763835, 0.03375186091626709, 0.026862896518677053, -0.009289668501125545, 0.030883214792759413, -0.018709339544645542, 0.040365007099442636, 0.03426650172657625, -0.000400472368278925, 0.0025092413211421877, 0.004546585694442132, -0.0068958743909515565, 0.013654136667518689, -0.01095694204787093, 0.018343729532790846, -0.02034996914747633, -0.00015059996103945604, -0.034526570209561444, -0.03262358157730102, -0.0357812352971536, 0.010345978987326402, 0.040108668467390994, 0.04295583224473892, -0.048454182578078944, 0.029309526070982903, 0.032628934416343805, -0.016048873748690934, -0.01387760367691908, -0.04207841812525495, -0.007201402714834348, -0.03113411697889014, 0.012161328434742812], [-0.042968226825626864, 0.022379622956153988, 0.04007229038771922, 0.001290968463712147, -0.007013081190591749, -0.03901671607345301, 0.004955175096159837, 0.004162087788397417, -0.03851236875515802, 0.009826325076702051, 0.0002538626770400309, -0.042088651805487494, 0.009478646402477376, 0.005526241714264135, 0.013750937404343015, -0.01099169072665871, 0.025270631064064082, -0.0319301513208185, -0.009621587043914574, 0.0019154548027584528, -0.013421130609219092, 0.01423154841705384, -0.0010919035357012511, -0.004359468179781349, 0.025679038038383346, -0.05470411667720266, 0.017343652168323065, -0.07610118409907546, -0.0131872503422359, 0.006923615516138356, -0.016387501712353723, -0.021254322636337857], [-0.03458660570614976, 0.031586624793739713, -0.017750752504402816, 0.03946354465846844, 0.013808603567808598, -0.019295819785045423, 0.00017117152541322906, -0.005316713608839989, 0.00878517125971191, 0.015999239789608204, -0.024963213057640342, -0.029866744788053828, 0.0015903280431713296, 0.008439481506226303, -0.024532987070420842, 0.023202247271408877, 0.012559037170022361, -0.0324363513552282, -0.022898608299401983, -0.017042407927128956, -0.029633904668854873, 0.0072370629312848486, -0.009717606928259404, -0.056316780011128824, 0.00641827211976738, -0.03291456863886315, -0.021292210032830626, -0.03356976036808652, -0.01791668105455791, 0.028200326476935947, -0.009760780212299643, 0.013209821898160418], [-0.04854115213477128, -0.001330929541833127, 0.025977633566682014, -0.0029290606529637294, 0.03311379856145731, -0.019907211670594217, 0.006450030245381261, 0.0039437450468318815, -0.005987443086346565, -0.012154383585788608, 0.0027768992574722473, -0.026714587536353827, 0.0018255165207546574, -0.006493276204224508, 0.007109828815684467, -0.01095446874758534, 0.003953479523806297, 0.007301752603871442, -0.015023608908084974, -0.006732382178431806, -0.0028693272231666614, 0.03870257587053036, -0.012440381752518829, 0.002441860149072775, -0.02356838562435246, 0.008484613701160815, 0.025980502418294908, -0.005999409576099196, 0.0030504179233543137, -0.023024441454561367, -0.009890748295187124, 0.00347415998038128], [0.002008947614185794, -0.37762323369886514, -0.04146722728967456, 0.19259850930380903, 0.065178474984351, 0.008199873301313762, -0.09279634551794153, -0.1419348680023557, -0.0790878757901607, -0.19872326747481875, -0.09840994100374052, 0.02006111123615912, 0.11553699368532899, -0.06345737938191767, -0.04296352733328261, -0.19519678348619, 0.14949234433316297, 0.09718715064044647, -0.008323463290781185, -0.1468132954395277, -0.171294432757618, 0.26326084648034925, 0.1799086814821691, -0.20613501877358914, 0.11711176445755006, -0.059304415695150096, -0.0966555411370582, -0.05361836294526382, 0.05352720312231666, 0.017327765398393733, -0.16528235117982357, -0.020692434217345387]], "q_proj": [[-0.004367577541827427, -0.11635202990243838, 0.10252042853236433, 0.08426290966966835, 0.0027207643585573657, -0.13873755944690497, 0.023137485199555687, -0.012558582384656855, -0.2346457343234819, -0.25948147184964254, 0.09926584251411773, -0.45890700729159795, 0.03619773465137392, -0.08421416513386659, 0.2304056248959908, -0.08705923611700685, 0.11609853008155623, -0.07004997149980567, 0.02006328157143345, 0.12975914567198651, -0.08122793743013965, 0.17537296103487862, -0.17504311056006988, 0.05194727914204543, 0.1630551817049295, 0.11609179461170951, 0.33800077825084346, -0.13454383787263036, -0.24353190440431774, -0.17514073041017564, 0.1164735989919627, 0.08744029942685162], [0.0182731623912319, -0.19761000063984505, 0.13470740451036226, -0.2157978903020082, 0.2044546191670548, 0.5039243398928772, 0.06485499105679918, 0.1027580558709219, -0.0868430500942012, -0.3186421940124707, -0.10621238174866655, -0.19299457521822178, -0.2547483505987777, 0.303577039601813, 0.04809155286316305, 0.0666093778844992, -0.05456512621501865, -0.03054323346308639, 0.17046537367319042, -0.005992632190043446, 0.09308647164792477, -0.03472795467367719, -0.060253191951076195, -0.24858407498211849, -0.34844643679457465, -0.046264169785373024, 0.010086533731608572, -0.2263955640126788, -0.006356790064855885, 0.009111225723842114, -0.37989308666181476, -0.16106625223446078], [0.07192935829964021, 0.06829001385122019, -0.20317149763995632, 0.028071125407819544, 0.1801677529136689, 0.13709348020842788, -0.016572335574607966, -0.08264566651800914, -0.1111035827331591, 0.08239986983390488, 0.03458816367593211, 0.1111439752250406, 0.0232820605419038, 0.14408786499091816, 0.016703501718150316, 0.13842098033384298, 0.1534872647761726, -0.14187982198242802, -0.3187593782791688, 0.27206481726677184, 0.045460684442776185, -0.3020347026815316, -0.12596514871666722, 0.13592407602870507, -0.0495334334258439, -0.09020382009107594, 0.2468208574145765, -0.18443952594033589, -0.14044244239949702, 0.03705125805838086, 0.06887431747421409, 0.0876473067755449], [0.16117266821513168, 0.03488728034434962, 0.08663463350708037, -0.045219496758103564, 0.011077024211742371, 0.01924672382341903, 0.03819281231978554, 0.13567975263162024, 0.09799150223783884, 0.007398258329566866, -0.14274334679455927, 0.012048743986077677, -0.00502667858803464, 0.033918944552622995, 0.3887027768652849, -0.09185668556844268, 0.07456625393748244, 0.18817525581864303, 0.017154024484749703, 0.41228295574983054, -0.06564711508072142, 0.05702589555435869, -0.1415461153299365, -0.061456366741113815, 0.044180876258535756, 0.1492030023904736, 0.056353603806957905, 0.22174091848268318, -0.016961355283275643, -0.05830699131346973, 0.4765638443858775, 0.06918975560211243], [-0.12609267612340275, -0.12223812364595087, -0.16606439416764543, 0.16548573847028414, -0.06417140698601563, 0.023019128548302032, -0.010857994033762211, 0.1285675003584905, -0.14891626316384934, -0.1898433993557789, 0.03929915384898807, 0.10582269607298726, 0.058450882309575056, -0.14279090293274496, 0.11922047738681026, -0.13101310314606454, -0.09161487504836542, -0.16639982320849694, 0.22935343457536583, 0.11198864568012164, 0.10766669030922306, 0.21973732538169174, 0.494548595650328, -0.30071568574331503, -0.12984998079191853, -0.10887707033020004, -0.1496832843978756, -0.1898787457869874, -0.053098909916441776, -0.21433478031062936, 0.05901578235291854, 0.008938560209734095], [0.0849317007656827, 0.08950802451546079, 0.10628381923702339, -0.06569673547787944, 0.3737987311991218, 0.0414146548233109, -0.32805605393237713, -0.17677615382255638, -0.3066120976993126, 0.003064255490483842, -0.02153938074615835, -0.08254527155779903, 0.3543190653369895, 0.09668534545858704, 0.12796384935313507, -0.1641575202036984, -0.17610476329992542, 0.006558787374773202, 0.030506733815652803, -0.32714504301643516, -0.031972607526010305, 0.00235908717941758, -0.03813733349534292, -0.1435570990643317, -0.09512062148728534, -0.031049842730410296, 0.01597410987234507, 0.10659882381296815, 0.19053915155648313, -0.051882835096845985, -0.08022261732076039, 0.07715484225982473], [0.10690847061681817, -0.07652514850612074, 0.1391483601366021, 0.172193048444164, 0.2275668913817863, 0.3128333108741369, -0.15306245659899062, 0.0028455988206442157, 0.001811080465419692, -0.017043568042663958, -0.11433543394353161, -0.261824597023962, 0.016332384883449954, -0.13531657950180587, 0.015222891164328605, -0.14029525566785445, -0.19391014654979, 0.04143891923762166, 0.026812885389067783, 0.10194501509479038, 0.3847010371357533, 0.04885709934789223, 0.0857384241702912, -0.19013417136291888, -0.22716451058426482, 0.27910050411172066, -0.16304253972670932, -0.1839250275206791, -0.006470900114603185, -0.016017736202415356, -0.1590401128710264, -0.05345047513350798], [0.2165427302863887, -0.14191743659378028, -0.2457818865017772, 0.16599825061689877, 0.08676963168436419, -0.10930566541979829, -0.2787970199316979, -0.13111541260659532, -0.009732202930689243, 0.205574838661844, -0.182606459643967, -0.014919964151407589, 0.11902993766199796, -0.4196356434725057, 0.18220400957235533, -0.20852160708243422, 0.058470700675609215, 0.0434500690696958, 0.19123784108550804, 0.09697310241526681, -0.4191651116545935, -0.13832190501230204, 0.02436487203471048, -0.03461672246289214, 0.08394280073335345, 0.13909028156332845, 0.10712801747421949, -0.03763061095084565, -0.32520110822845233, -0.08046303021144048, 0.07337749607093814, -0.19190940183801242], [0.11084492242075926, 0.1600632009427722, 0.022088903273780887, -0.5402635233990262, -0.22521551989863675, 0.33212718883740294, -0.09656264469506728, -0.3493351594731776, 0.21770770902168085, 0.0025969989925501173, 0.19467089825455375, 0.04867384899436301, 0.08083666019987377, 0.0640888060052277, 0.12299449448392075, 0.4010230714009532, 0.17086213212775872, -0.2783454609477386, 0.07880191928270544, 0.20077786776248446, 0.2108132391868241, -0.0753333834879251, 0.2059868828902345, 0.16302077527487605, 0.4532727800795904, -0.13210126610384415, -0.08952971184857678, -0.05391066508051382, -0.08632608780974901, -0.1568559861711917, -0.486790093125454, -0.07651985478319055], [0.06507364533932998, -0.086798534286355, 0.3407946690151456, 0.0022238300203483636, 0.22756640142878348, 0.04618684541871061, 0.14566458911022886, 0.0493235214153357, 0.241069107464899, 0.010114980657930286, 0.08755180310165699, 0.06438944166502003, -0.050617889894037725, 0.07145745535939656, 0.39377833689944713, -0.04776704130457796, 0.07377297499434352, 0.22154379614131708, 0.20111137522135952, 0.0017880341319372458, -0.42041597240621, 0.09094085723524296, -0.39068680269707856, 0.2586519921679976, 0.02987023975242591, 0.17600565898160847, -0.15892573448915523, -0.2734622917687984, 0.045859726107136456, -0.006060392583168614, -0.08669628340832511, 0.015030808605801766], [0.4881168577166922, 0.14710058891413585, 0.1849936246790676, 0.1489797614353893, 0.26086774657750705, -0.03317011474209411, -0.3618599295639683, -0.03346181279884428, 0.1432730305302079, -0.17094343254432012, -0.03135964046460572, -0.12231608386139407, 0.2647344869828486, 0.1320915799017238, 0.11467642468076134, 0.10940045600289115, -0.006585864234281602, 0.03475298999957714, -0.20866722840477872, -0.38526780601822613, 0.02694538942938916, 0.05695087304697389, 0.21278123862914491, 0.276950207686838, 0.27691411523362897, -0.17586209173181666, -0.061929027437485525, 0.08463313374073071, 0.44588735724825695, 0.2607606633969767, 0.19734658349515838, -0.06841787486697198], [-0.1560757177992804, 0.1389874316274064, -0.19403119688540726, -0.042271496845171466, -0.020271354854754786, 0.2803189904911174, -0.06271896652299498, -0.4296144295336396, 0.08888102154341025, -0.12309565481964559, 0.007541909957969579, -0.015199122315560615, -0.048232263570304475, 0.13931838326357973, -0.27005210619783243, -0.09113005293450911, 0.12052219913073171, -0.10807343684197676, -0.2834335396997206, 0.11776190376385537, 0.19755509362599585, -0.007902361073177013, -0.34539437654693567, 0.12429936435016309, -0.29256762983326307, 0.054516183442326505, -0.1564726673019856, -0.20442167032793562, -0.0777937380005656, -0.03228356259167047, -0.11355659750925755, 0.1037651430132977], [-0.0789196749261244, 0.17264172099506284, 0.04978830263059614, -0.12298982596225405, -0.1527646155452853, -0.29063651187885714, 0.05110585773623725, -0.06245881046366436, -0.41827316190619857, -0.09447843814873312, -0.15852967775417207, 0.278149593130238, -0.3002057377827178, -0.25410800983552273, 0.19570714702349207, 0.23921617007996923, -0.13115270051679723, -0.11135695009583171, 0.10841926578469048, -0.40987215394997295, -0.3276599675053317, -0.04929149952963768, 0.27279561145906744, -0.07655162022396995, 0.017390686266968658, 0.1999394048310216, 0.3710115452743452, -0.10165219344676608, -0.002478233928751617, 0.3211362790190413, -0.2682608894496302, 0.18124480907814758], [-0.17941540464789418, 0.01810682954664994, -0.042805832361170595, -0.16882628743426514, -0.17320854866292928, 0.0487713983251231, 0.17551931138794236, -0.02290055551474682, 0.01242716646016086, 0.10072257201284524, -0.17133627553208086, 0.13019004037328044, 0.14437737802841807, 0.4588230336144594, -0.06629540712711174, -0.08095633306510859, 0.1353612463599342, 0.14427840562643857, -0.09432174463950257, -0.0712320866875021, 0.09508802925121483, -0.14592132415587752, -0.07195665364332408, 0.015550365112495529, 0.1754990897795852, -0.10655927514829772, -0.3246586640484455, -0.3376910489577952, -0.22195333328713618, -0.23147217576309026, -0.02714516152687757, -0.20946613465983893], [-0.12425517577158816, -0.13640660370698174, -0.07764336433110448, 0.2328024812829889, 0.11653209842318704, 0.0025780147838064906, -0.08140122472285695, -0.07617217796931837, 0.05743799769712107, 0.10308412883274574, -0.15970775984173308, 0.006782095404279662, -0.35807301231000915, 0.03721125355698016, 0.1344738458009826, -0.049545691400262215, 0.32000101346887844, -0.15528100688419302, 0.03808343492974714, -0.006474983235742601, -0.018231600579809538, -0.020031805135117275, 0.019331841761323246, 0.14907066966341068, 0.24222876015405034, -0.00018219708732249956, 0.1433961519455116, -0.12358600858106555, 0.13558555681422144, -0.1344205435949328, 0.19232497293732578, 0.38988346960556836], [-0.02136054075136074, -0.386355062098187, -0.09668082957000791, 0.217088861478648, 0.09757659708862433, 0.044049447881879214, 0.17783002443407972, 0.08530320436757133, 0.21450898885389502, 0.16227221000247768, 0.2682455393363216, 0.06305007765497982, 0.1597004320856566, -0.05404463109365397, -0.10593274594433223, 0.30072587436386167, 0.03796544891461044, 0.14178227995426113, 0.022019334198638104, -0.10358011447765623, 0.001577644368103351, 0.25297436525160183, 0.09815147689032971, -0.3020152060155676, -0.03804236004889711, 0.31423223411706314, -0.03774645178973207, -0.3171998088298275, 0.33367901276618345, 0.12010921576097583, -0.012253359310658853, -0.065318839162227], [0.1904409072851831, -0.09555461247047703, 0.2022521693650253, 0.09531181335171066, 0.04296322468496234, 0.025494909886471875, -0.031118029203675873, 0.18448879146757963, -0.15244806876606387, -0.28591482196598816, 0.10817202395467304, 0.11133261285490977, 0.08448921824553497, 0.07189313349306897, -0.05649795606317821, 0.13868797596946927, -0.008060679591471337, -0.0857090994109748, -0.05523917883057336, 0.3560651475734873, -0.3061315713776445, 0.08809001928357606, -0.29563595588168834, -0.018960989948969675, -0.0763871128326996, -0.3675767616526349, 0.06854013466492663, -0.06705157519179096, -0.36989118013735195, 0.14811465604362012, 0.25284762929481386, 0.26250232314049043], [0.06336196439778477, 0.008013392282661515, 0.2342023495661389, 0.29658665535835776, 0.1997364154814273, -0.1659346497832328, 0.03545492617541698, 0.07735371850237412, -0.3186686304293628, 0.08256891263285272, 0.4003732077418531, 0.11260340425038469, 0.2595240987092232, 0.03228855164166378, -0.012984467571412644, 0.06712381345394686, -0.14364682833591208, -0.16980082805475108, 0.22313589010461418, 0.24196841980182984, -0.17427188849963973, 0.17062585300671435, -0.015467108059832604, 0.06019026941844389, 0.08137159494555381, 0.1751783610521768, 0.014747569881173522, 0.24834338067348027, 0.05423854500495463, 0.11006963290854865, -0.1469031629989748, 0.38021202275428273], [0.08251380677800223, 0.12560743317567014, -0.28361316185614865, -0.14525780978525876, 0.21812457834389204, 0.050399523007183464, -0.33743221703119025, 0.1831264918461641, -0.09565081522308336, 0.2489256804996212, -0.015744834424177376, 0.03590084449485753, 0.20770210300834333, -0.15801769002777424, -0.17486009103506348, -0.03504856476325185, 0.14549629360370261, -0.2343144028588269, -0.2940915331978758, 0.14475295740925825, -0.10780932915230876, -0.06925256265514881, -0.32634646730500233, -0.12026732755779368, -0.0015670974725541574, 0.16434750511780233, -0.13608338127852557, 0.2920251073529303, -0.12039310490473996, -0.12045790845614675, 0.27119652978065356, 0.03741105395632094], [-0.09750346716963297, -0.027245391877877518, 0.23824398460708227, 0.2581433347966082, -0.1439277638042016, -0.007518209786799435, 0.0158253158992714, -0.17360403676756472, -0.010070766817459912, 0.0011392959019477504, 0.20109471194166245, 0.21276873859970125, -0.057890824663904966, -0.03767644566805104, 0.11713553031886595, -0.10325079394453764, 0.10349703725010045, -0.015570389597536592, -0.1708702658930263, -0.16887242558767493, 0.25448595300860205, -0.02761810205815761, 0.2896152242170732, -0.09087184637066578, 0.051092019357569185, 0.42165093864625036, -0.18649323337737103, -0.33432343416062066, 0.22693342262087782, -0.14586658046343892, -0.0035998293782481035, -0.10304379236810873], [0.04685376987433319, -0.16747350050840676, -0.03172853631666673, 0.0790646058781402, -0.17770279552983756, -0.12363953433316417, -0.06127928213201817, -0.2516471705508341, -0.07492181168336536, 0.02121665491023069, -0.06996732119966688, -0.04750741737324841, -0.003343248084747591, -0.11561086803574656, 0.12196714615506407, 0.25312159593666644, -0.08189591481143262, 0.08547931610156446, -0.04210849243961367, 0.06431079911171991, 0.27561606007562717, 0.08973175690339046, -0.3124407551973884, 0.07956481109303878, 0.21664513652795353, -0.038728351577364796, 0.17508356914267095, -0.12145103433144626, -0.26118209409917886, 0.02461532655929042, -0.3094641139250688, -0.04181542805821374], [0.22695375585637792, -0.3369077727386732, -0.22465335401182318, -0.1814509659584932, -0.011169958195811187, -0.06475949802670936, 0.24666516540172417, 0.1677343988772805, 0.0872224550595525, 0.025496049572192384, 0.06946163672131064, -0.15152037974741148, 0.1510785117685964, -0.19596312831954552, 0.14724158624800318, 0.20975144223543782, 0.03730064181072762, -0.031121279852134177, 0.070361442605759, -0.5038696603414993, 0.05433138358597388, -0.019817214277138697, -0.009380708941106616, 0.12510622511034022, -0.013069900601593082, -0.200317141740103, -0.02506501111553048, 0.0115657843431402, 0.02031805285201426, 0.028779755548288995, 0.18321092042396395, -0.19163386769752866], [0.031218178199915132, 0.22709462288541363, -0.30519201137326246, 0.03198163779878591, -0.10318674171241285, -0.06536013223538191, -0.15938922929386232, -0.03016149991913491, 0.32454918649715403, -0.22305054475106753, -0.2061514100323879, -0.22938313408975053, 0.30430737051713896, -0.08149685536643378, -0.00459023945055812, -0.07074695417768836, -0.16626255962125464, -0.041488813232652695, 0.43309965454468574, 0.24564675450093476, -0.14932752079173547, 0.11421425534137629, -0.14704173089903474, -0.31241571767535736, 0.17976267105020347, 0.20470066452720517, 0.18428873733290319, -0.08300991912704728, -0.02937053618431423, 0.13232151865348699, 0.06898630167991372, -0.06954981165987673], [-0.2860832297076517, 0.020223477272923267, 0.1896587262171065, -0.21160788792361832, 0.11257107180871319, 0.05800304557231667, 0.13185004880489973, 0.15422117403649757, -0.12258329943771494, -0.2846254972618041, -0.09388509017065817, 0.15658352798114683, -0.0953580882490456, -0.12220223105220561, -0.3208552166369917, 0.3085367014485448, 0.14528766530683776, 0.1358418612293215, 0.17073066890137747, 0.10130662490558637, -0.04415667661329779, -0.028918344287658257, -0.07478629039908624, 0.46371665693468483, 0.09773266006712034, -0.08184831637188106, 0.08190346354403105, -0.17794361898418615, 0.26524736138835575, -0.11671612935271086, 0.08824634647914699, 0.18814757605435412], [0.06760381224636555, 0.016611262730532983, 0.00208295199252765, -0.009948034677738948, -0.10171830717009718, -0.07947061100120946, 0.2606170848764223, -0.019068207738258878, -0.1383764128665969, -0.09122555797931935, 0.19380854694543406, 0.11903575522875898, 0.09860396459270859, -0.045437152906649715, 0.10092257483648132, -0.11337304645147049, -0.045578272864618664, 0.17092291999763062, 0.15401911088218484, -0.17276545077513936, -0.15002260123752584, 0.01923723410473413, 0.30370784065530865, -0.33703388323259753, 0.04924241628592236, -0.24260152014066133, -0.11168111326631805, -0.0643483189550415, -0.07427893629766713, -0.09397402406498492, 0.001117008631048241, -0.09443477426874324], [-0.25781461046060633, 0.1375151124062691, 0.13266002647287928, 0.14857481999082298, -0.27151674922669267, 0.05263760122850276, 0.11914376310351434, -0.18167991715794665, 0.0016018347265352448, -0.02043716403028851, 0.32462135288281, 0.33912622619496957, -0.2933602302920958, 0.4394379140940614, -0.16129162154102542, 0.17261816084262108, 0.17109173987465218, -0.175470582473531, 0.08692407405967052, -0.018906697891990128, 0.09775990560604277, 0.040762521919625, 0.21084191399476554, 0.01332570120316112, -0.02962443106616397, 0.1929755655932377, 0.1023313354980854, 0.12903515824806147, -0.11716615607688058, -0.1843580530531098, -0.10007312214069573, -0.10930421927519406], [0.13828125719115308, 0.17213217726874386, -0.027818410738032106, 0.2518004585454512, 0.2411988594349375, 0.04286919789543905, -0.14495139419952202, 0.2779482544003836, -0.010845739100075137, 0.022450404658363888, -0.059778614670047615, -0.15684121806186085, -0.2586383624399317, 0.11162158300306914, -0.1379520058043337, 0.5390968155109725, -0.19158331701024248, -0.22150972272569922, 0.08991462000596057, 0.2691525360878951, 0.010311701733629918, 0.10073596274277936, -0.32420659228101634, -0.11990383203969325, -0.18917147928610378, -0.33411949447102496, 0.020672686211936894, -0.39509775899481064, -0.23312058659581658, -0.0947338467883117, -0.1465007930918957, 0.06987515271570582], [0.05333013449780627, 0.15745702581205615, 0.13258825689694523, 0.20079930118756387, -0.00037478680906481807, 0.05297188135988655, 0.08986172346460247, 0.025213734755148647, -0.06997657004828362, -0.05846963262523241, -0.14405812932243972, 0.07415182287920076, -0.01660818880574645, -0.11679679364338577, -0.11668209115888514, -0.21357577029032618, 0.1725200498107036, 0.01399196847813741, -0.15165724122914667, 0.14251048109375367, -0.09863047337545199, -0.2478824395419329, 0.17969064027482176, -0.09455045002807415, -0.07215761483302931, 0.007289602038325008, 0.2011902736123839, 0.003534296049741393, -0.21112996932192735, 0.09591063985355526, -0.08556013818490925, 0.3327722079617227], [-0.0005129524348814129, -0.39399188065065954, 0.0631621146377216, 0.34259779337919993, 0.2776899146493823, 0.32222897645753906, -0.17984246784682337, 0.1607937313195557, -0.1272720552367527, 0.03958737482861506, -0.224253218219539, -0.11348332846983701, -0.11913165877965574, 0.15843106425393635, 0.14113045751468462, 0.048968762149013446, -0.2379829096695214, -0.054887110522396754, -0.13134404339188274, 0.15328004152704353, 0.20766409946493564, 0.1861006194067245, -0.133119433378272, -0.48260729527303087, -0.3113188345395578, 0.2507028194946404, -0.07084335478519653, -0.13240969662091154, 0.2894992179317346, 0.22308650863003354, 0.004271907625883124, -0.05178677617987398], [-0.023807019449137948, 0.03986644830706518, 0.28206936449048337, 0.07422234493261987, 0.1278681484204849, 0.20561274658636464, -0.20640987131656324, 0.13317373727727397, -0.052212930904031646, -0.44314352803396506, -0.3747194019996095, -0.17913386698373168, 0.09374409484633571, 0.02018408649551681, 0.032628329849168185, 0.34411621257866454, -0.2236886242594772, -0.004746177098973814, 0.05354919615779934, -0.12981651137729056, 0.004414582331071454, -0.28175849290235977, 0.2491111742828985, -0.1202459466734862, 0.35771158554827914, -0.005464329980393994, 0.18096306580710075, -0.009406442393041186, -0.0051324475165819275, -0.10290963015024489, 0.020929657715250707, 0.056123911614184924], [-0.13832157390301678, -0.02182983638054833, -0.10789642081750406, 0.40504869616454525, -0.015762011231722543, 0.27241687649093066, -0.0344551423680545, 0.04591878675418192, -0.23295951811230312, -0.07863115824500064, 0.03721747917278214, 0.27937442635982834, 0.03925377687132765, 0.24389201586833228, 0.11287729609260631, 0.2867138878205863, -0.010497074525742176, 0.42110229836498353, -0.08543664532224944, -0.13525519172266207, -0.2135306910333749, 0.4107489214304972, 0.14484624607397642, -0.05907784450619273, 0.2202990387001461, 0.1206546216823369, 0.3466443157406683, -0.2725844452495652, -0.04709461015616859, -0.08161098459163157, -0.3479907732918518, 0.1868455364947505], [-0.04785035906175001, 0.13035272164719708, 0.41563402071787653, -0.06249823797590475, -0.07428005860373195, 0.020922377349401222, 0.1737917688590108, -0.0996652610810361, -0.11136045874215458, 0.18637065835495095, 0.06679244945941322, -0.3602361142688896, -0.2159662106999433, 0.2645815171952755, 0.07088143542882276, -0.1345067263131653, -0.030202168418918835, 0.0023498939779354687, 0.12936288733759727, -0.23958739347102812, -0.14898605523320688, 0.04814343342172186, -0.016852837057170864, 0.1004671968363533, -0.21687262339800237, 0.06283903087923647, 0.19227244183493755, 0.08586481186664237, 0.024717910269279213, -0.016955906944557123, -0.1470514878635218, -0.012560544897507332]], "k_proj": [[0.22216686744388872, -0.021051367814263214, -0.15715138711122575, -0.08690227285766851, 0.035253983239506875, -0.0661829758121102, 0.08554625774909166, 0.09220406343366339, 0.15675787783574355, 0.2507084385365887, 0.17539198069813994, -0.16453275822087862, -0.1597062569320023, -0.013035169864783265, -0.07945476989103119, -0.19998789798990352, -0.07781431642136033, -0.08343828046692547, -0.11838424355673088, -0.056054268522017635, 0.20763042532169454, 0.03498497869058497, 0.43554301621895203, 0.03022923565555331, -0.05110084806464904, 0.00019106996594435666, 0.04497068866664893, 0.0772812804542721, 0.3660701057585093, -0.14914380993474252, 0.1522797362677962, 0.03608002276681948], [-0.27697939503934116, 0.13595057170325572, 0.2234330459342485, -0.15113455837728937, -0.001738408156272106, -0.3040182209718031, -0.22187482515002863, 0.1844842110690386, -0.08223384175660908, -0.1953459252638114, 0.04080755508730101, -0.09218186202368404, -0.08267775378364856, 0.1305499194444742, -0.20501036678511947, -0.15997778810369004, 0.027089576209433554, 0.17080280851850851, 0.21818878438254358, -0.11700673131160301, 0.1650399545964067, -0.13815595956089044, 0.32166599372455273, -0.19977519169879032, 0.23402597068054815, -0.11580455963772282, 0.35489860461655337, 0.10390514341819561, -0.17915791786615895, -0.09231612079753233, 0.13737010104538228, 0.185484458403935], [-0.012360380650894214, 0.007761055866524726, 0.13355627334975984, 0.023298173432100177, -0.22803865930481274, -0.1433801836549734, 0.04150904229733775, 0.21414545848182934, 0.2845159636105194, 0.1375813537330457, 0.05070117140606487, 0.13217681208544288, -0.11746137611793442, -0.027137409702281935, -0.14543242716473273, -0.22065799538864478, 0.05849997109948693, 0.032970293157187386, 0.12148607419633542, 0.09628754902729644, 0.04275620136373895, 0.09829114350917668, -0.006931870726729203, 0.07220861827395933, -0.1280991849278237, 0.06514829368461311, 0.11785538733228466, -0.11769473560720564, 0.00900610500931344, -0.1096319611887423, -0.0925656719164882, -0.19784042348244252], [0.22345626312534766, 0.18759832938559035, 0.09407666918157778, 0.3474417576656981, -0.03363277491614096, 0.5333805254235109, -0.03983344936255051, 0.04517888561573617, -0.07006853950577256, 0.06560997168959322, 0.1468664090343097, -0.019859886818330213, 0.3125835696688914, 0.041922435109618336, 0.047784191866067326, -0.15968738436033766, 0.07349607814381445, -0.023129296763458013, -0.10676926856678107, -0.13728760066496032, 0.47091042810276884, -0.04619897258006488, -0.25595706145351443, -0.12348983862273666, -0.009228665323047934, 0.09600980106855839, 0.09731745237704639, 0.11967182881471415, -0.1133780659627056, 0.059916312774058296, -0.1537241128499926, -0.10964124376906824], [-0.1613145425301047, -0.20968038358179855, 0.1868210091537188, 0.12127618661033776, 0.1718443537367826, 0.006094062197085145, 0.13716288101731555, -0.3101817290113294, 0.15188980858807177, 0.03135174923437404, 0.11029870571136453, 0.06735609317645126, -0.1744261298972039, -0.26411332347594957, -0.12541462437869158, 0.09950242226365033, 0.12105619201383552, -0.24073820410469185, -0.172300501479261, -0.12797993252464607, -0.06316913864871221, -0.23996442761275222, -0.2495930307784043, -0.14551573632229675, 0.015060581883517901, -0.20861745029815637, -0.020755323460148665, 0.18726731823582607, -0.22944002111540432, -0.036507158725198746, 0.1815189604647201, -0.07392069467574072], [-0.1010563443058871, 0.2050416424852376, -0.05396601785203022, 0.19460939839908542, 0.07556070984488293, -0.06048320540054059, 0.0845698677061538, 0.056542314634718545, 0.1798618954350862, -0.09652206127439902, 0.00716728606149997, -0.010698616352906826, 0.12372603543922708, -0.18061302822133743, 0.17911295822775833, 0.08236804202920149, -0.23213574137178472, 0.21305020439389716, 0.3937296361989094, 0.17648210430636024, 0.251751186278078, 0.014926772426306276, -0.29259961867576223, -0.3251108585685498, 0.04486314672088396, -0.10426654422522376, -0.16130334529598722, -0.010979175963371984, 0.10856633977016991, -0.2560345341103561, -0.07891555948118446, 0.26597458615299346], [-0.18981943842473264, 0.1533420193665648, -0.08492755829282993, 0.09624644684033519, 0.19372421360432585, 0.13144624653736828, 0.16001377501189376, -0.2031068388682947, 0.19638374836405093, -0.1504800771065313, 0.04621023703739159, 0.045176766789511484, 0.0863131294896013, 0.05954526614072636, -0.14869633091901363, -0.23843154601789143, 0.15391746157345662, 0.032404687840167354, 0.2022806075847087, -0.007456929168203673, -0.24752104835420796, 0.17007043853800566, -0.06579001256295584, 0.060581484778071834, -0.11389353600868904, 0.29028641765760244, -0.15421227630859635, -0.060528568622071004, 0.018998230026479723, -0.1927235035047665, 0.05701049940907833, 0.28403733979559104], [-0.08651420884164852, 0.06961559134679217, -0.48431822833242916, -0.00685842011472648, -0.05501994609462906, -0.14387545538298446, 0.190457587820027, -0.05761143762579298, -0.0312803961380296, -0.06641075630220826, -0.3375081637909026, -0.19961830997460972, 0.16974381131349472, -0.37169938859132384, -0.1351669389189047, -0.07087221461131989, 0.30731687789710377, 0.13548253552745743, -0.09824005970296111, 0.23015187300314593, -0.13038471669187318, 0.17790117453703236, -0.23957210410775984, 0.18913475463248602, -0.0715570339101391, -0.18103240112573232, -0.0381050997466879, 0.04861256012661314, -0.0872591401205482, 0.09766985614444512, -0.1031305547581095, 0.10955342317586772], [0.07767067107640648, -0.010622098480427883, -0.07732653865819018, 0.026693321096970205, 0.09723266574961417, 0.3640028810030183, 0.16530368900886216, 0.17186175964315886, 0.5444200763257995, 0.09079818494680399, 0.08552454617603443, 0.12379429815613778, -0.17748458769599096, -0.07810042966368806, -0.08914735824102063, 0.11417494389341283, -0.030328121666796583, 0.024060399160029746, 0.19117182109820124, 0.15223259650797524, -0.02839167701508298, -0.11834960136830223, 0.19915424793018957, 0.13700795067236174, -0.282962248000254, -0.05500838685216807, 0.029331556171354023, 0.13683828134412196, 0.16040937819753256, 0.04990019294490699, 0.10274661640771758, 0.011173123224911732], [-0.11886305537859367, -0.0459686400062192, 0.003566066022518761, -0.006149971126570679, -0.3322231821757542, -0.06978942125457428, 0.009741708493859264, -0.04978552813195141, -0.04343528867945806, 0.08599902509092427, -0.18992385686331562, -0.28711780733616626, -0.06105601433239102, 0.1348205546715913, 0.2971930571714115, 0.13762560357964781, -0.2585406285866513, -0.040929128648807975, 0.04501966108507112, 0.031554972119580624, 0.0951007698095929, -0.16152460858838, 0.011012387906636886, 0.07435713097198535, 0.14546341854866288, -0.14186505124098675, -0.06063649080888951, -0.47686595504984763, -0.10956608729748768, -0.09247334666316126, -0.18014907489089987, 0.02929321573155473], [-0.009723639615060313, -0.39817142712287573, 0.037674937328415384, -0.16371010138640252, 0.08541870380989618, -0.2262595760674192, 0.005369844526959861, -0.04992845064359707, 0.05345597341962566, 0.021840299244251668, -0.04484116510444089, -0.27066609799497937, -0.26035144047700753, -0.10269039068228461, -0.0014162067498219037, -0.10720726177054184, 0.11005936838163137, -0.04905328450964964, -0.16991852242839292, -0.049280837246390964, 0.03977829348796973, 0.0571786828553783, 0.3312992391894801, -0.11791556284276908, -0.012940792447898343, 0.07486933846963348, -0.004284875823486048, -0.08839629737356945, -0.2728768634397233, -0.09040863382372667, -0.18925491514169057, -0.3046942924249545], [-0.14044243915486676, -0.18438371955783886, 0.1031802933452149, 0.10600351606087455, -0.1591491739114093, -0.04547670091989232, -0.3275220592025514, -0.08713223524272426, 0.0703753154782764, 0.14532042671886586, -0.12564639700974858, 0.18525955795721158, -0.266968400247929, -0.21987526861856574, 0.1251530582033748, 0.294551416809981, 0.08704337481463863, -0.007431552721888882, -0.3870176057012358, -0.35629157614772555, 0.022758514495392398, -0.06331033656276087, -0.195154431158194, 0.01172464133364854, 0.020407936531742544, 0.1666206569113042, 0.024172427731028966, 0.21629772436001163, 0.0013639408367294946, -0.02033425156156108, 0.18732513012506896, -0.17232820976591512], [0.49591767714422635, 0.06607672828993252, 0.06721855726809337, 0.09264028002943205, 0.3308939104181802, 0.13981025710287057, -0.282815690036129, 0.2473261793138346, -0.060137840300325, 0.018920835882845974, -0.22538759413168058, 0.09275328415859233, -0.11454069608466591, 0.01740739690637003, -0.050053590930153075, 0.338881485512402, 0.3491927475388781, 0.008230446652359362, 0.011430934773535014, -0.06554292007210272, 0.1950004050180606, -0.057798911834506465, -0.07393178701640853, 0.1721311452695328, -0.0948430731516882, -0.006332712023016603, -0.27858179280527573, 0.12395156852002795, 0.34200554221831553, 0.12727798089563397, 0.25737298309056716, -0.14882814441314032], [0.04162085348451439, -0.16619030210568886, -0.0400186546095445, 0.13606484769160102, 0.018018427797884658, -0.24870113184366024, -0.23180268553066558, -0.2434012933045233, 0.08666018486441927, 0.3636380623883606, 0.24024933961872222, -0.3342006327509497, 0.2506015375007892, 0.1651266327195294, -0.27232998554494586, -0.05354566395502776, 0.19318056178803442, 0.09700670673646727, -0.2308535719096096, 0.10773985026238371, -0.3764675086695379, -0.03932646650731502, 0.20031129530350034, 0.0033771721650669283, -0.08785985835026555, 0.1568837542448733, 0.1718469992261209, 0.2305832067692372, 0.15416024766683245, 0.19053911177364183, 0.1288504967588015, 0.0467751759801242], [0.015460184439034816, -0.04177629124591472, -0.21302959481507597, -0.16819600779004334, -0.04938021218595664, 0.0434405150456738, 0.2537287562423939, -0.007496498082950447, 0.17676355476466662, 0.1902948670155552, -0.04056879521677677, 0.10474533504867482, -0.04273170502119881, 0.23305365744344714, 0.11179054291297585, -0.21005980611075387, 0.028669814138281506, 0.2904156958826258, -0.03214640308176962, 0.07946106294665634, 0.0966358521463738, -0.18258499489794633, 0.08975829628029613, -0.2455497663784642, -0.1102242692379981, 0.19009194855849548, 0.06308601656394859, -0.05396700639395916, 0.07874659544056195, -0.010284122115801743, 0.001768747343845769, 0.11606365028551571], [-0.12834283893086018, 0.0072131865312594, -0.054780007561973064, -0.2793908061662747, -0.16217966584164112, 0.27658405049796003, 0.06768731440018942, -0.23335781131446307, -0.2713580726537491, -0.01977791176084257, 0.2751929878154783, -0.03307147686522239, 0.23043383372859555, 0.06209792617067383, 0.08299997037201205, -0.23539927861142168, 0.16527687603490965, -0.05904347801036845, 0.15201211844850912, -0.14332077058649212, 0.031086202628253908, 0.062115380455021935, -0.027357669176457985, 0.07141296683558596, -0.04699221176150172, -0.11427254320351132, 0.2830024396782022, 0.18439110274894194, -0.13400742683681624, 0.10007895380922628, -0.13138668038917584, -0.2088358552405066], [0.18226958281406277, -0.3003660029893715, 0.16334373849341835, -0.044536839665061244, -0.03712658208185728, 0.07227658448596588, 0.1024139909611428, -0.14553714036503157, 0.12650457629018627, 0.019932008943230155, -0.22143437950019154, -0.029913055401230407, 0.24318034473204617, 0.29561297190959046, 0.12631775689935973, -0.20944138246717378, 0.08657980550687622, 0.14988859744556632, 0.12772022464205346, 0.1383161917045778, 0.0641815331530333, -0.012905730636469786, -0.10750382038872343, -0.3342705400567397, 0.059938958438497295, 0.03284643894266623, 0.09824110942659778, -0.23548145601862497, 0.11365210204755438, 0.3621675308663048, 0.01405346134347456, -0.010838664621309358], [0.05455969605765798, 0.358160811227848, -0.18058042551909395, 0.03579767080998987, -0.1409825528442615, -0.09672017456072121, -0.00864176995146329, 0.23757559745684387, 0.3173462984415324, 0.0789029863196617, -0.0665131700225356, 0.43942004100930243, -0.07563099866937985, -0.10063709138508592, -0.3125248878020297, 0.24619079486605575, 0.17035466239414754, 0.4258414037484366, -0.2446887996181227, 0.2566570630492865, 0.012008328311555246, 0.14185499925605646, -0.2900840789072913, 0.2585844672004544, 0.13870008867867561, -0.007035189881736784, 0.11366949207755846, -0.13473669552405784, -0.10223632299415104, -0.0817715249831274, -0.3264123859220178, 0.15187827904934803], [0.20988272217778073, -0.12337050534085235, 0.06170564886619444, -0.04687269624983727, 0.057961603618301015, -0.1102538866635182, -0.15580875551641862, 0.18545285899322375, -0.011145551936249932, 0.3563516768578386, 0.00815824657012436, -0.16320529384396867, 0.21577062238644298, 0.11169688069910483, 0.12782579983472664, 0.21045621215787316, -0.11467220643860526, -0.02264052492171896, -0.030737838516402587, -0.2273304376114829, -0.046058393224633495, 0.2350597832153421, 0.04102951404887589, -0.23665548211484627, -0.2740665486250094, 0.29368360005343724, -0.0157872803020826, -0.11402235022012829, -0.0482668245803709, -0.26016286696811947, 0.25082580772328517, -0.06920314968254622], [0.24084242623300056, 0.009097436893140293, 0.25220807413794083, 0.045262756622729224, 0.1504824664144037, 0.12714859295771144, 0.10970415144945052, 0.06111989123342459, -0.04095006645920844, 0.337415187764169, -0.15949520947682133, 0.0004696353491187749, 0.003337155246005301, 0.07094231479618236, -0.07582643248602428, 0.054948043881413056, -0.029478221608952956, -0.2786738536421459, 0.001485053915484029, -0.1935779122541628, -0.3054670440626517, 0.0242753346172795, 0.08558786556594192, 0.09305223013835495, 0.09998947131950289, -0.34026031888513547, -0.2395754774620301, 0.34736966753498477, -0.1845374521756903, 0.10776823343041092, -0.12155801582580511, 0.01418157366904055], [-0.11191504813505115, 0.09901879035757695, 0.02462761759828312, -0.0788548646088611, -0.1848363030599309, 0.04790364027840849, -0.21387479481869734, 0.07509856816054514, 0.4627820132150474, 0.23802240100244604, 0.12683553920605758, -0.015280818121737236, -0.3410776290991505, -0.23312704819244165, 0.22585088513218052, -0.13973441815350235, -0.12316994097611816, -0.029223828459583875, -0.18716370066661023, -0.21560867306377088, -0.008910706712007081, -0.15682505392243254, -0.13061018094342566, -0.13779833944477235, 0.09202403191859637, -0.040375387436847966, -0.031224808518391288, 0.10462371825606784, -0.025034641502246706, -0.04882589899589854, 0.08206927193264989, 0.11816116777345784], [-0.025857807802996367, 0.01422145887634168, -0.1379912348952079, -0.15161264969073332, 0.13536903831756253, 0.07795936013937343, 0.08042610959953675, 0.049685876910666775, 0.008234238121464368, 0.12263132888668746, 0.16437986335506308, 0.16063622828394622, -0.017909734220205947, 0.24391375356355935, 0.040641304853588675, 0.11189121911263149, 0.049484095221143415, 0.043554184805481566, -0.129313269714226, 0.12330924084587838, 0.5009207222076786, -0.06576478428831034, 0.013107529165315534, -0.07895596247014977, -0.08599851646968065, 0.2721265800874665, -0.11884707958867517, -0.0832379900174899, -0.2795726949021605, -0.13329189460706173, -0.30077395171289506, 0.11119379814832304], [0.4935204877242804, -0.0647094030442054, -0.2940761371894658, 0.15855288258298583, -0.12817806840272747, 0.22854589653534457, -0.04957961353792321, -0.11121296273395459, -0.03132005095034352, 0.13342739733056336, -0.04025842022040968, -0.08741312082820447, -0.03526783521943942, -0.22420193287584947, 0.07016122677385898, -0.31455842184155164, -0.07844866253935336, 0.13393633650357387, 0.05368083719946482, 0.10380130895340685, -0.011646253154077333, 0.20627990294130302, 0.16345688911672746, 0.07840154198224597, 0.16349442603199482, 0.13198946981094378, -0.07762732912226838, -0.23636393916570886, 0.07415764917651753, 0.0962779212584399, 0.19270183180639525, -0.16519102501824542], [-0.16002961357644047, 0.0811690007785024, -0.012053991328115198, -0.33226730910840024, 0.06632868991634928, -0.32576774077261145, -0.16676735000819193, 0.2379569007843858, 0.3216413332721403, -0.21429369968067155, -0.05767208923360456, 0.007218176254697676, 0.31457932961253654, -0.08673076892535725, -0.08412110136942257, 0.2724070194060801, -0.0656843941466223, 0.12695545807666667, -0.2607299645113508, -0.02986274546575224, -0.29233269670792217, -0.18622377185384106, 0.14706718801117463, -0.008280315064006798, -0.05613779403693021, -0.1315013831578618, -0.03857476395294965, 0.05213139120526757, 0.1731290049153078, -0.4627865321951221, -0.1476743636077422, 0.028195833565781047], [-0.017320457111930792, 0.07096703196634181, 0.04693381390295235, -0.05368409789423803, -0.0928457922317392, -0.043448753126430886, 0.2025405914549197, -0.1289690983070753, -0.011112175958137516, 0.03219380958910035, 0.2750567547615409, -0.052845324205496376, 0.16915259196197563, 0.2170057238863297, -0.011026319910755113, -0.03747481307783191, -0.05829004725645055, -0.04509959965286693, 0.15078651285333705, 0.040580323077585745, 0.0413895597696018, -0.19831919571855872, -0.16995063852441455, 0.3773455640873912, -0.03126524781268712, -0.13651397036621532, 0.2521045995307433, 0.0494582466891386, 0.1018206177633182, -0.024550332876867642, -0.056441185201563035, -0.029831183349790083], [-0.24373669059636394, -0.015514059448268409, 0.052244598741705624, 0.3261309942530747, 0.015167430600507133, -0.4111617918629665, -0.016556023342898633, 0.482701929982049, 0.1525076164530433, -0.1428483199633385, 0.10442958759806664, -0.13062878581560083, -0.23836173331619925, -0.061348373774580515, 0.01605045124220796, -0.3304183896246999, -0.20265688870499785, 0.0018750085182086208, -0.07177554839016763, 0.06971260095880784, -0.21408310804521777, 0.12594867469551377, -0.20836929101334908, 0.28923713912047344, -0.30236358804251035, -0.1924850516269804, 0.07364144813183239, 0.2931123575779007, 0.05539936750937059, 0.099149480446747, 0.002811894569406731, -0.18065006357230123], [-0.08649191993962803, -0.21340002950095868, -0.2250661883975113, 0.07075043410051192, -0.19793184609534292, 0.05650987064425765, -0.22952285141826326, 0.05211880482730837, -0.086042799666843, 0.2479386845595891, 0.05702159929330649, 0.21761870845242057, -0.1332353159111226, 0.01011702192381693, -0.1731378025225284, -0.0725314176435952, -0.04578761313118167, -0.12811719535265917, -0.2146543856457915, -0.2490052680655404, -0.4122356561692758, -0.18640638867986473, 0.10967606889984734, -0.28106935061522925, -0.24107850068205433, 0.31555547451456045, -0.11198524439432392, 0.05683651989323107, 0.11299452939902162, 0.11690652920062873, -0.26795943602690764, -0.040542902608647124], [-0.285449765877655, 0.4312025331423339, -0.28083725020719363, -0.18457118912994902, -0.18324310644748396, -0.2633990848126691, 0.23830073757750916, 0.42678517426570295, -0.0836801442937593, -0.23294653002502308, -0.39389178368772504, -0.043247525090567514, -0.05503406473111751, -0.11486943274241326, 0.03941057220270352, 0.06912055373781219, 0.056909398457489394, -0.05604294431300481, -0.19416338528346067, 0.11743035310903602, 0.0021438707234625464, 0.15627987607411226, 0.13912478817831392, -0.25037160239429357, -0.25252673591653135, -0.13291785090405403, -0.18601623829769895, 0.13213128821234968, 0.06190492186207681, 0.19313639037647298, 0.06886611152258446, 0.036562376112553814], [0.2113111251276485, 0.08282079538136969, 0.012064562696256857, 0.26093745232729465, 0.020327523353155175, -0.05357971466440105, -0.14761943615381976, 0.12389447325227002, 0.21820963635651977, -0.009122928119999544, 0.23047598070999187, -0.34741489846697093, -0.009279111011507045, -0.00733573711981568, -0.1278055274524314, 0.42007105931066563, -0.011497368320907583, -0.07186660195068119, 0.0045018457216708056, -0.3529020881304857, -0.133871343859819, 0.1732826120888783, -0.11099591850197467, -0.14581799570873694, 0.23091243480599677, 0.23635682145309345, 0.0910952746664213, -0.08064234173377144, -0.04207448639762075, -0.1418877738329875, -0.17575476820054506, -0.1842669571903263], [-0.10925304729522375, -0.18215375537687453, -0.2750804630718544, 0.03880288751704717, 0.04151130436014854, 0.3002213767330142, -0.1179339124361805, 0.052061507088466345, 0.05523158632282376, -0.04470962561942371, 0.13122975472768897, 0.13639708712722579, 0.057768264750893944, -0.0449332798202808, -0.06312387565940247, -0.24072016281061645, -0.1416763306415727, -0.10980964217589793, -0.198381500751342, 0.07794226958892955, 0.21084631740936055, -0.15988427786745918, 0.049294378851227824, -0.18185356287697754, -0.053693273895526576, -0.12136162922666945, 0.10629193760921944, -0.11980385654534202, 0.17825776520705972, -0.043025395984201596, -0.11478285854689163, -0.22058036835063427], [0.04463261745547549, 0.15774101201544705, 0.04818783591571568, 0.39451569744356213, 0.25196478440501546, -0.05408591527782855, -0.05613066605339076, 0.0826654059876952, -0.14769618971828247, 0.20553496896400353, 0.0639173159244282, 0.04502177377369447, 0.12147130973918266, 0.3035839050137439, 0.029956381715931794, -0.020311906867486476, 0.2661372527366742, 0.17047620573844327, -0.05679094258609716, 0.0010499745154376149, 0.03442713857084589, 0.06376541100452343, -0.2395940039968142, -0.2714350852995387, -0.15637112405270362, -0.1702032745251472, -0.1132116823642127, 0.11199767952715763, -0.0299642863337263, 0.03467729643644548, -0.21557310780953887, -0.08116561336149308], [0.10338003910814357, 0.10482035984359646, -0.12730023256533185, 0.028520232263715656, 0.38775870672886925, -0.0025076787761636413, -0.12235081226823472, -0.030725988238718346, 0.0162198144093825, -0.02660246492302437, -0.00540989803033989, -0.25445032990182803, -0.16955027790631735, -0.02612800837862649, -0.029380010829139217, -0.09984690194311704, -0.030849111286405016, 0.010809677399085747, 0.15641304058106914, -0.017168402928781943, 0.07063563310028335, -0.09539628969157078, 0.10027031582254174, 0.06653940093161614, 0.15257666584173718, 0.12586961506175318, 0.10394545799908415, -0.017231388840813346, 0.04315048353496667, 0.18770859566907694, -0.11486531215315048, -0.1105362121121828]], "v_proj": [[0.04519836195658519, 0.0807546281998708, -0.14169773623355666, -0.004554752573187038, -0.0018081498309846405, -0.407660667207083, -0.03212644471652663, -0.04564320587295769, -0.021359312669916974, 0.24610991980572305, -0.21446112288032912, -0.14886963937643757, -0.46803589797354656, -0.09611932854325825, -0.07130919617939004, -0.09216376350564608, 0.19554240070332615, 0.14556953389882696, 0.0249746688011156, -0.06994227871329929, 0.1753175817539468, 0.007756067996264764, -0.14957732580453517, -0.3160220216234478, -0.08726642522206096, 0.12894014065999745, 0.4054138884781297, 0.0011575887766676481, -0.1454687198831863, -0.21069832862662252, 0.09832841846000892, -0.3057167304948165], [0.100066492146263, 0.14542147626660581, 0.06894417648486746, -0.04127600039492004, 0.09960369171120041, 0.03095989377229419, -0.13381749584900937, 0.32474247673355794, -0.06599315887062136, 0.13962516932145944, -0.4231131482935404, 0.22823079427625442, 0.25691107910527494, 0.005019370164825555, 0.09980926459685582, 0.09982025998080028, -0.10159790487537719, 0.09274760130942297, -0.14359622940057026, -0.11973635273796518, 0.1912154230435914, 0.18125630008805813, -0.12481891616673037, -0.12764191636533487, -0.10771178764912828, 0.12706448866788034, -0.17801661963510818, 0.0647302801018218, 0.12848628585726063, -0.01587287007280515, 0.17480642956145215, -0.06116514514271055], [-0.03059490005268415, -0.16625053454251285, 0.1567083236825349, -0.1506895771315012, 0.05847588112424302, -0.00035961312131185797, -0.1861844159057489, -0.09938379221249398, 0.2314248243412231, 0.04541535234547341, -0.16888634864094443, 0.05968348814504693, -0.01771999505728788, 0.6233598682694956, 0.06748923080026, -0.052707680433784924, 0.2694133766188172, -0.324777938479881, 0.010462318196929436, 0.3386235643059044, -0.03716631573672069, -0.29636558674339963, -0.07415309451939836, 0.26587106291745316, 0.07957743509159268, -0.1502604729697023, -0.13262008933918215, -0.09321891813142442, 0.061046006461468814, 0.2343593789284875, 0.1774995505376112, 0.07403458104628959], [-0.26448265105873214, -0.23952789161469243, 0.10875937591192454, -0.23554028200049507, -0.04936378118189777, 0.06993022782613878, -0.2050260290905898, -0.1551895780501873, -0.012904561277297088, 0.07557659293297947, 0.17471665784892842, 0.10940604260639422, 0.009623982123388662, -0.1264120366627001, -0.1974118686378377, -0.10922658176166282, 0.06303852079167419, 0.049613848478240914, -0.3701430811328244, -0.13296339062057064, 0.2467941664898706, 0.0030690566153294663, -0.2411920775299698, 0.41810782362749965, 0.003283992208598748, 0.0839610146411787, 0.06603043947200982, -0.0538524097506267, -0.11134790112547413, 0.3832998462593064, 0.19102110531576022, 0.1316069455953352], [0.07424920182708959, -0.1733314436299739, 0.23254714300076076, -0.15319087038275764, 0.042726629778402234, -0.2695237070453993, -0.36613693621531784, 0.07596844185562213, -0.14804949186431168, -0.35875165843081075, 0.09009303634491049, 0.37385975902973884, 0.24092736370340914, -0.034507514628321065, 0.0037736824839084532, 0.14563289197741863, 0.20203977492805564, -0.08135570047135603, 0.0036735503854305016, 0.04562605214276133, 0.12015962614791195, -0.019758065477802723, -0.016008628215150904, 0.24551083394881135, 0.22570283102029262, 0.0973080904033136, 0.2870528052932671, -0.06257037734169353, 0.29251708447488667, 0.10990354764479032, 0.5937359895889853, -0.2290740661637671], [-0.12852419976203253, 0.07371198029181072, 0.07374291904979764, 0.3405028018942536, -0.12612904233638803, 0.16591696322570013, 0.20826443593870198, 0.13252841130501622, -0.17178226743222783, 0.24360274850568445, 0.21080820371883047, 0.10680453822359223, 0.034718603243001404, 0.04427594575962218, -0.02030904815122304, 0.10798247560498361, 0.008796137681342544, -0.15712165706425874, -0.18576203980571968, -0.13438873047733968, 0.04222138732625556, 0.0005662474666807366, 0.043093506533522855, 0.09263128973015601, -0.1026319828770318, 0.2623795237198347, -0.048818306931458985, -0.07260672203564048, 0.08975846922321841, -0.32291612557708005, -0.1327476647103761, 0.16887590744410086], [-0.3044028565726698, 0.20775773893109384, 0.2797131169488304, -0.05613242016995981, 0.06001454719865069, 0.18427329908028256, -0.08113332273239146, 0.13851682382391553, -0.11269472257924301, -0.09543401444889077, -0.1550881214939505, 0.05398389650084043, 0.20692341303253817, -0.03536699560950138, -0.22971799020950692, -0.1893819747384023, 0.054793990865448866, 0.3240584502824488, 0.08292341404099508, -0.05665075160267797, 0.13911432654774952, -0.0378740449480117, -0.06950889322560054, -0.18584442620834332, 0.23856689366695702, -0.45714749832624324, 0.14505141383152736, -0.08849972401786524, -0.0765913623525178, 0.2969618737804468, -0.11540329826214761, -0.10384204315258158], [-0.028149858159636904, 0.07392689507559984, -0.09070257327183201, -0.2831253792353758, -0.15636674120057026, 0.23745519683835423, 0.007737303648877745, 0.08642263057521696, -0.05452938982786963, -0.11267921374053153, 0.30097640891412647, -0.029500932665236738, -0.07363017082403066, 0.20382133578241318, -0.12036202686228425, -0.09901902806163924, -0.0015845170421059, 0.004849880124717268, 0.03534261676144632, 0.36816645949422727, 0.06021525160103204, -0.42655169226035744, 0.05625047289835965, 0.015591713073503528, 0.013915392716473076, 0.0434273018436772, -0.015750618330471217, -0.006226144035021942, 0.1125365604052342, -0.09039388396985347, -0.16927149078753437, 0.536299674863003], [-0.11138941918517165, 0.019217695995203704, -0.2611753685048171, 0.024651589459683435, -0.15822687464080648, -0.0906303979998165, 0.188514567794232, 0.07083082165714392, 0.10733446233940866, -0.3097369062520804, 0.3246375431714457, -0.21320099813287785, 0.27091139593114993, 0.17149646262704601, 0.09975608867013194, -0.14660141195774296, 0.023664662815165875, -0.08026507041696901, 0.008840657277844853, -0.03940132629102186, -0.36906500770134826, 0.20164365123512668, -0.01665539118523538, -0.0913535991779203, -0.10934304231895159, 0.05742811978433333, -0.14984733675839101, -0.4052279121115135, 0.0671969055104585, 0.08672987145603231, -0.035702627492698945, -0.18851246974121996], [0.024174292154734617, -0.2588257012153739, -0.19538465097811944, -0.13652932321183744, 0.15170000286154645, -0.059980566980515196, -0.08214938567507545, 0.34196323022061387, 0.06008595536801986, 0.06987419832887323, -0.05190857481697203, -0.10345263211641792, -0.38332872367411996, 0.17208862233472474, 0.08847513714926641, -0.02458446699635446, -0.017551604246355823, 0.13675544629881745, -0.2796915027077147, -0.10774600995189083, -0.21087534747735376, 0.3078493881657589, 0.14757091371674075, -0.3816583260989962, -0.2664397714883646, -0.024771497859268854, -0.08630107957756109, -0.23236972597519365, 0.3396011292895519, 0.05567573899137138, 0.07377997382606716, -0.11900312120520826], [0.12033531460017004, -0.05952086077548389, -0.037673903913023, 0.11813723040783518, -0.2803630092842494, 0.27691291500252346, 0.034313368880147396, 0.22272587825714021, -0.1850867863166988, -0.17605858512435613, -0.21827012739144458, 0.03865310046277693, 0.012094741156134162, -0.08468727332596197, -0.185199092240196, -0.22915156567288977, -0.017228226782602354, -0.09299968759738272, -0.11151156669021775, 0.27221448553181027, -0.0034103943083490223, 0.23325305725087192, -0.09120168379572643, 0.03098038650156841, -0.010281910673346169, -0.2990487590951355, 0.252514976175341, -0.027135672891608464, 0.1326294098516329, -0.13013050651884966, -0.015673492183489054, -0.15185962937385172], [0.23403830041982618, 0.06158638147143879, 0.06848086374603993, 0.24758969090611924, 0.21333072729545788, 0.12038346660459405, -0.24323136824051553, -0.14089918041358832, -0.1721649281696769, 0.12741726692881084, 0.030702745960377167, -0.24811578965527442, -0.034712884194173885, -0.2736656192698651, -0.014085832818717375, -0.28785298070674914, 0.08905951125587697, 0.07053660279071562, 0.3436060018726, 0.14976724856343931, -0.08641175296957074, 0.15157877400608893, -0.24911453037097686, -0.17690577588071527, 0.05042126451278402, -0.3880063715821236, 0.0018071398867018171, -0.18730263463904187, 0.010589749615167688, -0.19770983235886883, 0.07470133638178243, 0.014243280781512971], [0.23396868826379016, -0.0006838739706073631, -0.12932848463564067, -0.0476100473338334, -0.2430406113881214, 0.08004405293933871, 0.09770053202916146, 0.4477106588409761, -0.10946100253534084, -0.05214611894913569, -0.1060538449152754, 0.03697915640771068, 0.06943356737975481, -0.0008327511268833403, 0.1939443800354064, 