{"version": 5, "architecture": "zero_native_char_attention_v1", "vocab": ["\n", " ", "'", "(", ")", "*", ",", "-", ".", "1", "2", "3", "4", "5", ":", "A", "C", "E", "I", "L", "O", "P", "R", "S", "T", "W", "a", "b", "c", "d", "e", "f", "g", "h", "i", "k", "l", "m", "n", "o", "p", "q", "r", "s", "t", "u", "v", "w", "x", "y", "z"], "tokenizer": {"mode": "char", "vocab": ["\n", " ", "'", "(", ")", "*", ",", "-", ".", "1", "2", "3", "4", "5", ":", "A", "C", "E", "I", "L", "O", "P", "R", "S", "T", "W", "a", "b", "c", "d", "e", "f", "g", "h", "i", "k", "l", "m", "n", "o", "p", "q", "r", "s", "t", "u", "v", "w", "x", "y", "z"], "lowercase": false, "vocab_size": 51}, "dataset": {"source_path": "C:\\Users\\gomez\\Documents\\New folder\\.zero_os\\runtime\\benchmark_suite_mix.txt", "artifact_path": "C:\\Users\\gomez\\AppData\\Local\\Temp\\zero_mix_search_ft4ms_8o\\mix_d.dataset.json", "stats": {"source_path": "C:\\Users\\gomez\\Documents\\New folder\\.zero_os\\runtime\\benchmark_suite_mix.txt", "tokenizer_mode": "char", "lowercase": false, "vocab_size": 51, "token_count": 4011, "train_token_count": 3610, "valid_token_count": 401, "train_example_count": 3609, "valid_example_count": 400, "block_size": 12, "valid_fraction": 0.1}}, "eval_metrics": {"dataset_source_path": "C:\\Users\\gomez\\Documents\\New folder\\.zero_os\\runtime\\benchmark_suite_mix.txt", "tokenizer_mode": "char", "train": {"split": "train", "ready": true, "token_count": 3610, "example_count": 3609, "loss": 2.8316192630472066, "perplexity": 16.972922210675637}, "valid": {"split": "valid", "ready": true, "token_count": 401, "example_count": 400, "loss": 2.999016208260051, "perplexity": 20.065786654538712}, "primary_split": "valid", "primary_loss": 2.999016208260051, "primary_perplexity": 20.065786654538712}, "training_steps": 429, "model_info": {"architecture": "zero_native_char_attention_v1", "fully_native": true, "production_grade": true, "vocab_size": 51, "block_size": 12, "embed_dim": 32, "hidden_dim": 96, "attention_block": true, "attention_heads": 4, "attention_head_dim": 8, "mlp_hidden_layer": true, "training_steps": 429, "tokenizer_mode": "char", "tokenizer_lowercase": false, "dataset_source_path": "C:\\Users\\gomez\\Documents\\New folder\\.zero_os\\runtime\\benchmark_suite_mix.txt", "dataset_artifact_path": "C:\\Users\\gomez\\AppData\\Local\\Temp\\zero_mix_search_ft4ms_8o\\mix_d.dataset.json", "dataset_stats": {"source_path": "C:\\Users\\gomez\\Documents\\New folder\\.zero_os\\runtime\\benchmark_suite_mix.txt", "tokenizer_mode": "char", "lowercase": false, "vocab_size": 51, "token_count": 4011, "train_token_count": 3610, "valid_token_count": 401, "train_example_count": 3609, "valid_example_count": 400, "block_size": 12, "valid_fraction": 0.1}, "eval_ready": true, "primary_eval_split": "valid", "primary_eval_loss": 2.999016208260051, "primary_eval_perplexity": 20.065786654538712}, "block_size": 12, "embed_dim": 32, "hidden_dim": 96, "heads": 4, "weights": {"embeddings": [[-0.020225088761114365, -0.04083443101540346, 0.039530516946843064, 0.05876780812147151, -0.10253724465284955, -0.04447311888227177, 0.0008877780204056898, 0.0005325899383758702, 0.00743590916517549, -0.03514577969887349, 0.04330736047732845, 0.011420881613640878, 0.018939160397405373, 0.03891227009149146, 0.025369300460333227, -0.029000977944531776, 0.04252280820481521, -0.05282236662920387, 0.04899157214945799, -0.02068693725839146, -0.006984438463815374, -0.04907617550464094, 0.054902506181826426, -0.01759617938894309, -0.016307269563611785, -0.0050131629186329196, 0.015863466360521522, -0.008316175162620126, 0.007342768717974232, 0.012672342576972919, 0.09216913495631612, -0.028157819911659904], [-0.25645582609707573, -0.02028067530646614, 0.17993962517033693, -0.16762198622277114, -0.2038088331815126, -0.01785708810421812, -0.0818663921625227, 0.12259960244606442, -0.021206977225493057, 0.11757373427776548, -0.24329736450802714, -0.03522994818434945, 0.1456778348523452, 0.053040026161245896, 0.2886779314715008, 0.028369177142577372, 0.05875985566505377, -0.1343607209520189, 0.08710897062520861, 0.16919792474751916, 0.2678856617953329, -0.1513829012991436, -0.17566923385659236, 0.07850335130742171, -0.12824618076733763, 0.054240706539201884, 0.13390009953503706, -0.3163972262206473, -0.1718443650508856, 0.1779816226665795, 0.1198440170191258, 0.25978153121088776], [0.06143040948933921, 0.055299135055243434, -0.0322204184863251, -0.032913319063557364, 0.04635627946688507, -0.017282963632320864, -0.06833422972021747, -0.05853217872111468, -0.027129018835558672, 0.025547382876354063, 0.026992455330468904, 0.03887107061700935, -0.04163384743663174, 0.008980211197733408, 0.01168224846317157, -0.004558962303410734, 0.022999352218756423, -0.015612246454658476, -0.015107956924595897, -0.02468923210977761, -0.08287284985187446, 0.01414252527268307, -0.03399644470879468, 0.0007493793414503065, 0.025152463796456834, 0.0204962868563023, 0.04275136817174069, 0.005988022540097707, -0.02227229399197174, -0.029711851830365572, -0.07951427883782484, -0.07642234856518096], [-0.06776554867156219, -0.048411619770578916, 0.029718589681140495, -0.03965995905109765, -0.011901551647909571, 0.06826255019668805, -0.01815538206304596, 0.036898372464682236, -0.05101581794577793, -0.010933046753394295, -0.047288614311787935, -0.01804907592428687, 0.044231263679336406, -0.08795776423281801, 0.02362725608884903, 0.011684355844104044, -0.03557783722647313, -0.0727076072546675, 0.0015835440042358774, -0.02981566985089778, 0.012958693943860658, -0.0005156013019644838, 0.08121614763917268, -0.016751775355816945, -0.04850219580162131, 0.010524220828362406, 0.00507712535286861, 0.06890622359942428, 0.037566902135792626, 0.014435708500731705, 0.06877944029223305, -0.06335870692755059], [-0.003818677744112601, -0.045410727938103364, -0.04139090271702859, -0.06143434227380744, 0.039053783288159755, -0.01633921912702426, -0.08109769268601819, -0.05434338661439017, 0.02310378969340592, 0.03895008674072468, 0.11502543202486196, 0.14352215807706012, 0.002034246836756799, -0.04903562404959185, -0.1326677766010464, 0.015780774709766646, -0.03334203951662012, 0.0010045009039353957, -0.029736963938032386, -0.016531510333971558, 0.023724225274253413, 0.006799841067830584, -0.001235036386956156, -0.05972348148472267, -0.0766097772449615, -0.03127241103245615, -0.0007704793249156623, 0.0941757387577185, 0.009888372821933207, 0.030292362967916178, -0.025401988330922394, -0.06350186267178186], [0.0684409563588895, 0.1163862956285551, 0.08911825395365937, -0.1311380017888289, 0.013085254651941592, -0.09780455438548442, 0.098668974566511, 0.01754142591868678, 0.09489947219132076, 0.0144324061760602, 0.07788725609325009, 0.03469265362509036, -0.13324924894214854, -0.06370961153536467, -0.14306007863051037, 0.013790932306084608, -0.0115389045682833, 0.016271884539202072, -0.02687211420884332, 0.01845614402055607, -0.04575778915016112, 0.01351109952035566, -0.0637869461695121, 0.1671751971344589, 0.025932467996585204, 0.11822587114010596, 0.10939613458595329, -0.0683066619399084, -0.08622027409758869, 0.07534324059823248, 0.1933740976960865, -0.028513481655670483], [0.15972547510682705, 0.08820256260853218, -0.2418870217935771, 0.055355392371385426, 0.08070906563028038, -0.054641595098050166, -0.06570523143412081, -0.017786536613342615, 0.0964540632950752, 0.04543258889160709, 0.1406935179402926, -0.008513735213983069, -0.23591746494029353, -0.04784718055047103, -0.24569873789245586, -0.04823819538211791, 0.05767451688192526, 0.18684728720118907, 0.026313217006757275, -0.1908692648089427, -0.25156466675743633, -0.04965366793243754, 0.05694680888500677, -0.05931383256791002, 0.10744887436742477, 0.0344121121777135, -0.031692271419233455, -0.0010424504249863821, 0.0022219407372460584, -0.1765494348919727, -0.05888519507633234, -0.0878660424682214], [-0.0196208138180303, 0.03994828694603878, 0.173216941225832, 0.09664447591017918, -0.0708247372087783, 0.011776777824441037, -0.04747031714523819, -0.0030767986850007765, 0.02174967646888842, 0.10330930569643731, -0.03976355155594705, -0.058924753841671604, -0.10097022035600418, 0.0038012086124335097, -0.03247983409645567, -0.008943088650959037, -0.0588979072571716, -0.023180231197561185, -0.09705305793782604, -0.05794095440225476, 0.1449432515800851, -0.07919121361658607, -0.07866261501865225, 0.11121075858208793, 0.1480725415048331, -0.03180363033449564, -0.012310462611804213, -0.005129028783799137, 0.06788130739616108, -0.05797583001966755, 0.010456181471983706, 0.05494615103721413], [0.22700724853328225, -0.005206279656613209, -0.19029785915323183, -0.05911104011608881, 0.009056264651263404, -0.07786774336621748, -0.0729740730952577, -0.08068649078861194, 0.10383833720256166, 0.03878774238987259, 0.114822887504967, 0.03799384757260814, -0.16426149849892033, 0.005007034248444079, -0.2205957890066823, 0.048084387951597675, 0.036199322240493784, 0.2792191426459994, 0.09107575245900419, -0.05894252263762066, -0.2361370101406517, -0.07872435308157454, 0.08923434375742502, -0.03311678415803481, 0.045276939137281154, -0.11222044859923457, 0.06771174030519904, 0.111399128303826, -0.027175156440638566, -0.16689943886971706, 0.015276455171527361, -0.03386600646739433], [-0.017246230467922726, -0.0024268676103023773, -0.015097686757118981, 0.00761451106197449, 0.07252707321864735, -0.12848093785002937, -0.010112777682548094, 0.004121026693898186, 0.020085740956172948, -0.014113951200504892, -0.09104038524102363, 0.023480544065829848, 0.08049072689280229, -0.0786769793628485, 0.042881687289125385, -0.015410600930712424, 0.0007904634931156763, -0.048272170795164826, -0.018693382845699255, 0.0642639671108591, 0.0267416821622239, 0.0783061060808883, 0.05349785943112032, 0.023763173055185303, 0.08569122437911122, 0.02335320217579949, 0.04413408107509032, -0.013179323782657537, 0.0005095376749181234, -0.03340494882678907, 0.050776381433568225, -0.05591587662408], [0.0278196387400813, -0.005209512671190688, 0.05465182578159218, 0.03745987926495543, 0.08957394520317404, 0.03997160369026193, -0.07864493738718645, -0.005828881915437975, -0.04934242908649777, -0.018231589097432804, 0.06880434238316822, 0.03968952122315061, -0.04045420612735724, -0.05391428438864456, 0.004649145706566458, -0.060640680383680055, -0.022277433123468724, 0.01795012065907555, 0.05669535290443302, 0.03135812551423865, -0.11365229540256737, 0.0007581785004040115, -0.009131932970553348, 0.02452764086083323, 0.07899555400757594, -0.09835686824943853, -0.023094210254883934, 0.029939159839836502, -0.08606302732404145, 0.07465054343924003, 0.022428306017721365, 0.04465927493369427], [-0.02887543889352536, 0.039538655835545694, 0.049832110443996734, 0.008877323488664816, 0.008340535091937409, 0.013582450617689827, -0.046396788015797545, -0.012896725448634785, 0.00016855246354274646, 0.02288950860799039, 0.04315538867272065, -0.043593476430172, -0.01373133633320548, 0.07911172672387573, -0.03774500884597594, -0.0383059319129179, 0.012619840869952137, 0.0470244539993977, 0.0009458927898013288, 0.06686477506112667, 0.03979099355877918, 0.037365681041729625, 0.02016410675488605, 0.12046043078644127, -0.014608960830162766, -0.09972312934309643, 0.08762773712017576, -0.020847061263586042, 0.004399573609390902, 0.06625631120266763, -0.07485879931534617, -0.06189434615282394], [-0.08874704737153957, -0.034167609764061566, 0.017247913763566707, 0.02516351569165898, 0.014107081069042163, -0.06781395631584541, -0.11498779418162529, -0.0009803901512040576, -0.01491183134541718, 0.030530660220038672, 0.028425117814720978, 0.016901292546795708, 0.03105318193072081, 0.008161549890095562, 0.028587001295388444, -0.036746887706947146, 0.00016981444208559593, 0.011861030774168061, 0.03943360055420616, -0.016812682187161122, 0.02697395098095739, -0.02713376346898919, -0.017299179065228577, 0.04522801058059594, -0.10074749341790416, -0.05991612027482098, -0.06765223692220647, -0.11354155630915537, -0.0416076946948373, 0.03772759337908258, -0.009138845344837433, 0.01238386915560746], [0.052649702375659836, 0.06379100491760858, -0.008511686250640802, 0.06603333202330264, 0.0015146291854907497, -0.03935549021912099, -0.035186252595200744, -0.07938697181918958, -0.03749841709671881, -0.014143155397252083, 0.03239434904039947, 0.09329914663268767, -0.07414508652537405, 0.023998429558655353, -0.0510472053295026, 0.027797561532919634, -0.002810446738776453, -0.08545892263973999, 0.04775539495174685, -0.03022149908647721, -0.028977471668397776, -0.05703715751604592, -0.04162251634802311, 0.02564076239679611, -0.015303668272232392, 0.017908686888744765, 0.02373680625039544, 0.06732475298871508, -0.01836886626545715, -0.07255025212440847, 0.05807493210943657, -0.018337913600034297], [0.11759644469102777, 0.06802678709625985, -0.008172565180411592, -0.026636679198977255, 0.10370183102962734, 0.06033625871391898, 0.021042348978045335, -0.013798126585843251, 0.0752235191860666, -0.05997215515774001, 0.058022833652303166, 0.019828564700716457, -0.022048338515132642, -0.04133545304039185, -0.12161089328289401, -0.12105790864857892, -0.10072827286873222, -0.03164238524676627, -0.02353393249080952, 0.10749881212917778, 0.012919797330162543, -0.020048641698366145, 0.02549305646681068, 0.022955952963277633, -0.008535931100711986, 0.006340232333533241, 0.06965177979845379, -0.0042207387079662845, 0.04919028332846983, -0.031189284079124458, 0.058122825417787155, 0.11833348814136496], [-0.0015924706219687043, 0.060902938752178545, 0.023269470873438603, 0.011879203643567076, -0.04115665429867129, -0.018437324342957206, -0.02845497245834497, 0.03382864357759596, -0.05574256373288614, 0.03232694977254617, 0.033460667267275354, 0.018539689576235002, 0.0006073641665134704, 0.037344413556311615, 0.014758052513021879, 0.0772828310670935, -0.10251715968715394, -0.029823933892654052, -0.08254573050543675, -0.05903856156581448, 0.11016203274212022, 0.05446413154452704, -0.05259905697868783, -0.05482346806559898, -0.15070886861630955, -0.02187193693402392, 0.11991514069628535, 0.023249876053568326, -0.01955373592898346, 0.05459308680870824, -0.07596921185310633, -0.007839366742900632], [-0.015727271862162148, -0.00550420435574752, 0.0276934489606773, 0.01824363484996774, 0.0166387749089923, -0.04695193444768039, 0.041458005207814265, 0.06551259618141471, -0.03792102160786576, -0.05254306257802247, 0.04749193635090291, 0.0087353433201349, 0.0703626047473631, -0.03243121193042945, 0.06279007653961763, 0.007215082159805788, 0.031189141349021815, 0.07159172167438731, -0.02480449750198518, -0.048738902971680896, -0.03339587603889585, 0.03102962522573575, -0.09044620710635755, 0.030527574438278082, -0.02808355212086328, 0.044367322554215445, -0.11192775259463426, -0.035516471153710066, -0.07927189091778293, -0.027627748304113436, 0.021289838757222918, -0.004351320518648546], [-0.023191663424499145, -0.01134949983758248, 0.008421152158528266, -0.05301308522810195, 0.019601322380126737, 0.03142301928238181, 0.025235783725855693, 0.02931010607404143, 0.012081135259448265, 0.09957609489850061, -0.011423418214318679, -0.012083955134336393, -0.03200873117280301, -0.0562542053306346, -0.048692254271083, -0.03822874926813986, -0.001917585545349203, 0.01664454617312551, 0.01160487841502548, -0.03914136172093686, 0.05098884908115605, 0.037142949054790694, -0.017454791314837965, -0.03175461160934136, 0.02910295657388297, 0.015790460482588833, -0.07517163997435886, 0.0004961308451738017, 0.01612425494623699, -0.0365386706211558, -0.0010934284655817264, -0.0768860013627842], [0.07276294374949556, 0.06344928165528721, -0.03469724238095852, 0.02809715996306483, -0.11906238154491824, -0.05818588556296159, -0.014904245923791774, -0.053490096013526875, 0.04323727621865475, 0.10209718031608894, -0.054271155317726825, -0.049601944971980595, 0.0031762727519713584, 0.06915553792404343, -0.08300021826599459, 0.011056411734546278, 0.10115794084219981, -0.07546362686365636, -0.06872438836050085, -0.024444090971576085, -0.026739579258190795, 0.056937631219673386, 0.021662593016186078, -0.09621937809541263, 0.024731604781442425, -0.036064171103166696, 0.05970411664306054, -0.029128762852963872, -0.025570243667131013, 0.02820892103448398, 0.03244655352605968, 0.02046389550648462], [-0.09715674175618944, 0.02684484843906158, -0.02969823047871891, 0.012887577916975734, -0.03765247408642341, 0.028501561348890196, -0.050005114038141514, -0.07055630417126024, 0.01457259183691178, 0.020860028374892047, -0.03835104905328771, 0.06113079071043982, -0.009759320688610289, -0.00722312730424498, 0.018974504673107493, -0.043947264941378655, 0.009770790688728027, -0.023681080990291075, -0.02647068702853558, 0.05876850528030036, -0.021931007800988615, -0.1277335639968497, 0.08453992410293301, 0.11966101770547127, -0.025461601162926138, -0.08180571127521338, -0.000978977727646516, -0.034453249646172315, -0.03310911776805274, -0.05461812908435925, 0.025710130769550785, 0.02810926718345882], [-0.09590688346133959, 0.024957592560872682, 0.10599088101420233, -0.007099047470232566, -0.04642009554968104, -0.016647581884447343, 0.06384715514487019, -0.09508013718164049, 0.005486143049467467, -0.028191674895652434, 0.07656610658122014, 0.01218918990234296, 0.11050218551599005, -0.0586679446971227, 0.05801039152527385, 0.020084779726503493, -0.0505566430427769, -0.0022774936330338205, 0.08659508433772066, -0.01274214722148397, -0.061152552151502226, 0.013354773612729546, -0.05459610461656791, -0.0015523230538524915, -0.005122786746835533, -0.07949945987302792, -0.07445509006382363, 0.04742825367060246, -0.010192893780950195, -0.09402807191830119, 0.015691275605819784, 0.019106809186578505], [-0.04994729591346553, -0.0728656941613322, 0.04769105671107047, 0.011827647556586452, 0.14033643947260044, 0.037328869144731644, 0.020176378913755923, -0.008172072506990601, 0.04402197564476447, 0.02763093934479138, 0.05578496773960133, -0.024476810444071018, -0.008660518770794039, -0.025283134222914474, 0.05100755920326486, 0.06267669363663825, -0.01932737108901215, -0.025846838128086875, 0.031648375526664246, -0.014675922286406863, 0.059411724695977476, -0.12846991147358294, -0.05017464618654311, -0.03550838255754173, -0.1256338174840244, -0.048325979237768095, -0.031458841461989344, -0.00926387129967017, 0.05307389849921763, -0.016127214846684033, -0.06401091932731606, 0.0024355237433460603], [0.02476439566465928, -0.044100554538025284, 0.020024329286045185, 0.06440365564375686, 0.03435725942543335, 0.06785035422439446, -0.009983975654167216, 0.045983697640419895, -0.08626521093398211, -0.010425215228606404, -0.014747064381080768, -0.07833839186180183, -0.051781281377252485, 0.028167449063887445, -0.0036059700346264974, -0.05660804819283307, -0.04284987412770887, 0.03100648924981092, -0.12046669195380087, -0.08720981887660659, -0.01916958804549219, 0.07121160062171453, 0.01794848951260116, 0.0066600789315862325, -0.04445331068521274, -0.046285357186893965, -0.00684220328065403, 0.001810030815756185, -0.002686404129360553, -0.029369017888817347, -0.004939361219746839, -0.030617192278885156], [0.04352114410382261, 0.049482505233254676, -0.05662459824301431, -0.10388462099829132, 0.04299281473428611, 0.059468889877543174, -0.06506805174076268, -0.09065950026636829, 0.009781490894864657, 0.05076702881397584, 0.08208588192501702, 0.028277594485410663, -0.01126887742238779, -0.030808209920929565, 0.012552507976419562, -0.0013753983969563661, -0.06798978525633921, 0.08859933794800962, 0.08488733206843747, 0.06650646800821992, -0.045471616878390284, 0.060304560209901124, 0.031007436725178517, 0.021766137662768338, 0.04456643761163792, 0.03714788663082281, 0.04264073167208171, 0.007260055381977608, 0.01757898828568763, -0.08178105692436269, 0.0017245735708757406, -0.02808498750572025], [0.09297487614164619, 0.10164650785804424, 0.10096441985967407, 0.10860195955689442, -0.002510505844530119, 0.1209239205317836, -0.05534252718014759, 0.003966015189780664, -0.024647432928974106, 0.04580604253269879, 0.12283496584920553, -0.11399048729058447, -0.051751032421098846, 0.09277887249835085, 0.07504481125613051, 0.030992646566177694, 0.03727921055439048, 0.013327777157405608, 0.12901954730027346, 0.06069719921757474, -0.08619833399735682, 0.06562029748981128, -0.02200425199632293, -0.04218276607791299, 0.0026474287126070847, -0.031303155194424274, -0.061592422475493826, -0.07265292184998227, 0.09119853729772423, 0.07985656538776462, 0.01611837562654039, 0.05309330101764413], [-0.023157427937841348, -0.053971598086169796, 0.036214412138370386, 0.0374634129717241, 0.07440746145129193, 0.07161092308412678, -0.019311189695328346, -0.06072092317843362, -0.023140757077604664, 0.011268335314126911, 0.003520671482471472, -0.03835674759907456, 0.00974995285671999, -0.009665470812833307, -0.0263355021676832, 0.01637612390169636, -0.025906348409089553, 0.011057166041928017, 0.029093902617469247, -0.0485939637996465, -0.026307754932859924, 0.0822393863880501, -0.0609289908775705, -0.10925544010060803, -0.09662670604007395, -0.0037060043990196404, -0.0017992677844022946, -0.013849389735965419, 0.0623383877427511, -0.13579435780804047, 0.010054069344397652, 0.07343166999330174], [-0.09408195832160482, -0.13563659502062808, -0.12444440558850153, -0.22235210190854884, -0.2924966201695551, -0.03256776729908649, 0.2151016142846473, 0.029490566619588193, 0.09555517910284125, 0.013602108875095945, -0.052413598017061386, 0.11797720969713965, 0.05142375887486611, 0.0545737073584524, 0.24803740451224612, 0.07410030412768455, -0.04559257032895461, 0.09534260886563256, 0.057628447462271006, 0.0562063827404576, 0.14421188300052679, 0.1953053047483497, 0.05414778620751145, 0.05574048857180638, 0.015480896854994635, -0.04679526022207009, -0.11912021643499501, 0.11157281811352977, -0.011110574012386873, 0.15128403688148231, -0.054362305051596074, 0.10441317729048338], [-0.06236281892890545, 0.03340635282972828, 0.026395514640553078, 0.03781481313760012, 0.047812158902356655, 0.037543090259617634, -0.002076806613306595, -0.04689566443190076, -0.03557402126633152, -0.009644197454783515, -0.09995438767161899, -0.12295257660135925, 0.05137335536799993, -0.024892027555833453, 0.03418612403943124, -0.023623311009728226, -0.046108865093628194, 0.010320106242950964, -0.08629467231192357, -0.07696226003097055, -0.015531239713637757, 0.005559823972717835, 0.07120524789535732, -0.06372278586538122, -0.11222415562866295, -0.06371554470886302, -0.093398687196953, -0.05968122500563361, -0.07197877331724255, -0.014861492545029728, -0.019807396279652372, 0.010432742313549768], [-0.051792635915594465, -0.05830615096051139, 0.10961897872809104, 0.0023976285253422417, 0.013967887187482176, 0.02189485337392215, -0.11308848132720678, 0.07707620433947306, -0.07144562218311727, 0.14443192649739026, -0.0391020399781185, -0.1488512376670283, 0.03264148692576205, -0.022609949921743585, -0.05724805676959991, 0.08045662400235823, 0.0022273882273277455, -0.09740403393250574, 0.006893224355771862, 0.08842507864107084, 0.13365443494011964, 0.16976201277255307, 0.15978923103389295, -0.10354143260577889, -0.12586360492650595, -0.07255840972000119, -0.04127942904891163, -0.16108741823913264, 0.028641736854593668, 0.18162214219700343, -0.07933392089281897, 0.03692358227003777], [0.04967746446464716, 0.00501128102115896, 0.017549255465944238, 0.1603091562427238, 0.2168123351880654, 0.12828230425404988, -0.05651312310081445, -0.004457026557497205, -0.09753593189022178, -0.02150124390920484, 0.10148384706785935, -0.010452757386936747, -0.023108151357483016, 0.014309838216291042, -0.07009649782818292, 0.0043638427290294286, 0.006655549498963664, 0.04740932761550738, -0.06360114057542238, -0.22291623079317183, -0.06104267990896325, -0.20689919302600068, -0.037115587582879694, -0.08598899297057466, 0.09049140281318956, -0.04003227234764798, -0.07029890658440494, 0.0534921329933468, -0.09705656982636303, -0.02540271880499452, -0.02892652079821187, -0.03355150310700827], [-0.07447822151143402, -0.14598466266019094, -0.10281193175879777, -0.1895303555141232, -0.02835058136202274, -0.09649236485846033, 0.32811515667046126, 0.09837926953940572, 0.10074365237971923, -0.004662797216951374, -0.05354217108812564, 0.04735098604598814, 0.14303807892792858, 0.0658839967597281, 0.14199208375137162, -0.1463239788738803, 0.18712070576574066, 0.03469229198023144, -0.058066906024602905, 0.08749890357541112, -0.05168386954577934, -0.24265002477307512, -0.0005866172760643306, 0.13121646947844118, 0.16637242681633266, 0.1495649903039786, -0.07173967140002929, 0.2790052549641897, 0.05297904977400381, -0.10660583063851718, 0.14541019625030258, 0.10458525761873554], [0.09858128451313042, 0.07632259981012866, -0.004306084549427077, -0.03352077903351217, -0.013776123390598732, -0.03129503482692178, -0.04829838318361629, 0.051846625935220186, -0.00730216943683881, 0.02826583567391416, -0.027328831935189993, 0.0283593831673527, -0.06236233382811118, 0.007289803199558575, 0.010363949939203622, 0.02538794849085731, 0.04204998895794772, 0.03396603966288149, -0.1067720537695304, 0.081858387556356, -0.05432803456455212, -0.06707230969260435, -0.04623936804327531, -0.045170585180498324, -0.010008361665205153, -0.007412149369193084, -0.03436264145961767, -0.025324400678923432, -0.0006674523438438233, 0.019875820574931504, 0.06667654235800786, 0.02002447442702265], [0.031947877084845734, -0.024702906257608542, -0.21285667084515078, 0.09138924331623297, 0.053692787478749865, 0.04948413147671963, -0.02965409357719217, -0.0147756616427485, -0.015596104663421189, -0.01261015966843007, 0.07983347503820365, -0.033044215881064445, -0.038768113498336365, -0.04231864317171702, -0.07281024539177794, 0.032523885598107975, 0.00911521704987984, 0.15008634038849195, 0.030117905398905156, -0.06065138310287815, -0.18381315889235053, -0.06266673764345165, -0.0024869602447156677, -0.049176020993492775, -0.027545847660111013, -0.002614371785221703, -0.0889153833612013, -0.03695868486838585, 0.0022915902971960434, 0.016575760614336316, -0.0808815085271464, 0.04260845430879855], [-0.03597427601077786, 0.014289567260047136, 0.1242143926510029, 0.14476894307416838, 0.2199498342277629, 0.12524033380628863, -0.07622444684342129, 0.043916986702152876, -0.1505622208631598, -0.04729875015084119, -0.04379825523225603, -0.041994335860554115, 0.1435241151978887, -0.0800192352332638, -0.0186303297189322, -0.16941369112135465, -0.05067459629110692, -0.0964745332933344, -0.11859446938923061, -0.0642619716513749, 0.10296524408660583, 0.09306202597135686, 0.015165487005922402, -0.06381995170225926, 0.07650286342021123, 0.022053343011386485, 0.007483047695933996, -0.06709556510161259, -0.11181475423987776, -0.11438530449284828, -0.10319080243833863, -0.12214948784847333], [-0.22931682269256676, -0.07393516055790515, -0.07753882681596197, 0.0088395723252529, -0.19309816976784624, -0.09204541255636375, 0.09569372451607504, -0.04560350028505025, 0.04896743960353246, -0.008986873454736687, -0.2360084815866244, 0.14384111469951702, 0.17716453721522968, -0.14829327469112152, 0.03172649522755438, 0.045995071078672116, -0.04028423068479015, -0.027084044739870222, -0.18451120019866601, 0.004394317943198383, 0.22268052944467256, 0.34638468894974583, 0.046933511802255586, 0.009464897761387946, -0.004596815881856278, -0.0325147592932944, -0.03361705903927412, 0.14993755672053535, 0.20197547379295888, 0.2805820208531082, 0.018051856266341502, -0.06842138774936339], [0.04648565866367792, 0.003361901819788068, -0.056862435883711114, -0.0053377552960194525, -0.0009135737916174412, -0.018273036441838843, 0.08312936579940501, -0.009390707147896712, -0.005092003099308507, -0.1075907703215564, -0.02751007970351852, -0.015859206666132233, -0.04974902426436746, 0.06602652077239614, -0.03261863662610661, 0.06222779743185961, 0.008932725043437902, 0.020802435482112407, -0.006104021817112106, -0.009798350714012848, 0.059727398994065456, -0.11655593348739673, -0.08986547517186946, -0.03537673508895648, 0.009947286755578195, 0.030691004266500815, 0.022195660313313683, -0.013454300139091943, 0.05277272134484132, 0.03363130458363881, 0.00593512583003445, 0.04537635981462013], [-0.00229828709155613, -0.035610750272634085, 0.010507831573226978, 0.012595714614680854, 0.08377542960325961, -0.034251843464145657, -0.2104479932156896, -0.15752907554496848, -0.12451312558653078, -0.05399020003060946, -0.05141705901769476, -0.018551483817893805, 0.005315855633771993, -0.11776872389148825, 0.15674620076049348, -0.009461276386090952, -0.010179539900125111, -0.04220246875587153, -0.17939258524755772, -0.10202499446618135, -0.020254130011601465, -0.03535548118706178, -0.006660687251623317, -0.11165514165341937, -0.12856424499494284, 0.03530619281878845, 0.07756369598908834, -0.15909280517371385, -0.1549931934562377, 0.1070355370930784, 0.05984386246016723, 0.097364394926625], [-0.021787799490385885, -0.06833677615090862, 0.02908508610413147, -0.01842423430230166, 0.06411446210740394, 0.00393995474580202, 0.0917177686295292, 0.08441739096555842, -0.02310337195989244, 0.0799591336353478, 0.0699838429274924, 0.08581212591968439, -0.0747326391844683, -0.025927988018445553, 0.10742552778157065, -0.057898369848125734, -0.06774150941282062, -0.03045712636861376, 0.014159038094708783, -0.0023270066964294093, -0.005221338252927435, -0.06104575272241336, -0.0405934074495206, -0.07873061376211055, 0.13988348170824058, 0.0496815203197662, 0.07366928016642715, -0.023912582599152965, -0.047308353710622204, -0.07674234964597258, -0.10705095015099904, -0.08596673035561414], [-0.19229109574033004, -0.040380587875588375, -0.20382404382471656, 0.053240148250020436, -0.10979346359169137, -0.12050407737992386, 0.07092114858817068, -0.050912346226283066, 0.004905246678593798, 0.018934826208246294, -0.008260739995458165, 0.08170193360962376, -0.04818552511109544, -0.13026552343482914, -0.13593755808805943, -0.10133809636190247, 0.04615777235340695, -0.015275954502636005, -0.08713682853728141, -0.023036357108233253, -0.050588248649269196, 0.08074862793741712, 0.04807076578547966, 0.1943654678301736, 0.08265548818856476, -0.13755107594899924, 0.0873971800796215, 0.11124706592755099, 0.15108136375447673, 0.12407441927876758, 0.11860930960199845, -0.040721282918750164], [-0.10480009092718735, -0.09961320465726244, -0.027661784951485108, -0.10668751042598955, -0.317652019496582, -0.04182116556496945, 0.21064912366399197, -0.006808369709073113, 0.07073798196142411, -0.07781548484214372, 0.03531365144302507, 0.11494135989561295, 0.11618475244027955, 0.06646987262128674, 0.19228883546989378, 0.0024938667581207575, -0.030638764881292045, -0.01770169221976616, 0.2653586198444989, 0.01259129265746804, 0.11081302556254428, 0.06129987877664782, 0.07234237140451395, 0.10936531329724403, 0.07662657057823871, 0.09332904059580838, -0.045869092763058644, 0.2696042688370935, 0.07914117058497809, 0.21481917231860018, -0.2731700890715733, -0.001341075726074193], [-0.08975150010111015, -0.13998597702391968, -0.10083618699675584, 0.04267088627201963, 0.05501875968767785, 0.10569112166178532, -0.016417444002918332, 0.035341090554055064, 0.19656475305094223, -0.004418774263811135, -0.03928160284314482, -0.027074068393196104, 0.09756476970800551, -0.1374247647556298, 0.05371203404034201, 0.00022961030954086646, 0.03346793336676324, -0.1000191645378206, 0.020511339819805005, -0.08347723431359019, -0.010828498827145398, -0.1532078825542727, 0.015161243336791768, 0.03769729571114785, -0.03047143291585742, -0.17273520530985118, -0.015706633869736905, 0.06733579728228052, -0.10023785168818847, -0.03644801735104953, -0.16702797630581628, 0.08611407078196327], [-0.03359499095270003, 0.020123478971737815, 0.028287113528016935, 0.09153485307749376, -0.010137469067726576, 0.018741538784043353, -0.0741332323785928, 0.05935657790263883, -0.03800670751808069, -0.02791800405685031, -0.001083974739733205, -0.07797750271935583, 0.011392427440536939, 0.0483082775539443, 0.014594028335596579, -0.07912054775950657, -0.006266524496695936, 0.036898509150187865, -0.09358931158046205, -0.0535008696382896, 0.04378127762814531, 0.013534610511768087, 0.020602990646589006, 0.09267074809099562, 0.02328690384882531, 0.032772613475459456, 0.13506690616966355, -0.010729418223427436, -0.039746754781554816, 0.02134206279852449, 0.021879029516379458, -0.02626276732082402], [-0.11711215312140277, 0.1288848254436561, 0.2711442027653339, 0.13852658355927142, 0.2694972053975992, 0.09397531566141917, -0.14123212654858106, 0.029111949019500503, -0.24575947503495907, -0.0192241722971892, 0.08840727315498967, -0.14735590114699576, 0.08291578324788722, -0.04624219342282993, -0.063610645191311, -0.04175778729615556, -0.14899331991813788, 0.031730888104685405, -0.27871851016774896, -0.05354765428151397, 0.04361029015665896, 0.008833416112870087, 0.09467575378097644, -0.10913042985757507, 0.17047740048096915, 0.13486127437345896, -0.20288073474504684, -0.0292167086513392, -0.11085290859397887, -0.22242480580584284, 0.010619086256959231, -0.13990648911315712], [0.1618522060408999, -0.006269286228719235, -0.0077739331585286635, 0.23417706231471913, 0.10936880917472797, -0.16574354435010838, -0.04836857532297601, 0.018290670508341184, -0.12396704789823257, 0.03250067486393778, 0.12966542826943736, -0.15973717644367727, -0.05685993395826946, -0.050943779169085275, -0.13784519428328995, 0.0962946868351472, -0.04836400798651087, -0.009983663172908271, -0.29651997067332164, 0.10114965834802904, 0.011749343877919831, 0.1678192095407175, 0.2222849214087012, -0.1645387295629209, 0.008978971000646083, -0.02661349071559281, -0.19976046565234903, -0.10035615834128317, 0.03554702834924777, -0.019068473954109804, -0.01737946872066868, 0.005458371608160146], [0.24126584467100484, -0.053177553179512144, 0.13960703730295954, 0.28873257910302924, 0.06963912417880842, 0.2215181172142533, -0.11573029317663107, -0.05092267441289399, 0.032008714502862586, 0.003680073837840265, 0.19798937591076254, -0.07176189537223837, -0.010254935365366162, 0.14516691400652962, 0.08089634528288629, 0.02677569770518313, -0.01319055916047293, -0.1401301370888671, 0.12151963175751156, 0.11749077041148995, -0.022372823794250853, 0.06670440657925578, -0.020711078621771396, -0.10867302214642498, -0.08889846700306339, -0.14357586592282606, -0.04261448299235379, -0.18615985661250528, -0.03827383617157884, -0.23730660215013016, -0.07872471901956525, 0.04440096205067159], [-0.28155615553227376, -0.06937553229430794, -0.03248961374976974, 0.029284217969473347, 0.10001399235745831, 0.19717245080096582, 0.27951491035944664, 0.1328212452852385, 0.11978799347696263, -0.12198220991041413, -0.09375307665147736, 0.08499541728740335, 0.21977794146522, -0.04459435226135265, 0.2346422175333759, -0.06340201541540469, 0.2344047881557607, -0.09966583796697889, 0.3341834514364799, 0.037165910426552706, 0.12756226929862807, -0.1909864327100204, -0.10723901591680576, 0.14908007980513163, -0.053587450634845275, -0.07176023539524681, 0.015897159278959013, 0.06856472729535387, 0.06451077873155543, -0.05856098792962674, -0.19932153334534217, 0.12475011902829991], [-0.07009305630813933, -0.1264792943513801, 0.1353291592982474, 0.0917755664480048, 0.2445692334024485, -0.027038493384064825, -0.07586755404792359, 0.06184616730264165, -0.1281528496156376, -0.013933991997006715, -0.01489817957511883, -0.015295487884412845, 0.1242155754516034, -0.0784298213303545, 0.09317337149789959, -0.13065888134863124, -0.07922329515902359, -0.08185603495121167, -0.14026522191928734, -0.0387645884847687, 0.07100255266675452, -0.08783921035335973, -0.0030749346538710147, -0.13709540423840455, 0.0021579942862053753, -0.015369437772087541, -0.023191059353652007, -0.16995135648747894, -0.1306532723621119, -0.02675903943047541, 0.10488280817637714, -0.037119319472764624], [0.15845424308565714, 0.012708667354149581, -0.1821669285809861, 0.10851592956514514, 0.11198485341019207, -0.006686264441394565, -0.052592028649548594, 0.020398054142307574, 0.030021513673439484, -0.13801686823870726, 0.06476852519177766, -0.034205089578043475, -0.08940693722773999, 0.06792660719788388, -0.08602970487568312, -0.09072262291464628, -0.0001748481751863779, -0.04619692480547057, 0.0137235714031566, -0.058598062279808766, -0.1727712000086266, 0.06283962106985991, 0.08366493757415559, -0.05663837008975285, -0.06522270966249478, 0.009211513834667274, -0.015287445311779807, -0.034581649431288185, 0.07716045760824872, -0.1330879712262454, 0.054878835274503185, -0.05203350277462818], [0.014497378095065933, -0.06595201196385392, -0.014352351828753822, 0.06644693237110605, -0.007690783315793566, 0.04337086788515124, 0.02817839461777016, 0.011722862492134252, 0.05222806791035111, -0.007669158475843082, -0.08649362128770127, -0.04063491974421179, 0.03694505262118377, 0.021126438045256293, -0.06482880781890545, -0.021343487650684154, -0.04788938664298926, -0.028525416807656724, -0.06479393049498719, -0.04063713483409351, -0.023882215186394093, 0.03248949273634166, 0.04105818743760909, -0.0032084662653697345, -0.020337711507812918, 0.01421075058145477, -0.04098664678702565, -0.043719792507653676, -0.051107090456033386, -0.032744688457824994, -0.07647076224068568, -0.0013214175980387408], [0.12031103965547567, -0.12107578694586381, -0.0753254419949203, -0.003978322406494683, 0.03129108468088413, 0.013628665738329916, -0.05298502085126986, -0.051311240226722364, 0.050470439669686375, 0.08347782550730376, -0.07635342250075759, -0.0030915633985575328, -0.009410266561972969, 0.00663998705968803, -0.042824977904576164, -0.024514975104477886, 0.08199793286204136, -0.015212851486372787, -0.1410916644031933, 0.04256845773901317, -0.15736531833116707, -0.034456627829610974, -0.08852677762419543, -0.08464811238695087, 0.0704767097180238, -0.07066791060129438, 0.033858527144225666, 0.0672490394996552, 0.03199949878198327, -0.10968735150600299, 0.10724113752124877, -0.0396249710081684], [-0.010648771728106084, 0.05570327343448037, 0.07877175213386726, -0.061417943851873005, 0.001462679109507905, 0.07674009629928547, 0.015370379137713223, 0.010845554134381612, -0.022519803295923388, -0.017763298607806056, 0.006718238448136233, -0.019618404096496254, 0.005538225668453813, 0.003792540079924362, -0.028534889342090256, 0.021052095319044065, 0.13610332359657124, -0.08811398025813369, 0.0076452827528652985, -0.043156883619435385, 0.03955821659068744, 0.0026384093788237076, 0.040713345837988496, 0.04749645541007909, 0.01079042838337279, 0.0647975631579219, -0.11301223550742026, 0.06845543983233351, 0.00791083088430226, 0.048556919542751424, -0.06765774716211267, -0.04880019999063877]], "position_embeddings": [[-0.009890498924880612, 0.010840429707642372, 0.025618799102758376, 0.040367089682579904, -0.020651292128384256, 0.02390326207572686, 0.011671830967476463, 0.01207210623742752, -0.037423812903539876, 0.00984693438733515, -0.03932910642987588, -0.006949102280480702, -0.009992603799090628, -0.015078145942215015, -0.0010925425953610744, 0.01460650470880183, 0.00987751986536029, -0.02126784721783566, -0.021216867882298054, 0.024501319096496187, 0.0060299521510686115, -0.002109586212356519, 0.008853724315771314, -0.046227682109903356, 0.022284625324922078, -0.03190221537494695, 0.00810188744494591, -0.013258730743515338, 0.04690223449292616, -0.0344925252549902, -0.012059050593609746, 0.043844020227226464], [0.01218287909861256, -0.002507310639486082, 0.024297361113337804, 0.01705927175980079, 0.020716025609788944, -0.010392483313378328, 0.009804412011583956, -0.016572861843038876, -0.004925907046236137, 0.009478439355010405, 0.005115608303590192, -0.051968930758544335, 0.03979007719715647, -0.008803850884271314, -0.013095131381353436, -0.014262232176575287, -0.01747131986039609, -0.028141806680985478, -0.02132848146383949, 0.023616415533595326, -0.01686421612376337, 0.018929949000851126, 0.003801022933084854, -0.009649959214963469, 0.011593433490247013, 0.020134292257427258, -0.017264921922503933, -0.04629601395320941, -0.0284636219087004, -0.023103252432335013, -0.03419680423774253, 0.016070037355286393], [-0.02084485985136251, 0.05979897392662206, -0.015340096655655337, 0.021930406142188524, -0.005500628247703398, -0.006432658111599192, 0.013867697246671395, -0.03144910232091777, -0.0021964689965288894, 0.03761064788147769, 0.00021992332525578093, -0.015493610210172181, 0.04128060566751741, -0.018605988640153358, -0.010633785912700726, -0.05492432490253044, 0.02496116486526114, -0.011877853554091905, -0.03086171661798765, 0.0023325226924367543, -0.015923019149768864, -0.006203052077300725, 0.025576641873492553, -0.04174544755667573, 0.036220443945909495, -0.02433133785634865, -0.01979222849413831, 0.022813579108648008, 0.021633375578258302, -0.010919491175140468, -0.028386027184517063, -0.0027554185193760204], [-0.010925055712789625, 0.012694838886670992, 0.01733050498361499, 0.018191044335733077, 0.012243839782597075, -0.025720562849746924, 0.0005243337871424077, 0.03323068447317454, -0.034125883425538, -0.004651099345225733, -0.008295837337706245, -0.01727858436830404, 0.012785753285073358, 0.014269849724487768, 0.011636209605917826, -0.03426794880893757, 0.026273306168703773, -0.025844622731568474, -0.022395122820426487, 0.006656412859312141, -0.013763154237776461, 0.02200376114245914, -0.0025697358776865897, -0.028298298361824892, 0.002106404667812113, -0.008086076127550718, 0.014240373212527203, -0.003623467760870657, 0.0325180120447541, 0.03248970560696834, -0.029794446493146515, 0.009163503899609052], [-0.03601880838288681, -0.004503923898010819, 0.00694029505542427, -0.0032529680830805335, -0.006416320288186382, 0.0008639146740271633, -0.011935680979829019, 0.030511852655146565, -0.02572682537414075, 0.057064601257230584, 0.0005388302846595668, -0.018831831838552776, -0.00703169290950674, 0.017755768798127146, 0.02400752334559643, -0.003319816607285301, -0.013967193430317928, -0.00504875655452376, -0.03253401107967792, 0.029019219361535356, 0.011692962926492082, 0.008249282586874566, -0.03451989519509034, -0.03385210794686877, 0.02793732095930896, 0.026208744701295066, 0.01565011819115959, -0.04835358674748352, 0.006373371446915685, 0.008962103314886968, -0.04215171801503394, 0.008649732403747869], [-0.006681349073051702, 0.005981138323359241, -0.01741381560043723, 0.010721855452463005, 0.008949630112925011, 0.0002791740341372916, -0.0006529141320445853, 0.006591089187943334, -0.007330736502891633, 0.009149513239366944, 0.002882413372440752, -0.027723172248472268, 0.02246757670708176, -0.0540846015736693, 0.010828444475994554, -0.009161170431882242, 0.013187235367158615, 0.010290335375603175, -0.049245479826840376, -0.039457066269543775, 0.0010734083629488017, 0.00456308990350696, 0.016454245829783658, -0.024078295492180924, 0.02774921953543321, 0.02224501768467238, 0.002507481993364875, -0.020452344887059135, -0.04303464618371923, 0.0022503810836509057, 0.014698178331025803, 0.020900182818766745], [-0.028024910011935345, 0.02608318216738728, 0.03724207393134103, 0.04772867097912351, -0.0008456645666723514, -0.0012628483600596915, 0.02483665318735889, 0.015790372082940034, -0.029339298595264914, 0.008320319938102907, 0.020106135554142777, -0.017715362587764405, 0.02398197374893983, -0.01973944117187298, 0.030950425985288795, -0.02624226341503254, -5.869872078863135e-05, -0.007735293581461778, 0.006781854994535266, -0.03037843978400491, -0.030565963548595542, -0.0355975554822276, 0.014437716462889305, -0.03689973753865682, 0.006741864182122901, 0.017496080576848805, -0.01909028613180711, -0.009813104314928486, -0.007124191331103043, 8.659184929779841e-05, -0.0002619988633551569, -0.006044044256966001], [-0.015042599084970746, 0.03346498446044341, 0.026460566106022487, -0.009826088197586597, 0.030368309567110598, -0.01875949881024853, 0.039956670708648855, 0.034166147542128274, -0.00015386480291097797, 0.002454595813261317, 0.004418166818857078, -0.006413747564509094, 0.01309999863738635, -0.010596355005805634, 0.018322780586155895, -0.020042198810504255, -0.0003182356447783873, -0.03433034124029266, -0.03210157781313548, -0.03561800304371048, 0.010514427767734778, 0.03999311806840434, 0.04229893187149927, -0.048215307895435315, 0.02885226232533269, 0.03239099649837249, -0.015710718656899592, -0.013531174774961735, -0.04195973868691874, -0.0070160471091909645, -0.030782820659007032, 0.011958542633389083], [-0.0427834309299503, 0.02206083010467677, 0.039705218097337826, 0.0007520601754905054, -0.007579248917842202, -0.03902607114609246, 0.004536889811600731, 0.004077699386047565, -0.03829568812546495, 0.009836055225026093, 0.00014773546780488334, -0.04166262992006404, 0.008889586599624959, 0.005860371930652364, 0.013755332034274025, -0.010671554395380835, 0.025130633322688854, -0.03171138172572434, -0.009087677895487818, 0.0020135563512180526, -0.013262692551807453, 0.014169712502269654, -0.0017213195541365136, -0.004090695582879465, 0.025212507149372444, -0.05499065456321682, 0.017717241535389994, -0.07577626210111706, -0.013046342903919829, 0.007131712628589641, -0.01603200763728925, -0.0214487314258273], [-0.03440525822471345, 0.031300906437897305, -0.018122310352313833, 0.03892274582884908, 0.013270103292259798, -0.019297014439730403, -0.00023214895643530953, -0.005406481178247785, 0.009014384442122486, 0.01598272472550416, -0.025074080099619728, -0.02945047316098765, 0.0010100260350523165, 0.00877062974908112, -0.024546335201556236, 0.023502911579155867, 0.012432196144665439, -0.03225374056765351, -0.022347369836248396, -0.016926129510216596, -0.029474018473907036, 0.007115666954600973, -0.010342006366512264, -0.056048453173476426, 0.005946109677466759, -0.033162902678316425, -0.02095045675452715, -0.03322303556355001, -0.01779921142552236, 0.028407081086289514, -0.009423253699096646, 0.013015612606823275], [-0.04834686656531988, -0.0016226202884024538, 0.02562274468816159, -0.003477884548040946, 0.03257192438232533, -0.019921922498280255, 0.00604473246432944, 0.0038723470432632666, -0.005785217293995476, -0.012168448190741683, 0.0026430175819611764, -0.02627840044417359, 0.0011676216485908696, -0.006122872887911256, 0.007106728478474449, -0.010637256128055238, 0.0037806698475734875, 0.007520503239417198, -0.014484519582821192, -0.006608392831100992, -0.002717064468941716, 0.03859608354852705, -0.013089040781080046, 0.002732024502557387, -0.024049289508144646, 0.008255440016998317, 0.026348941470468016, -0.005626212571593062, 0.0031892704502657497, -0.022831009433371262, -0.00954866970275852, 0.003258797053295582], [-0.00023219378717658407, -0.3742937423728923, -0.03765432439546077, 0.18827277394981856, 0.06006646877890828, 0.008502639137927533, -0.08839080213077985, -0.13823987418867947, -0.0761570429836351, -0.19445037052722258, -0.09715231116621299, 0.02175921757535761, 0.11560624081563493, -0.0617538369657303, -0.040258935204792186, -0.19298885334573407, 0.1469236934978801, 0.09612048755642799, -0.0019237286602858381, -0.14399511324512038, -0.167837682851905, 0.26030657510101046, 0.1768875596166926, -0.2011971730726645, 0.11369319312903726, -0.0581206520726675, -0.09528696943319619, -0.05189762588081475, 0.05290062584253659, 0.01865665253719729, -0.1661441526551205, -0.01979275487575048]], "q_proj": [[-0.004365712297052922, -0.11634886965098347, 0.10251476513336574, 0.0842582365661193, 0.0027215901486675456, -0.13873038894330086, 0.02313514486788082, -0.012556148318545636, -0.2346376938651209, -0.2594703940205667, 0.09926043898320519, -0.45889269931067145, 0.03619920868015196, -0.08420729972244284, 0.23040126927412855, -0.08705421003211025, 0.11609240740911111, -0.07004486740090486, 0.020054994559681873, 0.12975287748726638, -0.08123748194951641, 0.17536455869140674, -0.17503260149997205, 0.05194338555129381, 0.16305103332314214, 0.11609063704103487, 0.3379933812634099, -0.13454026979697753, -0.24352472993974839, -0.17513597018565685, 0.11647641848621736, 0.087436066798356], [0.018295536056906085, -0.19759861916740964, 0.13470527118396589, -0.21577815357342783, 0.20444705873132119, 0.5039288704648937, 0.06487343875524702, 0.10274364753028296, -0.08682989661754742, -0.3186330153900029, -0.1062160055543403, -0.19299766613812444, -0.2547421165713993, 0.3035734537743514, 0.04808750822713706, 0.06660641653798727, -0.05455707708999935, -0.03054854569947098, 0.17047045167323022, -0.005994396736420772, 0.09310083288196506, -0.03472229762202474, -0.06025370381040143, -0.24858008741149407, -0.3484120333102166, -0.04628200735958177, 0.010103598584615034, -0.226390024452387, -0.006388346333270453, 0.009104371225694156, -0.3798931829565537, -0.16106939641742515], [0.07193282526051388, 0.06828976158795286, -0.20316529267944272, 0.028075033729363867, 0.18016269176027505, 0.1370941666083354, -0.016566377708788486, -0.08264879972185646, -0.11109769023282688, 0.0823903717250945, 0.03458439844658579, 0.11113966000416144, 0.023279505941635747, 0.14408162825114734, 0.016699518298587148, 0.13841851461526966, 0.1534868214654915, -0.1418765546733389, -0.31874756061572823, 0.27206148278055403, 0.045464792826566985, -0.3020283325089592, -0.12596860343979296, 0.1359233908885024, -0.04952598271157487, -0.09020546710054299, 0.24682028266645217, -0.18443469215264832, -0.14044767194525684, 0.03704638914939554, 0.0688703535468016, 0.08764317744839588], [0.16115654923301648, 0.03488356816483965, 0.08663062035004118, -0.0452258938526667, 0.011077567710448207, 0.01923973921493179, 0.038180834594886165, 0.13568100070494168, 0.09798290443578987, 0.007400408559727845, -0.1427345101926213, 0.012054746200934848, -0.005026933611898369, 0.033917818877119296, 0.38869444816517645, -0.0918548733557068, 0.07456066001678514, 0.18817436648674207, 0.017151704056921235, 0.41227212546921127, -0.06565629385454007, 0.05701551267411001, -0.1415448501836972, -0.06145669404371562, 0.044164900945973605, 0.14921562357368473, 0.05634539657381508, 0.22173270241655638, -0.016939150815356633, -0.05830084169351419, 0.4765587957061416, 0.06918912605530303], [-0.12608826419079186, -0.12223203096874911, -0.1660660692767409, 0.16548046317594936, -0.06416965330727747, 0.02302546235338582, -0.010858452890066695, 0.12856501813985857, -0.14890826267736687, -0.18984103016857742, 0.03929359371619624, 0.1058216392789494, 0.058450130021456034, -0.1427866039361752, 0.11921622898040654, -0.13100659706569293, -0.09160976557070556, -0.16639313330791794, 0.2293490214332752, 0.11199011915954632, 0.10766545811709849, 0.21972929381068468, 0.49452510516313686, -0.3007025867595745, -0.12984093706838706, -0.10887935219848857, -0.14967271528232406, -0.18987417701284418, -0.05310283203051689, -0.21432816624863277, 0.05901623692788046, 0.00893252942576781], [0.08493093198153186, 0.08950435730622495, 0.10628207146798747, -0.06569407858337221, 0.373788763338221, 0.041414929896466654, -0.3280480126677229, -0.1767742805922088, -0.30660252530309995, 0.00306389095865684, -0.021541666475652435, -0.0825427277192599, 0.35430906276871377, 0.09668380762246692, 0.12796084616140954, -0.16415499319768995, -0.17609975571830344, 0.006560211505092902, 0.03050826707976418, -0.32713837308024973, -0.031978809239181685, 0.0023536417722080302, -0.03814033092318164, -0.14355851271188813, -0.09512103652696925, -0.031045802703370283, 0.015974466247940914, 0.10659507814127768, 0.19053759815110044, -0.051884105441041425, -0.0802180993136287, 0.07715432625850634], [0.10690526689736228, -0.07652001787286615, 0.13914249551872673, 0.17218704805922874, 0.22756081853616278, 0.31282146762067237, -0.1530563568589522, 0.002849357949567802, 0.001813951795118005, -0.017041193211361258, -0.11433614674546613, -0.2618187729423737, 0.01633118408404289, -0.13531296057321734, 0.01522454549163268, -0.1402970802498358, -0.19390564560110643, 0.04143937823507722, 0.026812858948626533, 0.1019425947166352, 0.3846895468296069, 0.04886117524296835, 0.08573857261036616, -0.19012844347462043, -0.22715912856516615, 0.279089776665045, -0.16304298391282313, -0.18391826692653, -0.006471628224229624, -0.016017007497620733, -0.15903719511790443, -0.05344564279595953], [0.21654445511453427, -0.1419103751467497, -0.24577546675130865, 0.16599895418671493, 0.08676619577511627, -0.1092984113321066, -0.27878307473040775, -0.1311153350744229, -0.009726470093389979, 0.20556760151166334, -0.18260656225391478, -0.01492312866659912, 0.11902662333845945, -0.419625055367008, 0.18219804417605684, -0.20851752476543872, 0.05847151095360142, 0.043446807643743666, 0.19123709485547633, 0.0969711778300051, -0.4191474697131224, -0.13831605685005402, 0.024361467442385952, -0.0346144585499213, 0.08395079876583242, 0.13907780412468695, 0.10713073118986134, -0.03762805003910177, -0.32520648262324153, -0.08046351769603458, 0.07337264946906194, -0.191905999469708], [0.11084387266347927, 0.1600598479144861, 0.022086695567079238, -0.5402510993337564, -0.2252103349015382, 0.3321186659293858, -0.09655886155811122, -0.3493249039107754, 0.21770469410848717, 0.002599878709444975, 0.19466366232356344, 0.048671917720551634, 0.08083520712710046, 0.06408882649131473, 0.12299296478666367, 0.40101189186912345, 0.1708561709157864, -0.2783377193101875, 0.07879787242754153, 0.2007685847061634, 0.2107979787463378, -0.0753300046824036, 0.20598905085687463, 0.16301098574314618, 0.45326236723670404, -0.13210106093670335, -0.08952881888308863, -0.053907836509076434, -0.08632585832871455, -0.15685292416330077, -0.4867782838658266, -0.07651545934851563], [0.06508366589748364, -0.08679270832655427, 0.3407875413606738, 0.0022317568609118987, 0.22755978048843942, 0.046194694568967444, 0.1456708564240097, 0.04931678965494625, 0.24106774967143996, 0.010113767739530488, 0.08754620450317407, 0.06438400812526851, -0.05061585577006427, 0.07145805026293607, 0.3937668109309715, -0.04776427877013979, 0.07377423896909986, 0.22153398585521789, 0.2011114689954675, 0.0017878902348001547, -0.42039327663286336, 0.0909408045683117, -0.3906796166774564, 0.258646941339919, 0.02988442040892595, 0.17598922304622064, -0.15891193579423116, -0.2734547842895262, 0.04584008354508473, -0.006063565097323903, -0.08670012149991667, 0.015026590230836478], [0.48810802761957345, 0.147098391999913, 0.18498527688407493, 0.1489743310200774, 0.26086126307408863, -0.0331661410559379, -0.36184997675231123, -0.0334596371248719, 0.1432733352341104, -0.1709331926592056, -0.031361852802604236, -0.12231241304796982, 0.26472852608251524, 0.13209285522147926, 0.11467510108008137, 0.10939576443747484, -0.006587474900153007, 0.03475444009880374, -0.20866702155163364, -0.38526140186466923, 0.026937815690202437, 0.05694780955704696, 0.2127811904962124, 0.2769400897804622, 0.27690806623344155, -0.1758559266225848, -0.06192730028999689, 0.08462999264564076, 0.44587723378891747, 0.2607541016962399, 0.19734404152105287, -0.06841657096365049], [-0.15607456270196593, 0.13898292665126635, -0.19402641234477294, -0.042272339708437204, -0.020270760144935476, 0.28030824487402445, -0.06271827478161694, -0.42960236524501816, 0.08887703352473561, -0.12309173349468744, 0.0075431461563507125, -0.015198668312527981, -0.04823203895630541, 0.1393137285794619, -0.2700444479329081, -0.09112965570627342, 0.12051824855780177, -0.10807061600701136, -0.2834276802036453, 0.1177574250263583, 0.19754609508399457, -0.007900229701147057, -0.3453805316344814, 0.12429363105759787, -0.2925649339298584, 0.05451720717013638, -0.15647303686998346, -0.2044168664027441, -0.07778703247707712, -0.03228219900392291, -0.11355357332715184, 0.10376496700096415], [-0.07892475347911569, 0.1726365392812671, 0.049788594359598336, -0.12298852278719866, -0.15276073009354935, -0.29063627029012956, 0.051101431086192105, -0.062455813031280845, -0.41826650185400566, -0.09448084290354411, -0.15852333067322585, 0.27814463407362494, -0.3002002852825123, -0.2541065392048074, 0.19570209943623737, 0.2392085170578601, -0.1311491396900735, -0.11135299604370553, 0.10841980563062228, -0.40985786173839345, -0.327650977477566, -0.049291205299271335, 0.2727808378653142, -0.076546164655883, 0.017382276609401583, 0.1999386843201631, 0.37099664939372545, -0.10164893082346205, -0.0024693166082527763, 0.3211293546915801, -0.2682531232372121, 0.18124397129096909], [-0.17940758117464253, 0.01810743852972089, -0.04280462175146289, -0.1688209747606581, -0.17320416468185038, 0.048772130304581565, 0.17551754159902216, -0.02290087143482873, 0.012430358310153738, 0.10071977981605251, -0.17133692668790318, 0.13018567343283394, 0.14437385395323182, 0.4588137032112529, -0.06629392722420613, -0.08095503862824546, 0.13535663329102804, 0.14427575923870203, -0.09432208391024145, -0.07123303718268235, 0.09507848340619214, -0.14592002417670302, -0.07195141536106112, 0.015546340967516422, 0.1754967641087592, -0.10655866199916007, -0.3246497946962125, -0.3376811589642131, -0.22195253363405928, -0.2314695596495745, -0.027142058172118635, -0.2094597095995147], [-0.12424928253146719, -0.13640424641267346, -0.07763626847473565, 0.23280167575756194, 0.11652863249260438, 0.002576751647882619, -0.08139587078928334, -0.07617415309433627, 0.05744099958672305, 0.10307298482855926, -0.15971035136788236, 0.006778908854762509, -0.3580657032476421, 0.037206585005216425, 0.13446861681905192, -0.04954633314773535, 0.31999447259390806, -0.15527725164415193, 0.038083669173199705, -0.0064722885930632796, -0.01823112162131176, -0.02003066567570995, 0.019328810019467256, 0.14906849751718051, 0.24222374157893725, -0.0001835457481023063, 0.14339213314374624, -0.12358184390963048, 0.13557807759103685, -0.13442054913859247, 0.19232019245924334, 0.3898760274271553], [-0.021350238593101232, -0.38634490381388975, -0.09667413689389709, 0.2170911655992077, 0.09757258831642597, 0.044053219370173764, 0.17783365263580153, 0.08529480264543692, 0.21450674909543505, 0.16227015895112143, 0.2682380822055441, 0.06304541837371416, 0.15969609132822152, -0.05404145973596491, -0.10593111629339412, 0.3007168957029961, 0.03796692766672776, 0.14177567666876384, 0.02202331149854684, -0.10357866838814989, 0.0015860736239386919, 0.25297130778170834, 0.09815044347493887, -0.3020084802154634, -0.03803385297388791, 0.314222223378736, -0.03774102294744335, -0.3171938218677596, 0.3336632053553123, 0.12010406530924182, -0.0122560673204827, -0.06531874969875044], [0.19042627463753856, -0.09555289820108047, 0.20224257823931094, 0.09530134850459646, 0.042963355736685645, 0.025489466554216578, -0.03112665524282793, 0.18449167791382148, -0.15244594147578186, -0.2859096994195012, 0.10816795194823729, 0.11133237830056321, 0.08448872372293964, 0.07189141725909945, -0.05649596377082415, 0.1386880191378575, -0.008063972284395284, -0.08570321823114069, -0.05524456597131381, 0.3560555956889919, -0.30613738946780295, 0.08808669154148004, -0.29562494802490824, -0.018960965491925736, -0.0763904057145535, -0.3675669214896773, 0.06853421157893815, -0.06704783443909268, -0.36987713878262446, 0.14811374719872816, 0.2528461392367566, 0.26249707319312443], [0.06335443917845439, 0.008010932002249645, 0.2341949508017318, 0.2965741312587682, 0.19973261744927484, -0.1659345765190927, 0.03544784108402181, 0.07735664691267886, -0.31866444870547006, 0.08256967970167073, 0.40036543746149694, 0.11260323484825303, 0.2595172440414293, 0.03228784199599188, -0.012982887274910135, 0.06712218698227791, -0.1436449548360783, -0.1697948249624214, 0.22312414798854732, 0.24196182203237626, -0.1742708892238899, 0.17062368727724625, -0.01546208728120737, 0.06018874386579052, 0.08136236371796908, 0.1751790084290765, 0.014741927664550217, 0.2483363123717226, 0.05424653850334801, 0.11006930009120104, -0.14689629485505185, 0.38020439791136157], [0.08251228230211687, 0.12559978520162554, -0.2836036335473702, -0.14525498268439097, 0.2181189438905052, 0.05039560944982956, -0.3374258700738612, 0.1831206979281873, -0.0956453974547324, 0.24892181541906658, -0.015747788589497855, 0.0358990787615843, 0.20769703299611506, -0.15801264647997904, -0.17485401171920079, -0.03504863807855974, 0.1454892318709383, -0.23430655996721994, -0.29409006094090256, 0.1447419690721854, -0.10782534043878989, -0.0692528424390601, -0.3263279860063804, -0.12027746001202298, -0.0015755673422736284, 0.16435090871457714, -0.136087444853684, 0.29201842935864164, -0.12038208373938328, -0.12045725318881752, 0.2711954476960361, 0.037417618283577946], [-0.09749522783208162, -0.02724134052093424, 0.23823913953607007, 0.2581413092593763, -0.14392568916819115, -0.007515100410082861, 0.01583161420594026, -0.17360214953190511, -0.010067268587508562, 0.0011378438696943126, 0.20108736720285955, 0.2127610258050697, -0.05788955389382753, -0.03767559351625698, 0.11713169521182785, -0.10325006494086585, 0.10349480602284013, -0.015572330324868391, -0.17086323395212955, -0.16886733170964577, 0.2544874781633777, -0.02761669926599143, 0.2896049736338117, -0.09086782151401707, 0.05109815076756334, 0.4216330289570343, -0.18648565503772235, -0.3343128843562797, 0.22691778458484993, -0.1458656011522636, -0.003603057845370782, -0.10304089071392479], [0.04686121543380817, -0.1674680525899693, -0.03172063046896862, 0.07907302891328064, -0.17770067369034798, -0.12363457450474578, -0.061266944160880805, -0.2516497032873748, -0.07491728127222388, 0.021211103198367963, -0.06996635144827307, -0.04751162511273893, -0.003346114729437024, -0.11561130944643087, 0.1219612065453944, 0.2531113567314765, -0.08188836418627463, 0.08547261026093461, -0.042096139612205194, 0.0643128819500229, 0.27562568084700406, 0.0897334910806246, -0.31244109813467774, 0.07956663234114962, 0.21664694059153897, -0.038730601535543134, 0.17508284151577244, -0.12144891245549556, -0.26118465660369217, 0.02461094182446844, -0.30946258151414646, -0.04181404304910918], [0.22693195331195176, -0.33690867148878995, -0.22463988112603797, -0.18145234622480244, -0.011168975510496946, -0.0647755643116541, 0.24664609527691017, 0.1677336524235135, 0.0872051085174645, 0.025502794974709836, 0.06947660188187756, -0.15151050036547856, 0.15107335567338565, -0.19596119065090084, 0.14724176554657356, 0.20974142365605217, 0.037294889568749504, -0.031120504090807386, 0.07036121027625485, -0.503856417738334, 0.05433239804801659, -0.01982115887247225, -0.009381744645073945, 0.12510307576269017, -0.013095512374546928, -0.20028383013512946, -0.02508210227815487, 0.01156023524816386, 0.020353219037288997, 0.028784496516958833, 0.18321039901142547, -0.19162219654171528], [0.031203857743273698, 0.2270849057212382, -0.3051852115741734, 0.031971541535872804, -0.10318292133890596, -0.06536977699504101, -0.15939747487107228, -0.030152896309556233, 0.3245323828420161, -0.2230386562722685, -0.2061368138150821, -0.2293720151418663, 0.30429986755372945, -0.08149611348525337, -0.004586826879094467, -0.0707472595055712, -0.16626229636752404, -0.04148473775072518, 0.43308402325395934, 0.24564177976304633, -0.14932780768971865, 0.1142107312952727, -0.14703728519392212, -0.3124055545911621, 0.17974019902377475, 0.20471306054475083, 0.1842705702396034, -0.08301003611986026, -0.02934435624097646, 0.13232449972905225, 0.06898968811977897, -0.06954346748787532], [-0.2860671718020319, 0.02022729011117455, 0.18965198999037036, -0.21159835824399856, 0.11256721538222422, 0.058007171800480956, 0.13185588805169904, 0.15421526694271454, -0.12257318708680257, -0.2846184077620004, -0.09388868004675362, 0.15657369463569015, -0.09535581430585571, -0.12219734695109843, -0.32084784256943866, 0.3085268029196562, 0.14528584980707623, 0.13583636689242692, 0.17072951072657627, 0.10130228444963169, -0.04415234863440984, -0.028912383971857948, -0.0747810989834303, 0.4637029626271608, 0.09774288688111638, -0.08186050470689124, 0.08190745878931768, -0.1779366203952906, 0.26522322246819985, -0.11671669069891946, 0.08823731787052978, 0.18814232188143729], [0.06759253562379199, 0.016612381443028287, 0.0020757256878989236, -0.009957246785758567, -0.10171452062449556, -0.07947491266581025, 0.2606038242822682, -0.019058448586859338, -0.1383758434358509, -0.09122392290174906, 0.19380422270331427, 0.1190358138332793, 0.09860061686933677, -0.045436942513926645, 0.10092064200298378, -0.11337043018843575, -0.04557917917607089, 0.1709218150995714, 0.15401044345645332, -0.1727595439155195, -0.15002207125239753, 0.019238137233374746, 0.3037026783707158, -0.3370214322412734, 0.0492366454567236, -0.24259416361422662, -0.11168294963842039, -0.06434653868422958, -0.07427080837137104, -0.0939683369196065, 0.0011178548399293964, -0.0944320097216536], [-0.2578032887955981, 0.1375159221177964, 0.13265490451979572, 0.14857363163843462, -0.27151015194432476, 0.05263951638735472, 0.11914728371021174, -0.18167660120515322, 0.001606584139525851, -0.020442168978089134, 0.3246087144180592, 0.3391157680289612, -0.29335350373010527, 0.4394256862555294, -0.16128970727738123, 0.17261505004831554, 0.1710903053843426, -0.17546655794261656, 0.08692250847066314, -0.018903249957806133, 0.09776408887958567, 0.0407652092270367, 0.210834413015516, 0.013330784941733738, -0.029612175712046267, 0.19296017874791022, 0.10233476078274334, 0.12903375350017368, -0.11717989175108634, -0.1843559983115993, -0.10007317703121298, -0.10930518126533463], [0.13828614917434115, 0.17212907986152137, -0.02781767809842206, 0.2517988825868965, 0.2411926766591337, 0.04287594058485781, -0.1449415399000672, 0.27793669045083036, -0.010842122592621748, 0.02244826619126315, -0.05977921661664601, -0.1568413063242118, -0.2586302146889472, 0.11162005087944435, -0.1379499210290546, 0.5390875763619569, -0.19157742014972143, -0.22150702008034684, 0.08991285630783316, 0.2691425796991716, 0.010311596654540492, 0.10073415400821968, -0.3241949504007521, -0.11990615813061663, -0.18915706040479896, -0.3341216526071043, 0.020679386127955838, -0.39508590310554215, -0.23312954648006357, -0.09473501544598026, -0.14650057361488705, 0.06987138571840283], [0.053325553802252935, 0.15745591434107079, 0.13257874103439488, 0.200788144647974, -0.00037408770886368303, 0.05296508870769263, 0.08985915799570819, 0.025220430431245753, -0.06997662841605175, -0.05846140289920306, -0.14405319621537682, 0.07415197230141872, -0.016608445922363695, -0.11679229101390323, -0.11667535304506409, -0.21357548926450884, 0.17251499330351336, 0.01399391666170608, -0.15165404614035027, 0.1425057235270575, -0.09863215553562714, -0.24787074226515465, 0.17969121413861805, -0.09454798136382403, -0.07215915600933141, 0.007287460863809146, 0.20117925959843583, 0.0035352393957054215, -0.21111989791210697, 0.0959109364088891, -0.08555904729585016, 0.33276669601283193], [-0.0005203326504899981, -0.39398259162591565, 0.06315929323563454, 0.3425840209870391, 0.2776831496816886, 0.32221315220473157, -0.17984228260496413, 0.16079455606100124, -0.12727470311899605, 0.03959223868987343, -0.22424145028176617, -0.1134773606023102, -0.11912852779188854, 0.15842774310674113, 0.14113011942399012, 0.0489646762483747, -0.23797993818523194, -0.054885529744547676, -0.13134021574300458, 0.1532734506405253, 0.20765538914318968, 0.18609532435007578, -0.13311283345546207, -0.4825979150129016, -0.3113188357772543, 0.250702985973164, -0.07084882817597926, -0.13240660682125585, 0.28950258997962136, 0.22308401354833485, 0.004273169324981693, -0.051782833795653536], [-0.023805425524487254, 0.03986062280017074, 0.28207225601900343, 0.07422643326599172, 0.12786471001395436, 0.20560365157535063, -0.2064031468369901, 0.133164509854686, -0.052215425866049485, -0.4431340871656582, -0.37470524250842036, -0.17913266206788864, 0.09374169233666113, 0.020182144307482677, 0.03262680155289427, 0.3441088718012884, -0.22368146069848344, -0.004750323716012368, 0.053553104962192045, -0.12981164556187458, 0.004426478313510805, -0.28174713116593375, 0.24910713808765414, -0.12024002346757896, 0.3577032230619476, -0.005460251339301592, 0.1809568516396424, -0.009408100453874057, -0.005132942579418109, -0.10290632158180357, 0.020926330329587566, 0.056121646519581826], [-0.13830869614789326, -0.021822629862341476, -0.10789695743253777, 0.40504383393991955, -0.01576183027224316, 0.2724210684773525, -0.03444462436837294, 0.045914892258952046, -0.23294849532664655, -0.07863216393460377, 0.03721246880649151, 0.27936333332405777, 0.03925479830294224, 0.24388797235738388, 0.11287162054332125, 0.28671078295532215, -0.010495312962285251, 0.4210881835347271, -0.0854336381000952, -0.13525257487670644, -0.2135172609003738, 0.41074137406757505, 0.14484533512549827, -0.05907542443864276, 0.22031375116741286, 0.12063052065121475, 0.34665013663833405, -0.27257410701299073, -0.04712118033448516, -0.08161256760506788, -0.3479887038414145, 0.1868333783667444], [-0.04784797683209416, 0.1303488857072214, 0.41562586261053547, -0.06249470843046761, -0.07427874209287735, 0.020923100359057516, 0.1737872363351117, -0.09966369240725162, -0.11135373353629165, 0.18636075080218492, 0.06678487408776136, -0.36022963800601876, -0.21596024136066314, 0.26457477010521224, 0.07087769312394454, -0.1345009968521732, -0.030201315306975413, 0.0023501970323991307, 0.12935713725649547, -0.23957983571937594, -0.1489837197742388, 0.04814311029053631, -0.01685227674060058, 0.10046729093509885, -0.2168624398277166, 0.06283243359571632, 0.19227037429036148, 0.08586430157384832, 0.0247099334212312, -0.016956506561832743, -0.1470472812372708, -0.012561077809903036]], "k_proj": [[0.2221547142423862, -0.021055663677550636, -0.1571435330818773, -0.08690011257269903, 0.03525925443961794, -0.06616870961188083, 0.08554128775307024, 0.09219670339351592, 0.15675495270352197, 0.2506991339073781, 0.1753881573681912, -0.16452498972670393, -0.1597091640521053, -0.01302997769816797, -0.07945476627825947, -0.19996983537918525, -0.07781436482739747, -0.0834306813533291, -0.11837991716143512, -0.05606084748971509, 0.20762828453609633, 0.03498008735857442, 0.43552800773185557, 0.030233821597471386, -0.05109786145411398, 0.00018694677958149255, 0.0449773515658495, 0.07725874777880516, 0.366054700010189, -0.14915741244012615, 0.1522578363716409, 0.036074192188153456], [-0.2769669153348084, 0.13594789829560075, 0.22342091715570017, -0.15113608484541632, -0.0017422018165513357, -0.30402052058241275, -0.2218690933366986, 0.18448170152163024, -0.0822297757932323, -0.1953359293432184, 0.04080152266726292, -0.0921840224976126, -0.08267314960106205, 0.130540411541988, -0.20500562708375716, -0.15997329595889695, 0.02708707364220898, 0.17080218737443462, 0.21818236751264794, -0.117007850455961, 0.16503919314484972, -0.1381535445237369, 0.32165621938794725, -0.19977153310990978, 0.2340169520237408, -0.11579943618519996, 0.35489330632732213, 0.10387373379141628, -0.17915575229759498, -0.09232833808574915, 0.13733772083391177, 0.1854783264617285], [-0.01235269402465868, 0.007758311402597213, 0.13354842392586183, 0.023292819879663532, -0.22803221257023604, -0.14338213175561054, 0.04150600374981862, 0.21414415003826923, 0.28451263240192226, 0.13758120967095716, 0.05069550186027332, 0.13216923581553067, -0.11744779380067656, -0.027149742673372272, -0.14542748017130297, -0.2206626778974342, 0.05849907497783008, 0.03297993962717744, 0.12148611345666363, 0.09627325544045223, 0.042764439946652986, 0.09828417582779514, -0.006927145595332033, 0.07220787763445567, -0.1281004324530651, 0.06515097275670936, 0.11785479662065318, -0.11770733673633182, 0.009006084511142168, -0.10963250003447327, -0.09258108384985607, -0.19783219039181954], [0.2234375700995756, 0.18758456947898222, 0.09408501700660754, 0.3474367795371117, -0.033621897374920565, 0.5333877578303589, -0.03983424194981115, 0.045170481220187866, -0.0700624516085162, 0.06560686122286749, 0.14685813837677977, -0.01986073598136476, 0.3125798780230968, 0.04191136352918305, 0.04778262591765705, -0.1596800124768325, 0.0734900827480201, -0.023118362036310246, -0.10676062518241966, -0.13729787828930487, 0.4709080482802935, -0.046201372881295, -0.25594898478557754, -0.12348490113340636, -0.00923033822346664, 0.09600845543712846, 0.09731983116758638, 0.11963979207839488, -0.11337859790571347, 0.059896589042872886, -0.1537466255433431, -0.10964257989320594], [-0.1613218891545459, -0.20968443349035282, 0.18682097851459722, 0.12127434013915533, 0.171845574170646, 0.006106210150050957, 0.13715903101469887, -0.3101805254818176, 0.15188687837283474, 0.031354129271092906, 0.11029246508381486, 0.06735748311087347, -0.1744236484455947, -0.26411434565463443, -0.12541155826380673, 0.09950194659995376, 0.1210472070046831, -0.24072229382834834, -0.17228922727353843, -0.12799653064711772, -0.063158884674134, -0.23996637274582241, -0.2495834535064412, -0.14550903611677074, 0.015056945751224437, -0.2086125369781657, -0.02075019844538108, 0.18723123452728263, -0.22944365373393044, -0.03652812584615616, 0.18148219394235898, -0.07391621853229745], [-0.10105344980749485, 0.20503771725479042, -0.05396461684875253, 0.19460386891176967, 0.07555763202027255, -0.060484316389834404, 0.08456777001221578, 0.05654150127279863, 0.17985990412614947, -0.09651784077740967, 0.007164402509669718, -0.01070012058665426, 0.12372550863385595, -0.1806150431032679, 0.17910728584546687, 0.08236577803991789, -0.23213155019130158, 0.21304900549759814, 0.39372139428969466, 0.17647096514937202, 0.2517524199411589, 0.014920974317428198, -0.29259070970500695, -0.3251033747166835, 0.04486170644685393, -0.10426235765243429, -0.16130051242695015, -0.010983736746977646, 0.10856429027179841, -0.2560323323617128, -0.07891494420533414, 0.26596719173719907], [-0.18981491771898376, 0.15334313912986391, -0.08492223528749374, 0.09624880572022637, 0.19371785584957288, 0.1314459275935786, 0.16001205996711548, -0.20310243865694677, 0.1963708261120562, -0.15047660327580203, 0.046214497817778866, 0.045185125009558395, 0.08629125127632847, 0.05956415061676186, -0.14869666256613087, -0.23841647779502087, 0.1539202478404946, 0.032399203498366544, 0.20227212207695675, -0.007443518145323951, -0.247513950488598, 0.1700674508529619, -0.06578646412764672, 0.060580212891940474, -0.1138853255160983, 0.290278282258809, -0.15421363181356837, -0.0604994677858983, 0.018997364496424262, -0.19270589665829063, 0.057035445416066324, 0.28403357277870755], [-0.08650544876870479, 0.06961531915406984, -0.4843110309449361, -0.006861321106221404, -0.05502060243566063, -0.14387877303068272, 0.19045251502827812, -0.05760637082399026, -0.03128009454102571, -0.06640716426148108, -0.3375002529186054, -0.19961461425418162, 0.16973864046872236, -0.3716892947720734, -0.13516310350998148, -0.07087338032224005, 0.3073102247955318, 0.1354807484345004, -0.09823785634490509, 0.2301471190110606, -0.1303799122621076, 0.1778970576214404, -0.23956351230593495, 0.18912843618184708, -0.07155538017861655, -0.18102380999597556, -0.03810615142799089, 0.0486129816471597, -0.08725454514730893, 0.097671984071949, -0.1031273406812236, 0.10955057825202516], [0.0776722110090636, -0.01061570038073472, -0.07732690774213301, 0.026692959638171497, 0.09722508995724848, 0.36398649529873306, 0.16530127382620718, 0.17185957086575568, 0.5444038248559402, 0.09079494072901595, 0.08552476873826963, 0.1237920336406745, -0.17748462636072374, -0.07809124115913287, -0.08914716981571277, 0.11417561496004955, -0.03032579574745654, 0.024051939288804117, 0.19116197912731966, 0.15223827180199487, -0.02839581946119046, -0.1183459848934664, 0.1991431797231935, 0.13700428583136448, -0.28295104309466246, -0.055009613286312896, 0.02932856327825981, 0.13685792347680584, 0.16040600212100195, 0.04990848202582108, 0.10277083377672064, 0.011171138919220287], [-0.11885248380607255, -0.045965914545226756, 0.0035583359256904363, -0.006155290221892845, -0.3322179985340079, -0.06979831988257175, 0.009739915925569933, -0.04978062499711623, -0.04343309513019575, 0.08599769706704372, -0.18992010351797375, -0.2871144108543774, -0.06105211394865339, 0.13481686990539818, 0.29718518465055116, 0.13762108001397008, -0.25853452266896176, -0.04092849829861158, 0.04501726131352382, 0.03155626018885459, 0.09509514593169642, -0.16151734147343136, 0.011010988130013609, 0.074353885228436, 0.14545842883300986, -0.1418580098620466, -0.06063398882188301, -0.4768653864089786, -0.10956141196567132, -0.09247328186312008, -0.18015644976223916, 0.0292902622945999], [-0.009730027329851326, -0.3981669513186355, 0.037679059838729045, -0.16370548402665694, 0.08542305950564827, -0.2262409545610418, 0.0053677406822362755, -0.04993369064484622, 0.053453895530906285, 0.02183965293824341, -0.044840405586908584, -0.2706541076228784, -0.2603526379417456, -0.10268444478826505, -0.0014179391856645176, -0.10719576322162531, 0.11005574940393067, -0.049044017344334966, -0.16991201422168867, -0.04928626924137126, 0.03978596966735568, 0.05717438913813282, 0.33129357197054377, -0.11791110870287314, -0.012940575243683233, 0.07486559449058672, -0.004278511616039572, -0.08842118799327901, -0.27287675247358806, -0.09042550782044047, -0.18927848227294822, -0.3046881949045704], [-0.14043927412166235, -0.1843744129741256, 0.1031789650827353, 0.10600392066401278, -0.1591483839384279, -0.04547759708015287, -0.32751179135759995, -0.08712962039236509, 0.07037111344442501, 0.1453163152961542, -0.1256404485784869, 0.1852569205451266, -0.2669651600471928, -0.21986361283280473, 0.1251492104879834, 0.2945457703891897, 0.08704359851970006, -0.007438395383074033, -0.3870113406819024, -0.35627318437784106, 0.02275354075403486, -0.06330689440742733, -0.19515110930830787, 0.011723168957174086, 0.020410306680694747, 0.16661375401399345, 0.024167964946788842, 0.21631615127638573, 0.0013653690838490154, -0.02032325408250943, 0.18734502286324245, -0.1723220534716924], [0.49590685056500783, 0.066077081723986, 0.06721797264962004, 0.09263964245372866, 0.33088493614871606, 0.13980604980777525, -0.28280771602614735, 0.24732184463279874, -0.06013819311411711, 0.018920979057482995, -0.2253810093637283, 0.092752422159397, -0.11453830315735049, 0.017407154275092422, -0.050053399589120424, 0.33886854661770677, 0.3491874694031117, 0.008230543844545753, 0.01143127890527337, -0.06553953972440536, 0.19499845133300034, -0.05779960450568079, -0.0739264188395342, 0.17212812313535314, -0.09484029023592928, -0.006330129194557503, -0.27857927384569886, 0.12396636415838286, 0.34199937774024086, 0.12728680123084365, 0.25738446023432743, -0.1488202246992686], [0.041626081185617225, -0.16618445387477151, -0.04002091804505894, 0.13605887152494914, 0.018017196005119498, -0.2486994317483667, -0.2317980936757064, -0.24339261435541257, 0.08665863398862068, 0.3636279122123981, 0.24024425612700726, -0.3341922912671026, 0.25059333206293766, 0.1651261544065524, -0.27232353573891865, -0.05354194091729226, 0.19317680049890346, 0.09700520574265808, -0.23084942475907624, 0.10773837835106462, -0.3764551511451471, -0.039327254119081015, 0.20030502191631597, 0.003377303971078505, -0.0878565979169966, 0.15687937509771538, 0.17184272639785722, 0.23058140881263708, 0.15415771471932743, 0.19053634687416449, 0.12885252570777345, 0.04677299597404839], [0.01547434465512523, -0.04176627875470364, -0.21303322233804384, -0.1681953796673085, -0.04938684502604359, 0.04342079315128521, 0.2537238299742049, -0.007486584742347476, 0.1767586232439425, 0.1902900775598586, -0.040566506743791246, 0.10474148255195496, -0.04273089907049317, 0.23305209957291076, 0.11178528185907972, -0.21005895145398332, 0.028675092267778545, 0.2904076295969091, -0.03214942118899203, 0.07946650326476166, 0.09663780436304197, -0.18258059569990343, 0.08975765628923642, -0.24554423224625505, -0.11022060035720191, 0.19009182031039912, 0.06307903394069646, -0.053940054841228595, 0.07875271635300635, -0.010263741536854946, 0.0017952827429715905, 0.1160616554217872], [-0.12833420283041247, 0.007214220508385591, -0.05478182685722471, -0.27938609115460517, -0.16217661270179992, 0.27657283478597106, 0.06768486646743135, -0.23334853672017752, -0.2713480644121558, -0.019777968526622117, 0.2751843707272655, -0.03307622975007279, 0.23043429963083403, 0.0620912613976115, 0.08299964704797984, -0.23539573461344585, 0.16527120349057087, -0.05904036558911498, 0.15200931634386086, -0.14331509670745549, 0.03108327175435854, 0.06211648261236091, -0.027355682793242787, 0.07140783048106385, -0.04699165666877623, -0.11426693744444308, 0.28299757650437274, 0.18437424702651725, -0.13400160083230248, 0.100073529465216, -0.13139532600499, -0.20883417321557235], [0.18226347131949286, -0.30035707096828307, 0.1633404472443102, -0.04453501142912159, -0.03712636144812326, 0.07227468129192095, 0.10241228457561032, -0.1455335129868398, 0.1264990349722673, 0.01993014898965694, -0.22142629629870536, -0.029910110567034857, 0.24316986975499158, 0.2956121749318081, 0.12631223769217748, -0.20943485212962779, 0.08657858242059041, 0.14987901002649637, 0.12771346604997139, 0.1383163452943192, 0.06417827768779265, -0.012907095985199565, -0.10750818227971697, -0.33426002835370117, 0.05994013942133256, 0.032845179388909046, 0.0982342935034037, -0.23545361647368795, 0.11365181771715636, 0.36216912106805443, 0.014078004932347107, -0.010840165588601874], [0.05455257983702901, 0.3581494630730719, -0.18057260851703894, 0.03580020709545838, -0.14097800623415097, -0.0967114551016814, -0.008641045542653575, 0.23756611857443657, 0.3173360907145782, 0.0788990163719342, -0.06650731354620576, 0.43941440864442005, -0.07563339563397367, -0.10063114027786586, -0.31251375313024987, 0.24618537224061618, 0.17034696673628816, 0.42582747053780573, -0.24467919983939723, 0.25665105729077725, 0.012001809247948624, 0.14185242347921523, -0.2900729695423313, 0.2585761200998802, 0.1386978252062124, -0.007040289443429842, 0.11366713501896408, -0.13472976915454088, -0.10223814717633754, -0.08177201718231063, -0.32640592115310574, 0.1518787128336635], [0.2098854300095888, -0.12335865267611801, 0.061699924341332035, -0.046873962854408126, 0.0579543322633525, -0.11026352569173499, -0.155803826877631, 0.18545246342735364, -0.011143758727563855, 0.35634233817090477, 0.008158544355267167, -0.16320445452614646, 0.2157681155433661, 0.11169383881397388, 0.12781984119665601, 0.21045043486181406, -0.11466692658779407, -0.022646014222672962, -0.030743809403201924, -0.22731587468133238, -0.046055194644956374, 0.23505068942368224, 0.0410218706356325, -0.23665111893443055, -0.2740563495728378, 0.29367669093645404, -0.015792327160113688, -0.11399031518273413, -0.04825881128059633, -0.2601418795167994, 0.25085540557960856, -0.069206157273678], [0.2408456607820908, 0.009099681509390188, 0.2521964547450849, 0.04525810945674366, 0.1504772925454282, 0.12713791235047947, 0.1097000893465031, 0.06112335185536156, -0.04094828156907548, 0.33740486301114564, -0.15949060202659104, 0.0004658732987066722, 0.003339050351387446, 0.07094411675472978, -0.07582626903160905, 0.05494556490590644, -0.02947391436333243, -0.27866528317313916, 0.0014826280513385948, -0.19356739080143046, -0.30545963357073047, 0.024277205395017272, 0.08558303119359272, 0.09305092284859187, 0.09998789924749818, -0.34024542722559675, -0.23956955147682882, 0.3473592755849206, -0.1845291540262565, 0.10777104539623675, -0.12155605483313765, 0.014178147546675917], [-0.11190029734960112, 0.09902165098134309, 0.024620050272433282, -0.07885615330905693, -0.18483651186657885, 0.0478885260705618, -0.21386905965685016, 0.07510482921633341, 0.4627731176617958, 0.23801832873360426, 0.1268297285247034, -0.015287191490015601, -0.34106217193990884, -0.23312616316293824, 0.22584575970023876, -0.13973811380294063, -0.1231631833579158, -0.029221601934932066, -0.18715928156447573, -0.21559868922642336, -0.008911293004913421, -0.15681824014694667, -0.1306013477411498, -0.13779794903551518, 0.09202034612465852, -0.04036655076801648, -0.031227156450441298, 0.10462485776016796, -0.02502683148487879, -0.04881322369066426, 0.08206891266656721, 0.1181588444473984], [-0.025865529503876026, 0.014217800606734863, -0.13797699697761515, -0.1516012031764816, 0.13537273624102125, 0.07797386817008821, 0.0804243198396556, 0.0496815726298333, 0.008238670817684831, 0.12262282065235665, 0.16437555909488202, 0.1606291723788406, -0.017905833012912226, 0.2439074426842714, 0.04064390908191487, 0.11189472787217172, 0.04948422048556089, 0.04355696211133537, -0.12930548926880303, 0.12330855487024456, 0.5009022425554269, -0.06575684342704528, 0.013113578848624295, -0.07895404054539044, -0.085994903237652, 0.2721193319705903, -0.11884255444406339, -0.08323909252136623, -0.27956621433311674, -0.13328977388487975, -0.3007720678913061, 0.11119136563433143], [0.49349632569680646, -0.06471452679069838, -0.294057720846309, 0.15855451668386022, -0.12816521738639508, 0.22856200065038368, -0.049579903270921405, -0.11121770889696099, -0.03132107894472517, 0.1334213075618039, -0.040255910694607204, -0.08740514980653588, -0.0352731264697645, -0.2241922377361373, 0.0701596297081277, -0.31454506490384426, -0.07844701722804104, 0.13393680188406357, 0.0536842718392846, 0.10379651762987495, -0.011646250720759685, 0.20627542891231151, 0.16345881015941313, 0.0784010790259532, 0.1634915976651515, 0.13198341159858917, -0.07762206072822721, -0.23636379283900297, 0.07415137486181324, 0.0962695114342608, 0.1926890673651945, -0.16518573847987103], [-0.16001889067617286, 0.08117377127722687, -0.012059172434628848, -0.332260428823561, 0.06631985049937135, -0.3257729139222882, -0.16676100517856965, 0.23795385555052392, 0.32163023568596694, -0.21428602101567096, -0.05766870120491047, 0.007218224381873881, 0.31456691933372205, -0.08672041137349609, -0.08412108201353209, 0.2724002263668324, -0.06567806809171851, 0.12694449293908835, -0.26073078311505715, -0.02985094090224667, -0.29232784843614223, -0.1862167720700608, 0.14705785617579942, -0.0082809797983533, -0.056134458965538696, -0.13149703476679822, -0.03857767191124822, 0.05214609017906055, 0.1731274037193927, -0.4627645124256833, -0.14765526579382324, 0.02819589952081266], [-0.01732835999628657, 0.07096088870084327, 0.04694049345801374, -0.053677741919149605, -0.09283828713941433, -0.04343297194922521, 0.20253505252757745, -0.1289717822003736, -0.011117748152936173, 0.032193112849321026, 0.2750542483415222, -0.052833400843847036, 0.16913679804668313, 0.21700837638620554, -0.011025269114910556, -0.03747114866486449, -0.05828889158969167, -0.04509726866532385, 0.15078606452465665, 0.040577468272034616, 0.04139137914231074, -0.19831532486455433, -0.1699393224935148, 0.37733560772212243, -0.031264359004042105, -0.13651414908133017, 0.2520972904666211, 0.04945808437343812, 0.10181261065369406, -0.024553754841693514, -0.056443832957414376, -0.02982400709697245], [-0.24372830215990748, -0.015514936262500481, 0.05224313433542151, 0.3261224500892729, 0.015167066167775644, -0.411150977794933, -0.01655551561805834, 0.4826908716889892, 0.15249997357239808, -0.14284278316567878, 0.10442794962579573, -0.13061961127605487, -0.23836214390850485, -0.06134332369555668, 0.016050419284060667, -0.33041172573918715, -0.20265120601366982, 0.0018775453451992034, -0.07177168023031176, 0.06970738129125832, -0.21407454493297096, 0.12594315948553422, -0.20835956820183288, 0.289230353333869, -0.3023577954604773, -0.1924820473978265, 0.07363914870462657, 0.2931088073405343, 0.05539547237620596, 0.09914878216441389, 0.002811376148632158, -0.18064080448537195], [-0.08648207363899266, -0.21338902280167057, -0.22506925868601374, 0.07074369341891708, -0.19793458163802136, 0.056490891621685864, -0.2295158330221076, 0.05212216849321807, -0.08603803759125477, 0.24793473850305642, 0.05701886502544404, 0.21760565770326976, -0.13322306991404967, 0.01011333427963587, -0.17313482861547402, -0.07253354394532165, -0.045785613032711274, -0.1281219499798365, -0.21465635797006216, -0.2489939603256497, -0.41223125525055404, -0.1864010342437539, 0.10966161698909793, -0.2810616586552065, -0.241072374625519, 0.31554932473758646, -0.11198412834881957, 0.05684448307982987, 0.11299562613985795, 0.11691101282059545, -0.2679398261902006, -0.0405446535984731], [-0.2854529125666876, 0.4311931364785443, -0.2808197724668867, -0.184557582169171, -0.18323728305680345, -0.2633780820219064, 0.23829757837228788, 0.4267671035895462, -0.08368751345851815, -0.23294024545685466, -0.3938757552417826, -0.043232892261252556, -0.05505392818369995, -0.1148480790579127, 0.03940690658735755, 0.06912972823059343, 0.0569117727412795, -0.05604703176606964, -0.1941597028271334, 0.11743767267605208, 0.0021447990013628137, 0.15627508016099773, 0.13912416152210552, -0.2503647494908663, -0.25251497707696297, -0.13292175010747942, -0.18601367140967373, 0.13214852363465043, 0.0618963594495007, 0.19313360819391862, 0.06888236356081727, 0.036568455840484154], [0.21129831930548998, 0.0828173878295167, 0.012073191047222591, 0.2609373841774317, 0.020331227303933302, -0.053565321314448425, -0.1476147440499734, 0.1238870093832879, 0.2182026972814628, -0.009125063383438662, 0.23047186769274874, -0.3474042347719483, -0.009284900505100745, -0.007328129309279216, -0.12780381125158696, 0.4200677253657432, -0.011494532838811683, -0.07186599616467304, 0.004500712429629294, -0.3528861555726081, -0.13386877807429104, 0.17328166609314957, -0.11099553813004072, -0.1458132616442086, 0.2309097841921227, 0.23635039193676316, 0.09109124802978733, -0.0806345588200838, -0.04207300746335843, -0.14188322451361868, -0.17574380110505752, -0.18426472442896008], [-0.10924419041494883, -0.18214266219843694, -0.27507693391552085, 0.03880097423202145, 0.041507447837586926, 0.3002053956392854, -0.11793028246821517, 0.05206538183921452, 0.05523270640762135, -0.044709569219189435, 0.1312266236667693, 0.1363878647341533, 0.057772473198063556, -0.044931913152362085, -0.06312184807649708, -0.2407173817589803, -0.14166767770996538, -0.10981425579102484, -0.19838170716048906, 0.07795407934962488, 0.21083281222716005, -0.15987252851591086, 0.04929017424021897, -0.18185089750878453, -0.05369185021705734, -0.1213591280397616, 0.10628530722629842, -0.11977675534228237, 0.17826310856374816, -0.04300638909885101, -0.11475413432402662, -0.220577506183038], [0.044637796361590515, 0.15773704613537148, 0.048177769037679216, 0.39450081091997374, 0.2519537528487706, -0.05409768325091399, -0.05612918691082824, 0.08266676984656414, -0.1476943330362082, 0.20553177640344722, 0.06391663842025587, 0.0450184859767025, 0.12147111064488625, 0.3035795050151908, 0.029956935905704227, -0.020315955278961698, 0.26613142713732657, 0.1704684081550393, -0.05679342321602163, 0.00105153546536929, 0.03442032989391051, 0.06376775095954529, -0.23959580773146166, -0.27142607984368455, -0.15636789828595393, -0.1702006123423741, -0.11320739700418522, 0.11199489352575066, -0.0299644704033092, 0.03467850899519178, -0.215568305805958, -0.08116218577091985], [0.10338762012304205, 0.10482348779462602, -0.12730555785996228, 0.028514761855090096, 0.3877434318199514, -0.002522733437874425, -0.12234805439549569, -0.030718188408797822, 0.016219383767781505, -0.026603048007628506, -0.005408885911840756, -0.2544467191666618, -0.16954452738966294, -0.026124823471757066, -0.02938121798758056, -0.09984805689700459, -0.030845981931084517, 0.010805255999913608, 0.15640493170945005, -0.01716254656987253, 0.07063119715976557, -0.09539306329990571, 0.10026263061698533, 0.06653815039191914, 0.1525739803128275, 0.12586790456018865, 0.1039404459356527, -0.01721038841743267, 0.043155594872011684, 0.18771917247787434, -0.114839011254681, -0.11053654265315742]], "v_proj": [[0.0447055545865686, 0.0807567319433823, -0.14127942062397966, -0.0044508101729219, -0.0017456970732426945, -0.4075491553137462, -0.03225829663371534, -0.0454264355672636, -0.021231375758126336, 0.24576511991565606, -0.21478465290019733, -0.1490576390485362, -0.4680940504960837, -0.09611952447843841, -0.0714404729363819, -0.0923679870486657, 0.19507945629136536, 0.1453213884606117, 0.025129553534162834, -0.06970520742156024, 0.17607116054899508, 0.007625665440626087, -0.14948773057481174, -0.3162584379489388, -0.08722121942937476, 0.12906610457164194, 0.40530242161696567, 0.0010698861712200235, -0.1453743883704533, -0.2104814320584923, 0.09875395475059164, -0.3056536796562337], [0.09957875403559123, 0.14521460475769413, 0.06915112760364227, -0.0413325897998612, 0.09954127933274196, 0.03122677388855314, -0.1339444205962902, 0.32511671289904964, -0.0660561055166589, 0.13946129530782983, -0.4231585687846247, 0.2282091014115977, 0.2567224181924824, 0.00508015335581549, 0.09983288479414722, 0.09957928514163801, -0.10155660739051765, 0.09255085578947018, -0.14364423519376532, -0.11974611213600293, 0.19181150508840158, 0.18106331446916754, -0.1247031884039642, -0.12755038126488297, -0.10753832681071387, 0.12730592372605373, -0.17811447805622252, 0.06479512818634765, 0.12857598974504902, -0.015602397367675035, 0.17501450622335668, -0.06158441741000384], [-0.030611357333831732, -0.16628187577593037, 0.15677429350603259, -0.1507367201651383, 0.05840134718856321, -0.0004323496114689767, -0.1861359443607721, -0.09932434263666888, 0.23139416519637065, 0.045334178029624306, -0.16896593386394218, 0.05969115628043626, -0.017774919769104724, 0.6233449407450674, 0.06748999573841687, -0.05278166956364494, 0.26961802485656194, -0.3249660096667185, 0.01054391797708926, 0.33849024121628596, -0.03718489493548825, -0.2962547589525628, -0.07416886556349925, 0.26579202164433374, 0.07964535237356662, -0.15022364226504042, -0.1325282023009588, -0.09314613432274112, 0.06105533458421523, 0.23438588749465283, 0.1775406603865647, 0.07388683306229214], [-0.2643297631692186, -0.23939974256660718, 0.10874120302737929, -0.23558453801223483, -0.04936776476088063, 0.0697645895355304, -0.2049275875325331, -0.15538815892870372, -0.012849146585572863, 0.07559932155868565, 0.1746461490265602, 0.10941731355544938, 0.009615146582556666, -0.1264202431396586, -0.19743033184841602, -0.1092009311122197, 0.06316058388541435, 0.049625287008241856, -0.36994465270655924, -0.13298668944778583, 0.2465715061164312, 0.003190676481081755, -0.24134654088874039, 0.4179060827563158, 0.0032702372077728975, 0.08380936801190261, 0.06611142919276676, -0.05380416785136488, -0.11142875833727907, 0.38322439111059836, 0.1910038427951626, 0.13175962316457404], [0.07407668025189072, -0.17320878079420104, 0.2327023197410344, -0.1532110104065796, 0.042782018602716944, -0.26951033806529007, -0.3661653720895335, 0.07595160990267556, -0.1480601149171598, -0.3588969737453622, 0.08991809491494775, 0.37378698877349814, 0.24090846491987322, -0.03441728850433749, 0.0038393315189696954, 0.14560021524439487, 0.2020080538059604, -0.08152387134554524, 0.003839409033797273, 0.045652513985990024, 0.12038474391116909, -0.019689666795217078, -0.016081053923610623, 0.24529776981984308, 0.2257361423543565, 0.09725253865029017, 0.2869551387751106, -0.06260803791094409, 0.2924486798135871, 0.11002985403498454, 0.5939161501709502, -0.22906289701422985], [-0.1289316426588847, 0.07366055624220265, 0.07402721198591564, 0.34048103510028194, -0.1262668545357397, 0.16606876821646424, 0.2082467923919495, 0.13281895504877408, -0.17183281033111, 0.24334678758854839, 0.21053844089830254, 0.1067373113738406, 0.03469514638532023, 0.04437048610564485, -0.020427192652069878, 0.10780555970200671, 0.00878329830392192, -0.15742202157875734, -0.18573488463917132, -0.134428478664199, 0.04262653221640786, 0.0006830539624095923, 0.04325889929180282, 0.09256329153272938, -0.10242706750909719, 0.26246994898338155, -0.04885870693835692, -0.07256295643143738, 0.08989289175998094, -0.3227921039713202, -0.1323901583047943, 0.16861250875676992], [-0.3040961072834937, 0.20795445824726597, 0.2796093231290999, -0.05604424068274307, 0.06014782839540247, 0.18407220477388275, -0.0810615316735619, 0.13818476872595184, -0.11265465096336871, -0.09537541324636713, -0.15510781246005673, 0.053947165262261045, 0.20711596673062413, -0.035327882838469986, -0.22967050520491952, -0.18913085290320614, 0.05452198734103469, 0.32428023380467913, 0.08297139072518586, -0.05640868510176829, 0.13883503193215269, -0.03780188034421515, -0.06961704191638421, -0.18595793856636172, 0.23834465204663174, -0.45739496769769133, 0.14503626169802458, -0.0886276307168536, -0.07668585085945939, 0.29679841158779474, -0.11555628252578697, -0.10338016928894317], [-0.02799422053546248, 0.07389104371136596, -0.09095953416726807, -0.28321109684723966, -0.1564034249484312, 0.23745772188508377, 0.007745551661533419, 0.08637968778184651, -0.05460932372779825, -0.11251789238733617, 0.30112786081275594, -0.029408341539898932, -0.07356284858902913, 0.20390894403630294, -0.12022748651079544, -0.09888883249208445, -0.001470308000582669, 0.004969026538788657, 0.03520747832605867, 0.36813344220100935, 0.059980993688302384, -0.42658257279393147, 0.05616560678752976, 0.015706440488800124, 0.013911128723374206, 0.04336444417333345, -0.015810470326976748, -0.0061859951989492595, 0.11252660693519052, -0.09039285159345861, -0.16946888962618628, 0.5363737297548196], [-0.11150074683402389, 0.01922173766895558, -0.2611515504257972, 0.024653943173531874, -0.15824563195770527, -0.0905068221238767, 0.18846852752468393, 0.07095700439951316, 0.10731717334254985, -0.3097577324854477, 0.3245899158479016, -0.21323520006152408, 0.27098255769241175, 0.1715593274027336, 0.09974601008764883, -0.1465761450858557, 0.023528125086339016, -0.08030253525359864, 0.008751150666630412, -0.03934449970964444, -0.3689297713767614, 0.20164160798298952, -0.016551122901470493, -0.0913080842621023, -0.10929729879932186, 0.05746506526729861, -0.1499517553300799, -0.4052702964492048, 0.06726663501318814, 0.08675574847276717, -0.03558592856501524, -0.18848599633163546], [0.024290347507544795, -0.25888595266664083, -0.195596333764591, -0.13659681749008012, 0.15167412103512803, -0.059959536136341564, -0.08216543579139898, 0.3419427541388111, 0.06004318244792417, 0.07002624558495031, -0.051724467691303976, -0.1033793807338644, -0.38333437533737497, 0.17210143564151245, 0.08856957509913263, -0.024525894563603073, -0.017413557131476458, 0.13682786238137934, -0.27979361891609544, -0.10780736442289503, -0.21104617416905624, 0.3077791954274344, 0.14749635452498067, -0.38153140733627067, -0.2664266846147921, -0.024759141564883853, -0.08632233460204279, -0.23232343723067247, 0.3395755780824964, 0.05569817025130083, 0.07361469890849164, -0.11900080736119834], [0.12003145595795658, -0.059446889044731416, -0.03741316094682449, 0.11818576824619895, -0.28034553573273185, 0.27696845322565833, 0.03426394478459362, 0.22279448108230146, -0.18503383021880673, -0.1762695605952923, -0.21852187362301534, 0.03853852395249378, 0.012108282125190667, -0.08463737605186906, -0.18528267834904072, -0.2292475294312163, -0.017456744939495727, -0.09313737339518892, -0.11138910661231598, 0.2723525288402047, -0.003030499575738332, 0.23324665262214442, -0.09113607914878656, 0.030796253608543926, -0.0102533969328385, -0.2990237525282946, 0.25244533316893913, -0.027192608427166382, 0.13265216356581017, -0.13003361975463826, -0.01540489003174134, -0.1518208109118996], [0.23389288098635722, 0.061601322189160264, 0.0686204109733051, 0.24765974443354255, 0.21338805465023605, 0.12045932672693258, -0.24326517039889248, -0.14083865263269463, -0.17215456689718092, 0.12731737360320688, 0.03064267684877283, -0.24815456725361848, -0.03472254979872742, -0.2736713387514164, -0.014124152169857419, -0.28789104493320894, 0.088909055787549, 0.07054123287564613, 0.3436093129957299, 0.14984418519931728, -0.08619038568149916, 0.15154170323950558, -0.24902126792524756, -0.17688092761785412, 0.050410129879742846, -0.3879573502744935, 0.0017775120897563306, -0.18735113424759303, 0.010600354365093117, -0.19768230969573172, 0.07480359825977112, 0.014169710287359366], [0.23446742818961475, -0.0005665763909025202, -0.12955824066647584, -0.0476273636483525, -0.2430328344427156, 0.07975704005000654, 0.09786575732807852, 0.44737263665454663, -0.10943898436509715, -0.05196404400378322, -0.10595410363639791, 0.037032819474394255, 0.06956089767133808, -0.0008681028773189656, 0.19396782290815895, -0.11021715302818923, 0.16427321883893017, 0.09302615466228181, -0.0037519922550388555, -0.044845627371981785, 0.4438940896943881, -0.1547278745470674, 0.05200661216295821, 