{"version": 5, "architecture": "zero_native_char_attention_v1", "vocab": ["\n", " ", "'", "(", ")", "*", ",", "-", ".", "1", "2", "3", "4", "5", ":", "A", "C", "E", "I", "L", "O", "P", "R", "S", "T", "W", "a", "b", "c", "d", "e", "f", "g", "h", "i", "k", "l", "m", "n", "o", "p", "q", "r", "s", "t", "u", "v", "w", "x", "y", "z"], "tokenizer": {"mode": "char", "vocab": ["\n", " ", "'", "(", ")", "*", ",", "-", ".", "1", "2", "3", "4", "5", ":", "A", "C", "E", "I", "L", "O", "P", "R", "S", "T", "W", "a", "b", "c", "d", "e", "f", "g", "h", "i", "k", "l", "m", "n", "o", "p", "q", "r", "s", "t", "u", "v", "w", "x", "y", "z"], "lowercase": false, "vocab_size": 51}, "dataset": {"source_path": "C:\\Users\\gomez\\Documents\\New folder\\laws\\model_benchmark_suite.json", "artifact_path": "C:\\Users\\gomez\\AppData\\Local\\Temp\\zero_manifest_search_ktafemcz\\manifest_d.dataset.json", "stats": {"source_path": "C:\\Users\\gomez\\Documents\\New folder\\laws\\model_benchmark_suite.json", "tokenizer_mode": "char", "lowercase": false, "vocab_size": 51, "token_count": 37257, "train_token_count": 33531, "valid_token_count": 3726, "train_example_count": 33530, "valid_example_count": 3725, "block_size": 12, "valid_fraction": 0.1, "source_kind": "benchmark_manifest", "manifest_path": "C:\\Users\\gomez\\Documents\\New folder\\laws\\model_benchmark_suite.json", "manifest_suite": "zero_default_laws_v1", "manifest_description": "Default Zero AI benchmark suite across local law corpora.", "manifest_corpus_count": 5, "manifest_weight_scale": 10, "manifest_corpora": [{"name": "recursion_law", "path": "C:\\Users\\gomez\\Documents\\New folder\\laws\\recursion_law.txt", "family": "law_core", "weight": 1.0, "repeat_count": 10, "char_count": 1627}, {"name": "universe_laws", "path": "C:\\Users\\gomez\\Documents\\New folder\\laws\\universe_laws_canonical_123.txt", "family": "law_core", "weight": 1.0, "repeat_count": 10, "char_count": 1160}, {"name": "core_cycle", "path": "C:\\Users\\gomez\\Documents\\New folder\\laws\\universal_law_core_cycle_123.txt", "family": "law_core", "weight": 0.8, "repeat_count": 8, "char_count": 393}, {"name": "third_law", "path": "C:\\Users\\gomez\\Documents\\New folder\\laws\\third_universe_law.txt", "family": "law_core", "weight": 0.7, "repeat_count": 7, "char_count": 389}, {"name": "strategic_context", "path": "C:\\Users\\gomez\\Documents\\New folder\\laws\\strategic_context_awareness.txt", "family": "strategy_context", "weight": 0.8, "repeat_count": 8, "char_count": 464}]}}, "eval_metrics": {"dataset_source_path": "C:\\Users\\gomez\\Documents\\New folder\\laws\\model_benchmark_suite.json", "tokenizer_mode": "char", "train": {"split": "train", "ready": true, "token_count": 33531, "example_count": 33530, "loss": 2.8157566618346204, "perplexity": 16.705811649279916}, "valid": {"split": "valid", "ready": true, "token_count": 3726, "example_count": 3725, "loss": 3.029660526836698, "perplexity": 20.69020762683138}, "primary_split": "valid", "primary_loss": 3.029660526836698, "primary_perplexity": 20.69020762683138}, "training_steps": 453, "model_info": {"architecture": "zero_native_char_attention_v1", "fully_native": true, "production_grade": true, "vocab_size": 51, "block_size": 12, "embed_dim": 32, "hidden_dim": 96, "attention_block": true, "attention_heads": 4, "attention_head_dim": 8, "mlp_hidden_layer": true, "training_steps": 453, "tokenizer_mode": "char", "tokenizer_lowercase": false, "dataset_source_path": "C:\\Users\\gomez\\Documents\\New folder\\laws\\model_benchmark_suite.json", "dataset_artifact_path": "C:\\Users\\gomez\\AppData\\Local\\Temp\\zero_manifest_search_ktafemcz\\manifest_d.dataset.json", "dataset_stats": {"source_path": "C:\\Users\\gomez\\Documents\\New folder\\laws\\model_benchmark_suite.json", "tokenizer_mode": "char", "lowercase": false, "vocab_size": 51, "token_count": 37257, "train_token_count": 33531, "valid_token_count": 3726, "train_example_count": 33530, "valid_example_count": 3725, "block_size": 12, "valid_fraction": 0.1, "source_kind": "benchmark_manifest", "manifest_path": "C:\\Users\\gomez\\Documents\\New folder\\laws\\model_benchmark_suite.json", "manifest_suite": "zero_default_laws_v1", "manifest_description": "Default Zero AI benchmark suite across local law corpora.", "manifest_corpus_count": 5, "manifest_weight_scale": 10, "manifest_corpora": [{"name": "recursion_law", "path": "C:\\Users\\gomez\\Documents\\New folder\\laws\\recursion_law.txt", "family": "law_core", "weight": 1.0, "repeat_count": 10, "char_count": 1627}, {"name": "universe_laws", "path": "C:\\Users\\gomez\\Documents\\New folder\\laws\\universe_laws_canonical_123.txt", "family": "law_core", "weight": 1.0, "repeat_count": 10, "char_count": 1160}, {"name": "core_cycle", "path": "C:\\Users\\gomez\\Documents\\New folder\\laws\\universal_law_core_cycle_123.txt", "family": "law_core", "weight": 0.8, "repeat_count": 8, "char_count": 393}, {"name": "third_law", "path": "C:\\Users\\gomez\\Documents\\New folder\\laws\\third_universe_law.txt", "family": "law_core", "weight": 0.7, "repeat_count": 7, "char_count": 389}, {"name": "strategic_context", "path": "C:\\Users\\gomez\\Documents\\New folder\\laws\\strategic_context_awareness.txt", "family": "strategy_context", "weight": 0.8, "repeat_count": 8, "char_count": 464}]}, "eval_ready": true, "primary_eval_split": "valid", "primary_eval_loss": 3.029660526836698, "primary_eval_perplexity": 20.69020762683138}, "block_size": 12, "embed_dim": 32, "hidden_dim": 96, "heads": 4, "weights": {"embeddings": [[-0.02086081787443658, -0.040024589711504584, 0.04015829850462151, 0.05738062594930915, -0.10408150270789386, -0.044950636181895154, 0.00152455800007013, 0.0011087662651861558, 0.008062161395089836, -0.03426781236972677, 0.043045238961618486, 0.011921414232875564, 0.018622063448416954, 0.03937767063663819, 0.026184767754905754, -0.028459939679077527, 0.04197652820904517, -0.05329542247730634, 0.049599916930010694, -0.01987292379138043, -0.005771855592946024, -0.04958300352142943, 0.054009129944849445, -0.016364449122253207, -0.017037443112732146, -0.004710341058649509, 0.016612745462448605, -0.008506367496672726, 0.0071029246716659, 0.0136303560283368, 0.09308901498586525, -0.027442833464514007], [-0.2551536330832467, -0.02012000885141427, 0.18106400783525814, -0.16638817097713524, -0.20296842623332736, -0.01721828357801815, -0.08413686357047923, 0.12277468471554547, -0.022232521727541185, 0.11876397720427936, -0.24259203592992046, -0.03687716306598265, 0.14489916653231905, 0.053880361992637724, 0.2878189143936011, 0.02911853457437462, 0.05840532808943756, -0.13407337880528708, 0.08642295676092823, 0.1690948054351985, 0.2679636880289888, -0.1515199025145557, -0.17560461401013538, 0.07792098562256895, -0.12915355494378478, 0.05405158802118916, 0.1335064875133485, -0.31861393655119075, -0.17252285432985576, 0.17720089397315822, 0.12053102388513956, 0.25998738924119935], [0.06153691231546609, 0.055321496238553855, -0.03232650819533001, -0.03291195653489317, 0.04637994319756731, -0.017293525005623814, -0.06835914348123664, -0.05855203458759392, -0.02709021438052607, 0.025530863909263513, 0.027068072767073667, 0.038864981739040974, -0.04172094909408734, 0.00896076467513028, 0.01156430070990814, -0.004567061611592385, 0.023028441504894765, -0.015521780728179242, -0.015100927071123373, -0.024742554767741055, -0.08299175637856492, 0.01409946539860624, -0.03398570343034228, 0.0007166917143888977, 0.025190637264787763, 0.02048650279899092, 0.0427542677876875, 0.006027365724213516, -0.02226402159694624, -0.029787940570347414, -0.07952076129526404, -0.0764475936114847], [-0.0677301945195647, -0.04843124790228985, 0.029706070203797785, -0.03970113185050172, -0.011937260558479242, 0.06823403364625222, -0.018170198829588452, 0.03687856924849701, -0.05100832268600837, -0.010934126039983135, -0.04731391665661105, -0.017995359718560172, 0.04418766178070279, -0.08792995266068634, 0.0236264510720849, 0.011720363314610543, -0.035598125541889646, -0.07267860971549717, 0.0016050603521696087, -0.029802301901749755, 0.012954101993178316, -0.0005026458822624963, 0.08119347255229686, -0.016740295492872165, -0.04853199651726276, 0.010507344367873067, 0.0050953414491575755, 0.0689349531026327, 0.03757998176900578, 0.014446257883898016, 0.06879068506676686, -0.06336069842255412], [-0.0038408385748918182, -0.04540847756026705, -0.041389826248758026, -0.0614556649876379, 0.0390167908477001, -0.01633860025413406, -0.08110320379862801, -0.05430925268766035, 0.02309723728596566, 0.03893911359535485, 0.11501767599736944, 0.1435306193567554, 0.002019254177833643, -0.04904933399733801, -0.13266273181643914, 0.015780682830125962, -0.03334560976373832, 0.0009836983163545058, -0.02972841402744333, -0.016521834079136103, 0.023747947579729364, 0.006786987736502726, -0.0012520825452781352, -0.05974142301523133, -0.07660968482862288, -0.03127646780510434, -0.000761867476021385, 0.09418769862378078, 0.00988512828014155, 0.030290744227189574, -0.025414376351800202, -0.06351428686645333], [0.0686969147847518, 0.1165971520062708, 0.08906416845309072, -0.1312286815911421, 0.013155641356050634, -0.09787148337123461, 0.09863835833941643, 0.017497041924870255, 0.09504176716854967, 0.014409335338287171, 0.07808791035568378, 0.03465471752932527, -0.1334145613028076, -0.06377581137287423, -0.14334559021671814, 0.01377991595333307, -0.011583284337588208, 0.0163693727043238, -0.026904978953164696, 0.01836888653463966, -0.04604311220437612, 0.013460165105133167, -0.06378909069608127, 0.16723612024860426, 0.026028203633716364, 0.11825592055330186, 0.10951801754959686, -0.06836459047359382, -0.08628387694690633, 0.07525401316495904, 0.19351055316937266, -0.028552864700673728], [0.1603913516423444, 0.08830711809888002, -0.24259161383458924, 0.05551222519217377, 0.08090315924898335, -0.054705646031471114, -0.06579921170448084, -0.017899523372631534, 0.096808323725356, 0.045393879312498324, 0.14118390673385275, -0.008653563571670707, -0.23641193682068296, -0.04801033636052576, -0.24645673857872039, -0.048200107863669274, 0.058007148455488405, 0.18762710399733212, 0.026297512611091884, -0.1913614688259334, -0.2525524770510761, -0.05005714926278362, 0.057030700374996295, -0.05942724784414267, 0.10774886431598202, 0.0344192432291068, -0.031715816182935265, -0.0009060359048937798, 0.0022790587174849153, -0.17708673278112308, -0.05898975429746764, -0.08794319181569091], [-0.019708860053577335, 0.039928534469057024, 0.17330331326183968, 0.09623301076837328, -0.07123375521610617, 0.01151196141730224, -0.04735837090893369, -0.0029688508817987324, 0.021852424006493485, 0.10347015973175958, -0.03995934979494482, -0.05862979859879608, -0.10096925426090102, 0.00391284364040568, -0.03217199561421336, -0.008777794584437153, -0.05900961216247051, -0.023132521274711357, -0.09694506302594176, -0.05774666642321212, 0.14515312481032336, -0.07917076849425785, -0.0787998032161221, 0.1114469513448275, 0.14796258068542786, -0.031805935857503465, -0.012155549733632552, -0.005044411897769729, 0.06781333003420201, -0.05771819685778723, 0.010646851098251963, 0.0550701333354857], [0.22612181749155927, -0.0049368136948879275, -0.18920905263971521, -0.05993495396402353, 0.008195619778804078, -0.07790035511079924, -0.07243310135211543, -0.08028464215533575, 0.10369731379568634, 0.03927111688552108, 0.11435696510092583, 0.03822419065933004, -0.16399989931397047, 0.00524927026589245, -0.2195168860730381, 0.04853035764507459, 0.03549751014669925, 0.2783301163130966, 0.0915961988240091, -0.05830868817766676, -0.23499415129676596, -0.07890378001367114, 0.08853389046340283, -0.03239791406421021, 0.04464337534378669, -0.11196818284943552, 0.06782027834768915, 0.1112966547489052, -0.027333506037293977, -0.16622444509421666, 0.015525774754328862, -0.033708105823640255], [-0.017067257471805528, -0.002330045939235918, -0.015064779978366926, 0.007303327418290433, 0.07226329312521099, -0.128607604497589, -0.010129987221633106, 0.004160721134865209, 0.020197441566510606, -0.013871213435766274, -0.09099375704559157, 0.023584992056409217, 0.08017001608329159, -0.07857944460707374, 0.04277686396153124, -0.015215759263076301, 0.0006517066012747472, -0.04819978554801103, -0.018636717623394528, 0.0643883344990263, 0.026697476110348624, 0.07830331297581831, 0.053412225567542965, 0.02390180338558111, 0.08563069016106856, 0.023346579965865925, 0.044195629624839416, -0.013175278163742345, 0.0005193798392783757, -0.03335955587027941, 0.05098553131461043, -0.05592896370149693], [0.02797213441026862, -0.005215761799509803, 0.05444419085458726, 0.03719665241168865, 0.08921627468991179, 0.039770785607152394, -0.07852982985830755, -0.005838784457573936, -0.049169889421441224, -0.018132227321845135, 0.0688629495721169, 0.03982622006086198, -0.040716529851116255, -0.05392910472001183, 0.00452722218303143, -0.06050018263553284, -0.022231815619118394, 0.018175425272276034, 0.05681767671534258, 0.03134459745093916, -0.11384261139118984, 0.0007686443133904402, -0.0091947035852461, 0.024652431804797474, 0.07905206273388016, -0.09832133578567609, -0.023041035591528137, 0.030116435056930988, -0.0859476668012894, 0.07473234988503172, 0.022448772528774568, 0.0446410314263249], [-0.028559899887259658, 0.0397145466186401, 0.04949150973133914, 0.008574173062200452, 0.008230196718352548, 0.013556253846458245, -0.0461945413630531, -0.012853614498622379, 0.0005518536650195328, 0.022917636428618934, 0.04349148099194752, -0.04343896758865542, -0.014056880462048242, 0.07918215942858288, -0.037984648401739464, -0.03824411119709666, 0.012632614542010513, 0.04726047836374798, 0.0013086789970690826, 0.06676828402269701, 0.039435308682495805, 0.03696316396930685, 0.019988152910338276, 0.12068992897660859, -0.014661484500689435, -0.0997583789474447, 0.08778880219746477, -0.020524409905433572, 0.004480519293458902, 0.06604424489133506, -0.0749413163504709, -0.061812875960537195], [-0.08877334473424632, -0.03414641896190539, 0.01722793089405274, 0.02515961087893471, 0.01409951645414631, -0.06780418732290758, -0.11499111083071305, -0.0009820954696819865, -0.014884398004005223, 0.0305490120942231, 0.028407587012216125, 0.01692549922684136, 0.031029249524632017, 0.008144526163116105, 0.028585979875795673, -0.03674925778676862, 0.00019772791620159444, 0.01186719119960785, 0.039425629744863674, -0.016813511982404803, 0.026968650977617185, -0.027182026760750377, -0.017330622725500774, 0.04522710292690276, -0.10074105869023071, -0.059901406676704794, -0.06763684055440476, -0.11353400585480589, -0.04163154178785538, 0.037717013187999075, -0.009134643043187307, 0.012381725673655015], [0.05265235192586432, 0.06378220480378789, -0.008516469586194677, 0.06604086164417786, 0.001512407573414217, -0.03935053893138428, -0.03519159022520747, -0.07938580579950831, -0.037497940441895805, -0.01413970971860395, 0.03238757989960548, 0.0932942318429076, -0.07414718690500403, 0.02399952339050387, -0.051038182764524875, 0.027804527526706233, -0.00280006002849774, -0.08544571682940762, 0.04776010075687846, -0.030221416857022777, -0.028989628328475986, -0.057040284782886766, -0.041636228018133374, 0.025643603448482637, -0.015308675742897692, 0.017913086783690763, 0.023735094299639256, 0.06731774005867901, -0.018364778731412484, -0.07255134936838395, 0.058074472488341605, -0.01833965947841759], [0.11748382356246356, 0.06838505429654776, -0.00766802453062913, -0.027180578356035504, 0.10328317458599548, 0.06011656612956109, 0.02141995642127509, -0.013666831423952067, 0.07530666058433458, -0.05976710029967618, 0.057994668245667624, 0.019996525972595384, -0.022093929738890926, -0.04125811622539086, -0.12135934378395014, -0.12091079680335667, -0.10122723657634956, -0.0320132766834982, -0.023360989782881553, 0.10779222435606095, 0.01321244040053772, -0.02006457814752926, 0.02524605252065637, 0.023507900234763155, -0.008747578834756676, 0.006492233843915278, 0.06987112265989338, -0.0043193302720124825, 0.04909877408856832, -0.03075432993875082, 0.05850401121819764, 0.11841968493801447], [-0.0015665771492331965, 0.060895467165766576, 0.02335902019011075, 0.011932830400738332, -0.041139149952497366, -0.018420381541463568, -0.028545356476387295, 0.03383637657148105, -0.05582744021361828, 0.0323631546904218, 0.033460848156510174, 0.018444114599542653, 0.0006056792367933944, 0.037396167987740765, 0.014777178897934081, 0.0773492347996122, -0.10256406635276621, -0.029857189202504852, -0.08256019410624865, -0.05901911212984832, 0.11019994006704935, 0.054494311136736515, -0.052546156087725476, -0.05485222384292841, -0.15074489918269177, -0.021848295046229017, 0.11983597643096565, 0.023165004365703786, -0.019554210815598026, 0.05458430084022317, -0.07600742064078451, -0.007861049473339684], [-0.015783930513901832, -0.005508800147788595, 0.02768894615393484, 0.018228813781543306, 0.016641971491473267, -0.04700730058029802, 0.04145721888422313, 0.06545378652824553, -0.03795639788165815, -0.05257058401767845, 0.04740548228119873, 0.008807252774967116, 0.07036864516605731, -0.0324612634114678, 0.06280284676323006, 0.007176013246576563, 0.03116999207549502, 0.07157350494972352, -0.02487279439908659, -0.04872556442262527, -0.03333672660856053, 0.03108036646921122, -0.09042974018182251, 0.030503357466863047, -0.02807913712335447, 0.04437239130999475, -0.11190517350803447, -0.03550530857330031, -0.07927490413321842, -0.02756077726787486, 0.021292781390619027, -0.004355066141154251], [-0.023195376788368437, -0.011360991539168166, 0.008412891833606159, -0.05300372810819774, 0.019589437804804707, 0.03142695845819071, 0.025221871849999303, 0.029317727569668297, 0.012079582040970942, 0.09957879062309168, -0.011438621342205926, -0.012083443653932989, -0.03201673863945785, -0.05625429550659742, -0.04867365896440387, -0.03820708242346372, -0.0019027964145770721, 0.016658575238215612, 0.011616403084728935, -0.039140179287715425, 0.0509780121402135, 0.037133157288361855, -0.017480931069044935, -0.03176038909857781, 0.029096635554658835, 0.015794384771664442, -0.07517630131080845, 0.0004889443643568791, 0.016128080260603733, -0.036543066665367746, -0.0010967923372584261, -0.07689748865126335], [0.07272654306227762, 0.06344647183908535, -0.03479613373986334, 0.028152215021342526, -0.11912711599212344, -0.05821059265333124, -0.014898855493222056, -0.053467262357482136, 0.043286974723597306, 0.10211275384725277, -0.05431396080755009, -0.04963970664847994, 0.0031329820295454155, 0.06907218626941387, -0.08308373360066702, 0.011088746872565152, 0.10122170242189113, -0.0754036532373479, -0.06879822041998737, -0.024484390077780215, -0.02673429263888949, 0.0570370125133588, 0.021721861557312212, -0.0962785050211234, 0.024745116607491825, -0.03607328309274152, 0.059658894256064514, -0.029136005359190843, -0.025520403845704694, 0.028257551711272717, 0.03235383426905161, 0.020439060052603895], [-0.09715955830557169, 0.026806474639272986, -0.029633738966714302, 0.012844647825173118, -0.03751009138974857, 0.02850786625404278, -0.05007724805784926, -0.07063387502924573, 0.014471532975656034, 0.020884764536164776, -0.03839671171666135, 0.06114859267967268, -0.009749475782447888, -0.007214456698336422, 0.0190219853005751, -0.04400647977763172, 0.009699347622253673, -0.023638848508670433, -0.026458826342632906, 0.05875877314442227, -0.021799316346722948, -0.12775685568757345, 0.08452033948224319, 0.11966817699059394, -0.025540452560676496, -0.08176193991200977, -0.0008972761617298713, -0.03450772797371063, -0.0331916608170959, -0.054587210266870405, 0.025744384418555127, 0.02813298499981167], [-0.09593641682587056, 0.024946272155757766, 0.10599292343309587, -0.007128238780461582, -0.04648489762059456, -0.016687800310376064, 0.0639087958743362, -0.0950821332714549, 0.0054891819109236266, -0.028196467690228013, 0.07654447170257515, 0.012222684299105955, 0.11053548951933022, -0.058679357749056166, 0.05804953417302272, 0.020094261860460785, -0.05055931583837578, -0.002283580303030057, 0.08662010383698837, -0.012738531815770086, -0.06112422619840922, 0.013387931148776034, -0.05458984522340028, -0.0015268737705258096, -0.00511735082972274, -0.07949347158202782, -0.0744513478438865, 0.047467997430051895, -0.010168232520334209, -0.09397135958753558, 0.015664423508148655, 0.019125064950020556], [-0.050092496588570484, -0.0729198490947295, 0.047736451816746454, 0.01181791629418975, 0.1404285686271554, 0.03743123641647225, 0.02018690723670979, -0.008136731962812982, 0.04401972185613644, 0.027613344979402873, 0.05571434436331978, -0.02448189850512701, -0.00853890873455011, -0.02530139845400896, 0.051161868048357706, 0.06263186248328692, -0.01927700766981387, -0.025884895137126288, 0.03176265694215372, -0.014689351472017848, 0.05951175433433487, -0.12858702488469156, -0.05025509868331687, -0.03548609536509643, -0.12568400453190393, -0.0483093599252948, -0.03140203457598169, -0.009296175206642623, 0.05302929475352491, -0.016163253578230688, -0.0641126793177021, 0.002466554633637476], [0.02475344573732052, -0.04405173384203514, 0.020218186019654867, 0.06454353982104273, 0.03456002408342471, 0.06795411022145845, -0.010045021561267627, 0.0459791392012165, -0.08639266103618097, -0.010446255731793544, -0.014701322212101707, -0.07841480864948963, -0.051734860071717355, 0.028168689467409528, -0.003637683128932514, -0.05664110526363873, -0.042995762744751254, 0.03093386177199686, -0.12051397733530594, -0.08723755812505063, -0.01910686838225363, 0.07123875874419099, 0.017988077929610324, 0.006556183915770324, -0.044428322862862, -0.04627924050294519, -0.006920146503934123, 0.0017713267652079447, -0.002768501162813296, -0.029458161724513734, -0.004968276135385693, -0.030714113427915926], [0.04346443269481331, 0.04944847024397482, -0.056621680415684945, -0.10385602616520641, 0.04293085617610558, 0.059462479193503004, -0.06507879390328773, -0.09063785411822657, 0.009799563775360795, 0.050787050549073814, 0.08202554607613528, 0.028263812628281745, -0.011263534518460346, -0.03082051904658301, 0.012570748164155677, -0.0013349082041103277, -0.06795053432133441, 0.08860971183993437, 0.08487133762990834, 0.06650875759210222, -0.04544107412313254, 0.060359234867291195, 0.03099748189814824, 0.021763469389647766, 0.04454418999090042, 0.03713748591334902, 0.042637837234981955, 0.007219147115310227, 0.017609305188795017, -0.08172508842873948, 0.0017039120778702638, -0.028076897343886756], [0.0938126690468546, 0.10172309909067706, 0.10102310379642332, 0.10890102433039979, -0.002528901981767517, 0.12120663286454787, -0.05568397930455412, 0.0038239461851832576, -0.02451285764345553, 0.04587269689544409, 0.12336954139999447, -0.11419944513482204, -0.05206004283819852, 0.09330747758247884, 0.07491802479200364, 0.03103707358505524, 0.03732774636674281, 0.013370438935867741, 0.12963817640681327, 0.06102348715648897, -0.08644613578289564, 0.06598863200300639, -0.02195839348532047, -0.04220813486934655, 0.002481940364597857, -0.03157688169448099, -0.06149313095628278, -0.0729738773934019, 0.09139225051852058, 0.0798774988396001, 0.015907277531289066, 0.05327200990241432], [-0.023080285857158742, -0.0539551409649933, 0.03621517454763695, 0.037481387574271996, 0.07442984293338939, 0.0716194890765584, -0.01931508271163215, -0.06074591743920623, -0.023140408827715245, 0.011266942690686755, 0.0035850207502603508, -0.03836556537545157, 0.009732354067137319, -0.00962664324518801, -0.02635048401706171, 0.01635028145602687, -0.025916485085528247, 0.01104896738392413, 0.029131427768996666, -0.048562112239186564, -0.026313613266233823, 0.08227505458580396, -0.060906813218207366, -0.10925325767485526, -0.09663116477196139, -0.0037356520616328415, -0.0017943962704280308, -0.013851188901957648, 0.06235946380737672, -0.1357823944593843, 0.010052028521473612, 0.07345417019717172], [-0.09421489344586655, -0.13621858606842022, -0.12512613630754293, -0.22328810585481051, -0.2942078997661536, -0.033486528618565596, 0.21587416891772226, 0.029717151973906505, 0.09586295610505666, 0.013637841027201397, -0.05296088345882786, 0.11859935599999355, 0.05154873165898832, 0.05471119765273962, 0.24863734915165606, 0.07470415619934868, -0.045495986011210375, 0.09601084104003003, 0.05833706186134035, 0.056175820809863754, 0.14441595229752488, 0.19636306537351783, 0.05454357301686422, 0.05604124867133285, 0.015446017697520143, -0.04689125591561331, -0.11906711147306527, 0.11218140370037581, -0.01079121941078797, 0.1526200348034238, -0.055101504353046046, 0.10481184071781476], [-0.062311674054056354, 0.03339301001618239, 0.026764830783678042, 0.03814345511245558, 0.04830118098765911, 0.03771569731132273, -0.0023889737915327547, -0.04707978765811527, -0.035970842712463966, -0.009719670817754641, -0.09995055079218215, -0.12305179055375268, 0.051467449470202854, -0.02491713489283906, 0.03426183386929722, -0.02374025027944321, -0.0464610532196486, 0.010204115066971184, -0.08653842781529981, -0.07706191853562128, -0.015427173175549515, 0.005529612019128215, 0.07114848190241241, -0.06394427292732653, -0.11232518635251572, -0.06366349444403219, -0.09357852345869581, -0.05998842372828692, -0.07223301495457628, -0.014917498990464045, -0.019713360833001643, 0.010293410781799094], [-0.05146468260945684, -0.05861775104146119, 0.11015069771291149, 0.0030294824951759922, 0.014098996178123586, 0.021972954789279665, -0.11381099989385926, 0.07703719736194975, -0.07190983473990621, 0.14446032297783096, -0.03917675654791096, -0.14933227140737013, 0.03268773786905343, -0.022182502523632373, -0.05719521481405124, 0.08096912168192405, 0.0018807291426615929, -0.09757651921410034, 0.006830655242326898, 0.08860222481450927, 0.13373795406137526, 0.17039274431039877, 0.16021789482548915, -0.10376310186241508, -0.1263158493846794, -0.07278926052127853, -0.0417118821211692, -0.16169182142299418, 0.02889686267910732, 0.18174323937154968, -0.07985658903366472, 0.03691138823850379], [0.050259456207139556, 0.0051124116773662775, 0.017577560635038895, 0.16093261322599184, 0.21747282747903265, 0.12836240948976563, -0.05695700550380861, -0.004724620798434801, -0.09770999579666381, -0.021428815277083527, 0.10175587048641505, -0.010705134355128435, -0.023447414905711665, 0.01425659060290387, -0.0709244519123341, 0.004405913136248853, 0.006532830156483351, 0.0478619440463587, -0.06396498325859454, -0.22324909447362917, -0.06167268729589267, -0.20687149699356588, -0.036879481016993586, -0.08622425131241852, 0.09070531885391696, -0.04005636225316785, -0.07036107026931966, 0.053329214128439, -0.09724339062772164, -0.025894449138084155, -0.028864255901060336, -0.033777098365174014], [-0.0739663424567812, -0.14665962028863513, -0.1039104649635972, -0.1901576318312767, -0.02868020657445975, -0.09634543641364002, 0.3289324871513749, 0.09883854707395723, 0.10188392787284963, -0.005058688242618372, -0.05294423492009846, 0.047856212519891736, 0.1424297928619977, 0.06616239806513041, 0.1415550668517381, -0.145981046079825, 0.18770773827709247, 0.035935557964587535, -0.056587708359077594, 0.08704055624390432, -0.05317802010245694, -0.24403390952832096, -0.001169667144704278, 0.1317855652677084, 0.16666919878557074, 0.1492684448075358, -0.07157762802031908, 0.2805979395325199, 0.053771579963191235, -0.10791419942176736, 0.14485997536499542, 0.10417532385573328], [0.09850616279977843, 0.07633248320209611, -0.004181151295353117, -0.03340247628161858, -0.013749924847005683, -0.0313505992975689, -0.0487945748807694, 0.05173159481726908, -0.007497259545822957, 0.028331414594773074, -0.027471711145190324, 0.028352776501018064, -0.06242400715536954, 0.007095762087870138, 0.01034388753192369, 0.025319112610728393, 0.04207393679032765, 0.033798770567496854, -0.10717024427133406, 0.08184179375462221, -0.054248749255143426, -0.06711557141737716, -0.04638417597083117, -0.045372570775954614, -0.010095032479693131, -0.007438428000094562, -0.034400241691375205, -0.025901881522149825, -0.0009094002193451225, 0.01999128896075748, 0.06707236101835927, 0.020051124180297572], [0.032003208860990756, -0.024673930703091602, -0.21289225898321473, 0.09154169206388876, 0.0538588043376158, 0.04960189991651977, -0.0298134051088506, -0.014868551051012716, -0.015674679175254978, -0.012665958690031271, 0.07988991247195718, -0.032991893766064574, -0.038934829800930444, -0.042374986722214916, -0.07294361537415614, 0.03250314421552733, 0.00903936402282546, 0.1501406936692228, 0.03007011396536238, -0.06075819009731384, -0.18390873638273755, -0.06290560127528645, -0.0026872896206052255, -0.049254467804484295, -0.02758217938893256, -0.00257730771935626, -0.08892063731103701, -0.03694323249704788, 0.0021378541039349494, 0.016453869837281438, -0.0807915957820322, 0.042442043622486665], [-0.03557497655285843, 0.014471658412678112, 0.12436071540645682, 0.1451831925740754, 0.22102482390513697, 0.12565240339948647, -0.07641980412101212, 0.0438506159619359, -0.15090093248526956, -0.047674244971205086, -0.04331756444889892, -0.042108186322312016, 0.14346626890683872, -0.08010862993165084, -0.018863312775985512, -0.1698376930320101, -0.051045270922790736, -0.09646134362174286, -0.1185623631329016, -0.06454474724318399, 0.10278415784078782, 0.09260373829505884, 0.015259940728099537, -0.06436759560616596, 0.07668960197858123, 0.0220297635427653, 0.007297671302966097, -0.06705733397698484, -0.11210845752838751, -0.11513007426113493, -0.10354408780889736, -0.122472321075776], [-0.22975863385425374, -0.0739269752981732, -0.0771081363860028, 0.00911054364937648, -0.1928442563399543, -0.09188406970394035, 0.09497078201877808, -0.04584148285648455, 0.04824935696485461, -0.008977340042234376, -0.23651050140033378, 0.14331535072690724, 0.17732798728809535, -0.14870831478305876, 0.031068515600066682, 0.046148427850151254, -0.040770174181256974, -0.02685965588173514, -0.18586960936111127, 0.004344805687262049, 0.22308067272961613, 0.3469653040023955, 0.04701270257790226, 0.009275695246332939, -0.004193358147633534, -0.03222336554885026, -0.033767958632636985, 0.15001939175965748, 0.20211948738023028, 0.28070685001681006, 0.019242183263389095, -0.06918618321241306], [0.04648759170446312, 0.003356881206039634, -0.05685512776752019, -0.0053291464991749036, -0.0009074075965868983, -0.018276741402420003, 0.08312913494522321, -0.009390084135399348, -0.00509146866517428, -0.10758480819912317, -0.027511600601042865, -0.015862294668403852, -0.04974364403101117, 0.06602601531551153, -0.0326164878063465, 0.06223589987489331, 0.008936818416426873, 0.020809755776731106, -0.006103550883102834, -0.009800990966753558, 0.05971626279831984, -0.11655255166337154, -0.08985862015310535, -0.03537536868458533, 0.009953172674345593, 0.0306919609832759, 0.022188634701885278, -0.013462899178695562, 0.05277147230861012, 0.03362598228879323, 0.005935547723604153, 0.04537896406471924], [-0.0023715716537111467, -0.035694192201043674, 0.01014072292712266, 0.012712379708478246, 0.08395340337135315, -0.03459553820360393, -0.21085330920874742, -0.1580291981825668, -0.12454275525479003, -0.05407103501237518, -0.0518319061775964, -0.018291296373267662, 0.005477432525697481, -0.11815511483979667, 0.15664152324007702, -0.009649819857299258, -0.009933245914886124, -0.042057849958292336, -0.17971832783760452, -0.1021795937044261, -0.020426507991431603, -0.035020577429925925, -0.006798191520809917, -0.11168350089086564, -0.12889070892262192, 0.0352460481900682, 0.07800403896587994, -0.15962771063540357, -0.15516786046327463, 0.10752741985546874, 0.06012025050453045, 0.09762476432299554], [-0.021879245884920656, -0.06846812790518735, 0.029344730152363604, -0.018411698729183548, 0.06412820399940297, 0.003901796436824506, 0.09176584090069649, 0.08447479483961391, -0.02322314229128136, 0.08006213414850029, 0.06985221309504586, 0.08585867544937524, -0.0747167964750595, -0.025771661512594704, 0.10762656064783156, -0.05787151536653847, -0.06773726684655434, -0.03048484669166544, 0.014150717594309251, -0.0022383446752159697, -0.005081521073431167, -0.0610892915058884, -0.04062363954220771, -0.07875918478725678, 0.139983525181336, 0.049662895789931515, 0.07369444996773808, -0.023897901910874365, -0.04732965275009411, -0.07680401491504872, -0.10697718440181345, -0.08591995299020326], [-0.19258557966197504, -0.040554706472618766, -0.2035761068706887, 0.05358009056271726, -0.10942874585614756, -0.12032976424971831, 0.07062395424405894, -0.05109582371312302, 0.0041107855161100736, 0.018927905182572296, -0.008184532163107439, 0.08153424125308342, -0.04833934808662593, -0.13082935301980905, -0.1358357903813275, -0.10197794658843795, 0.0451725332756374, -0.015786942881353, -0.0876636810063536, -0.023074879630256367, -0.04969329996564891, 0.08050184512347369, 0.04806335158765592, 0.19501533973912535, 0.08235566623068094, -0.13763410434848197, 0.08677527717548214, 0.11130366653225887, 0.15135821449732662, 0.12448556105137792, 0.119154895795252, -0.040908445738261294], [-0.10456943633414344, -0.09977485310679261, -0.02779105786750758, -0.10673497430400336, -0.31840280413712374, -0.042119330100221355, 0.2112878608220736, -0.006921178651960551, 0.0706288536313589, -0.07805117847854282, 0.03564432663723879, 0.11492775328666402, 0.1162541712004959, 0.06676483925196551, 0.1926178133938819, 0.0026680981128829927, -0.030888492366123597, -0.01751169532458578, 0.26615328497958973, 0.012279663294141043, 0.11066020957268073, 0.061428973903979105, 0.07265319300642548, 0.10955296265886655, 0.07696133790228717, 0.09383886154514803, -0.04625732826931192, 0.27032032069262973, 0.0797507188005232, 0.21501656843409647, -0.27428089988277676, -0.0015898985373735827], [-0.09020427229771195, -0.140054267662994, -0.10095158377455674, 0.04276353546304279, 0.05507054264649447, 0.1059517795911928, -0.016397013292391727, 0.0354411468756984, 0.19695699709915301, -0.004554078098044496, -0.03937903785429785, -0.027131077754082772, 0.09784935201868927, -0.13756807978332167, 0.05373001771324546, 0.00026126168724819693, 0.033877962688714174, -0.10007683710066952, 0.020853605562453706, -0.08375153851938563, -0.011067894067894164, -0.1534344542503901, 0.015009745854761206, 0.03774686288070791, -0.030574185391926353, -0.1728974900214615, -0.01560896248463267, 0.06729460127247486, -0.10024308600282103, -0.036556617347867366, -0.16740405847135767, 0.08617036776824769], [-0.033565867823323624, 0.020110470248988377, 0.02831561554496978, 0.0915449095751411, -0.010143773522954461, 0.018733604331475445, -0.07416797598309402, 0.05936196349219119, -0.038048685516869525, -0.027914006033021597, -0.0010862102291062405, -0.0779928250090654, 0.011384048784608141, 0.04834273423113622, 0.014600556929532818, -0.0790860213644184, -0.006303393193063229, 0.03687557590449541, -0.09358307806264642, -0.0534676540694905, 0.04380671703544807, 0.013567458490613483, 0.02062358011591858, 0.09266643375365598, 0.0232614945294619, 0.0327646535863625, 0.1350498666472308, -0.01074757213131454, -0.03973071282437172, 0.02135014645964735, 0.021878321812342668, -0.026270551801655058], [-0.1180028299992988, 0.12842163969079956, 0.2713513617994981, 0.13819449795055155, 0.26949939280787377, 0.09404192850926778, -0.1408101906156194, 0.029242286129062062, -0.24561518584468275, -0.019064626524954754, 0.0877359141198505, -0.14734665197275285, 0.08336725510426259, -0.04636448522279729, -0.06327596006999668, -0.04170199900139409, -0.14855228772681103, 0.03188568806151829, -0.27879940399666037, -0.05366111955970077, 0.04380715846441537, 0.008622666890113486, 0.09438960745408197, -0.10878127595747142, 0.17082995735445822, 0.1350564558393317, -0.2026644051256273, -0.028811419842785475, -0.11095320568018054, -0.2225764200263794, 0.011099554751655515, -0.13990632299449998], [0.1616769183889015, -0.0070568816405977815, -0.008735303260561399, 0.23366510653949313, 0.1082944438283198, -0.16633298349742637, -0.047936014107222605, 0.018453881869241403, -0.12343530553666134, 0.03280320930277945, 0.12906219744848121, -0.15953661981363307, -0.0571884641101849, -0.05105929492895919, -0.1380256497792097, 0.09695932308924622, -0.04759835494340074, -0.009512832976435556, -0.29666901048216243, 0.10134081400139756, 0.011880502218321333, 0.1685121547688777, 0.22229377358586425, -0.16410811921951807, 0.008674641637422638, -0.026998919047417882, -0.19963300139509912, -0.10009029482247955, 0.036334653113192415, -0.018379075446044914, -0.017166109648894742, 0.005743306633632826], [0.24198095794690455, -0.05315360421856595, 0.13992106325200726, 0.28880903886446013, 0.06989087994667313, 0.22227500998319855, -0.11630211579541148, -0.050922405479836154, 0.03216169397192349, 0.00373417060893148, 0.19866542539954365, -0.07193607035673784, -0.010404280532251833, 0.14585287710634973, 0.08116456191922221, 0.02673804202589727, -0.013023310959716606, -0.1404862878621036, 0.12273133210669594, 0.11805912031589606, -0.022383683824288556, 0.06679292037276326, -0.02107427507316905, -0.10870457742613324, -0.08939545873513821, -0.14408473159263274, -0.042104877937716195, -0.18682826810609374, -0.038110527880321855, -0.23740565223943927, -0.0791686508174335, 0.04471252652100197], [-0.2827031021970322, -0.06952277857537721, -0.03241432383695854, 0.02879580566915905, 0.09879822177352318, 0.19644431400788565, 0.2805384140822593, 0.13288129669827553, 0.11984266069737401, -0.12202533125098586, -0.09428443280463765, 0.08563721806595384, 0.22027965726133047, -0.04469602210168765, 0.23540185488024226, -0.0629780733801794, 0.23443213427992593, -0.09954689509136624, 0.33440082639861685, 0.03720505339537356, 0.12806286747207457, -0.19080360206640898, -0.10732480128828684, 0.14978409992651187, -0.053877528881371414, -0.07127511131838014, 0.01584380177847298, 0.06938021814869524, 0.06492866195626944, -0.057354975997878414, -0.1994314407821512, 0.12460707219003853], [-0.07020164612603567, -0.1265505938681499, 0.13553881696216802, 0.0919738934337028, 0.24487356561543686, -0.026844904596019327, -0.07620584420342229, 0.06180216652586145, -0.1284144632829904, -0.013959845651517408, -0.014999205982182412, -0.015413695223683759, 0.12433741544475642, -0.07851276498872788, 0.09319932741853953, -0.1306694948069605, -0.0792690340019524, -0.08196864177615922, -0.14037356284446464, -0.03888044760876298, 0.07113615365424696, -0.08794972601105595, -0.003234167289254941, -0.1372982621357874, 0.0020406787346966713, -0.015382510316449882, -0.023158665324415417, -0.17027864335696022, -0.13091849280537685, -0.026870198937153193, 0.10501907487514216, -0.03718204407799531], [0.15801335250076073, 0.012591751044132609, -0.18146844898706305, 0.10865190977738545, 0.11161260944168408, -0.006428073599779882, -0.05243759384364817, 0.02051033686849936, 0.029789841023864123, -0.13792027611301352, 0.06461611408036472, -0.03435560033418429, -0.08884468833156223, 0.06816448870581067, -0.08506209559707281, -0.09074944916740205, -0.0002131614032959067, -0.046795977201444634, 0.014239369898543996, -0.05815379894769202, -0.17204431697172817, 0.0631981894934335, 0.08344296192369097, -0.0564358296717653, -0.06544630094870939, 0.009284777334631813, -0.015347273170537213, -0.03496690683872438, 0.07722540984182336, -0.1324901713003813, 0.054579940321138255, -0.0517745750301804], [0.014463120703697497, -0.06591897832787258, -0.01432616412630191, 0.06640105707910868, -0.0077478194234026744, 0.043343639036194516, 0.02821452797216721, 0.011772909011261695, 0.052236350312822796, -0.007646047841547854, -0.0864923516224025, -0.0406090741185198, 0.03692437982357756, 0.021113879462062116, -0.06480308594086377, -0.021286546841844698, -0.04790713539619858, -0.028513167619625353, -0.06478960403541958, -0.04064882740878577, -0.023881837713708234, 0.032458565267781334, 0.04101531935528197, -0.003173842160213309, -0.020340921831251312, 0.014217098896930985, -0.040968691313946454, -0.04370332672734482, -0.051097628497543256, -0.03275228450313835, -0.07652789002657759, -0.0013154250899935444], [0.12048468426995876, -0.1211308297986966, -0.07556509831389392, -0.004057785368138629, 0.03126639287165486, 0.013585263612221232, -0.052971855173084136, -0.05136461004517463, 0.05062868969862551, 0.08356804375311057, -0.07629737433956202, -0.0029764438753113885, -0.009661050712377498, 0.006710597369109783, -0.04310174611046104, -0.024384494325229555, 0.08221405017385147, -0.014951647381543046, -0.14114069663588052, 0.04254389923644754, -0.15773841867035576, -0.03461677786771283, -0.08861041337092626, -0.08456528095412934, 0.07057722769357866, -0.07072704568469779, 0.03394662924359539, 0.06743272100201932, 0.03205505915262346, -0.10987434201239667, 0.10749756812770009, -0.039685069524901966], [-0.010651286629452035, 0.05578230496132189, 0.07907359513832132, -0.06113041423995087, 0.0018519113313137533, 0.07695043317310761, 0.015201595006852192, 0.010839811088060631, -0.022762036277896858, -0.01776721263481627, 0.006761329149146346, -0.019803966171655956, 0.005623983552515003, 0.003784172774501125, -0.028576775808020996, 0.0209806982830062, 0.13588157675900256, -0.0881880592941374, 0.007508704208145982, -0.04323194420714033, 0.03963647205051958, 0.0026670373706830044, 0.040767658217547485, 0.04729216602972738, 0.01082621149800109, 0.06485715106773786, -0.11311954906828646, 0.06830462281938138, 0.007751077184869171, 0.048378880060016484, -0.06773034099805053, -0.04896633125008499]], "position_embeddings": [[-0.009746795889126218, 0.010595538762620095, 0.025556726167362258, 0.040362961344735035, -0.02078565107524698, 0.02389953865088087, 0.011519432046522986, 0.012036534233824999, -0.0373083392373454, 0.009883430156698363, -0.039367000487932846, -0.006898698292829231, -0.010171254962952382, -0.014911680242204298, -0.0010785821154715085, 0.014842884481795481, 0.00997018247415017, -0.020988035158102252, -0.02099518724793315, 0.024472154246212425, 0.005845656357357451, -0.002167562736961946, 0.008587142357522027, -0.04601335878416181, 0.02213109664650782, -0.032001771155342584, 0.008227884366156051, -0.01331682268453608, 0.04699956995793744, -0.03443955029737806, -0.011930716296988726, 0.043903712544385784], [0.012329619193778837, -0.002751080510078164, 0.024236976116273925, 0.01704281301583169, 0.0205871632064816, -0.010407499230965449, 0.009650216518621234, -0.01662014185713335, -0.004803558403427811, 0.009526895184027063, 0.005088982432359533, -0.051925413020766545, 0.03961659157066211, -0.008645787855419498, -0.013081737077032073, -0.014028130558623576, -0.017385744089592342, -0.027854049236284702, -0.021108192575098546, 0.02358424567068722, -0.017055455829487656, 0.01887848258851449, 0.0035252264518838374, -0.009431039674190338, 0.011445120462608253, 0.020027819021110848, -0.017134898780677203, -0.04635135425960903, -0.02836149949108471, -0.023050054581695945, -0.03406123568927294, 0.016132588781740564], [-0.0206980089534124, 0.05956129815140102, -0.015402178593241276, 0.02192065239514309, -0.005627080197450887, -0.006446400647292578, 0.013713548373449886, -0.03149581317250379, -0.0020727099594367382, 0.037645196096706426, 0.00018002484199976763, -0.015447908454475115, 0.04110197873286616, -0.01843547414191397, -0.010620886819633316, -0.05468439407440621, 0.025046395770311026, -0.0115991640437911, -0.03064129787906348, 0.0023045994897103223, -0.016115667318049663, -0.006262187168311278, 0.025299143249369157, -0.04153498051631833, 0.03607379242138377, -0.02443048786552908, -0.019667751126224972, 0.022753601734427916, 0.021732322924609727, -0.010873235087933048, -0.028254249819447762, -0.0026952650203143007], [-0.010776589251598793, 0.012448291455545959, 0.017267966547266592, 0.01818188360511956, 0.012109723958017925, -0.025732291272598077, 0.0003632903245284122, 0.033181002493217565, -0.03399638575475074, -0.0046067883577207164, -0.008332229306043246, -0.017230759108309734, 0.012608997881932217, 0.014440346158443081, 0.011648017232078436, -0.034025852758204085, 0.02636364959611342, -0.02556709973708463, -0.02217021166112123, 0.00663017090047634, -0.01395299602959457, 0.021944775976433163, -0.0028477708981801877, -0.02808397331292692, 0.001951925943125827, -0.008190923092689728, 0.01437351541884458, -0.0036807184953224696, 0.03261810935592507, 0.03254106941249162, -0.029652535169924252, 0.009225580361973374], [-0.03586666437297132, -0.004748521877456367, 0.006877069867054314, -0.003261323518290156, -0.00654732753822653, 0.0008539288095571414, -0.012089828448869007, 0.03045536538626683, -0.025601375285258795, 0.05711033226016389, 0.0005071246294426838, -0.018792109103069558, -0.007210322648840125, 0.01791978268241299, 0.024021855005934508, -0.003081533906789608, -0.013878020550044742, -0.004776585692403885, -0.03230934274981527, 0.02898817804665503, 0.011498328356111314, 0.008194169483013644, -0.03478862399274452, -0.03363107013189657, 0.02778584591435277, 0.02610366825047143, 0.01577820134345831, -0.0484125829961442, 0.006479568406138897, 0.009018448155475, -0.04201270319899488, 0.008715803494306517], [-0.006533376718149072, 0.0057400320326668995, -0.01746895212774269, 0.010710279105542383, 0.008817105931127386, 0.00027232204600914574, -0.0008128385787300959, 0.006541737870818848, -0.00720852310295795, 0.009195848179306467, 0.0028466315065288576, -0.02768353094871784, 0.02228471745319785, -0.053916324986285395, 0.010842122334265245, -0.008915147622902388, 0.013277279199175094, 0.010567387951070374, -0.049022508044271634, -0.039494574503960524, 0.0008823938460172036, 0.004505022635471137, 0.016188836314379097, -0.02385921315670941, 0.02759709925762149, 0.022141706838186243, 0.002641055203155421, -0.02051395926246692, -0.042936606751351504, 0.002305961556812087, 0.014830842826765963, 0.020964651660463896], [-0.027859652308387543, 0.025856243937533968, 0.03717153738920398, 0.04771087265886675, -0.0009584326702518453, -0.0012862767417452649, 0.024668368689070207, 0.015738268068335053, -0.02920581962726725, 0.008354423288619774, 0.020070371615867326, -0.01766037597084268, 0.023811255512566618, -0.01955524124453341, 0.0309577094001742, -0.0259947079492538, 2.022902763840589e-05, -0.007465843950126105, 0.007002778128220283, -0.030396758506872283, -0.03075083610018696, -0.035669238366045096, 0.014160871591822104, -0.03668986415712748, 0.006591790267689142, 0.01740800863663119, -0.01896475697869702, -0.009856015794608175, -0.007035548856015491, 0.00012895259632739986, -0.00012023760008946942, -0.0059870546924079985], [-0.014892554233337775, 0.03322514749312949, 0.0263956224975468, -0.009831222290042152, 0.03025147122307427, -0.018775052366846536, 0.03980460908321351, 0.034113343987463914, -2.538139210252014e-05, 0.0024850877029468006, 0.004377477328972169, -0.006361664767677899, 0.012922104278025776, -0.010422468031546086, 0.01833100315442873, -0.019804238887789604, -0.00023432513600149383, -0.03405657744139467, -0.03187933064849406, -0.03563837001368045, 0.010323355569464662, 0.03992979038375536, 0.042022733338083616, -0.048003497522811564, 0.02869637463801775, 0.032296451990559166, -0.015584665412981976, -0.013583988202143375, -0.04186621063913949, -0.006966302337152077, -0.03064390075842704, 0.012019737544927862], [-0.042632922920024865, 0.021818969809405595, 0.03964237712321979, 0.0007421568578373875, -0.007703680763643799, -0.03903137390160101, 0.004371485773183066, 0.004035012565370575, -0.038169691583831704, 0.00987992374131549, 0.00010894986650224808, -0.04161765100485675, 0.008712249111256015, 0.006032568466034856, 0.013767312874378409, -0.010429527604899541, 0.025219609065459538, -0.031436271003322365, -0.008870425576110324, 0.001983899448437629, -0.013450178125567584, 0.014112905114871968, -0.001997131667988302, -0.003880180201474783, 0.025063297766945516, -0.05508967802847311, 0.017850428371003563, -0.07582968921042056, -0.012945634598708044, 0.007174580485407152, -0.015898392065593642, -0.02139024736789562], [-0.03425879523944355, 0.031055455177494272, -0.018178893191156342, 0.03890408195703837, 0.013137229199068757, -0.019293854960817373, -0.0003798768328380196, -0.005461382387913573, 0.009124433042280467, 0.01603340045005948, -0.025106812290647342, -0.029426749721836752, 0.0008068520390463339, 0.008929291923061633, -0.024526200419159698, 0.02373734489334451, 0.012524439712127456, -0.031978656756149346, -0.022109287491675338, -0.01696177962415152, -0.02966532474624858, 0.007054974367676591, -0.010607031109940475, -0.05580997052164823, 0.005782420584978252, -0.03326637072970716, -0.020812864102066207, -0.03327380369427573, -0.017692066342365722, 0.028470337241225007, -0.009297373522525815, 0.013078303181522321], [-0.048196951728363975, -0.0018601848643414283, 0.025569591737617157, -0.003494573690284014, 0.03243867143234792, -0.019933084198476926, 0.005887347608329713, 0.00383449891519989, -0.0056712735823773565, -0.012119603698321116, 0.0026060140685071065, -0.02624240784584182, 0.0009647545430515951, -0.005951516347667176, 0.007123520125542937, -0.010393079887578021, 0.003861746532847291, 0.007796947359741847, -0.014255281281364472, -0.006638726837648346, -0.0029070246068681484, 0.03853372574563836, -0.013356069863979816, 0.0029618950452672244, -0.024207649241663992, 0.008163421409606955, 0.0264838759106964, -0.005670951002135612, 0.0032922818904369817, -0.02277914970041608, -0.009416015717207108, 0.0033191431264756707], [-0.0013210587218706084, -0.3728856926069791, -0.03424080091299867, 0.18686235209846483, 0.05764446649977568, 0.008190581669177221, -0.0881568797363182, -0.13716407485255516, -0.07808098985156992, -0.19198109713481773, -0.09692584783873553, 0.02091350824923721, 0.11537574901405204, -0.06155086368006899, -0.039514459772921784, -0.19146040555507915, 0.14356155271181856, 0.09499810434797122, -0.0010895907786155504, -0.14309412016542541, -0.16426152768721644, 0.2607082945249258, 0.17683891784106304, -0.1998591680353216, 0.11194423439568016, -0.05699985859522495, -0.09594687198924157, -0.0526737025560902, 0.05292689395577283, 0.020660819871894852, -0.1663302299765458, -0.02042913136966473]], "q_proj": [[-0.004364209091786022, -0.1163477003590684, 0.10251183118972984, 0.08425513414140796, 0.0027226890850448825, -0.13872804787572238, 0.02313567650084634, -0.0125559432388699, -0.23463576305932968, -0.25946472083904804, 0.0992588207276059, -0.45888711023037443, 0.0362001495646935, -0.08420370695590804, 0.23039897663523298, -0.08705232067551762, 0.11608982760491472, -0.07004243759799046, 0.02005076341676131, 0.1297498472121104, -0.08124094424820484, 0.17536035297359034, -0.17502686267621848, 0.05194090838349272, 0.16305177329844375, 0.11608805747580866, 0.3379916791639494, -0.1345390410201021, -0.24352513216859717, -0.17513444839152711, 0.1164759426781351, 0.08743250697897788], [0.01830208079305238, -0.19759009653754847, 0.13469382108381886, -0.21577749700282264, 0.20444483947983624, 0.503926120722022, 0.06488108481416144, 0.10274496914999909, -0.0868261964336672, -0.31863161187522343, -0.10621851074699334, -0.19299965978911104, -0.25473796611953486, 0.3035732345994865, 0.048083596348908283, 0.06660737595604399, -0.054555041474279524, -0.03054839437084147, 0.17047061917940765, -0.005996197340108258, 0.09310184597713284, -0.03472034360767056, -0.060250445150018365, -0.2485764237123734, -0.34839617273722234, -0.046297102263507785, 0.010112644899495657, -0.2263843280176943, -0.006405548827243249, 0.009102302994872434, -0.37989476429665114, -0.16107226943534989], [0.07193472737853056, 0.06828960429352147, -0.20316435488938614, 0.02807523117681271, 0.18016073654658807, 0.1370952315634279, -0.01656438472558178, -0.08264869064333259, -0.11109601006349264, 0.08238563215174885, 0.034583137195868266, 0.11113836346601029, 0.023279595703434134, 0.14407932624926645, 0.016697989833469686, 0.13841924585087556, 0.15348360838948993, -0.1418753610780313, -0.3187431524961266, 0.27205728810661634, 0.04546815447269165, -0.30202642589636863, -0.12596756055461927, 0.13591909488762488, -0.04952227392497487, -0.09020701781826897, 0.24682003652471216, -0.1844320351477452, -0.14045093844487408, 0.03704429067201375, 0.06886966468529891, 0.08764108713349937], [0.16115260232778636, 0.03488078220622039, 0.0866320774282113, -0.04522535327728395, 0.011077376268892962, 0.01923899032268709, 0.03817769472391418, 0.13567784075256256, 0.09797840418148847, 0.007402303269492218, -0.14272945625171501, 0.01205804545212988, -0.005027281193188714, 0.03391659232824392, 0.38869239856642135, -0.09185502704691006, 0.07455911822728432, 0.1881722791083824, 0.017151526550632137, 0.41226828510851365, -0.0656550856400404, 0.057010886560108706, -0.14154761407080715, -0.06145711352967501, 0.044163216172056874, 0.14921738913605617, 0.05634435654207687, 0.22172777368613183, -0.0169355638479364, -0.058298856635289775, 0.4765547352469796, 0.0691876547074399], [-0.12608622711651848, -0.12222967032969465, -0.16606781748210322, 0.16547652247996583, -0.06416905596308581, 0.023027875837262873, -0.01085833377701662, 0.1285640232349615, -0.14890784529307258, -0.1898398837518566, 0.03929296325710594, 0.10582270112868858, 0.058449111269413156, -0.14278583964401176, 0.11921528205187222, -0.13100529209236328, -0.09160736270593743, -0.16639000100447976, 0.22934733379086375, 0.1119916280520155, 0.10766649786524374, 0.21972537355657376, 0.4945124795659193, -0.3006967309536235, -0.12983747465988427, -0.10888081279446177, -0.1496682988492534, -0.18987261394124277, -0.05310337648302427, -0.21432538344714147, 0.05901553730242494, 0.008930311485222152], [0.0849307411964885, 0.08950144784107841, 0.10628190527417952, -0.06569284138932982, 0.3737845033360331, 0.041414881060296865, -0.32804474170735787, -0.17677399121870685, -0.30659764846886367, 0.003063921957806175, -0.021543105715558404, -0.08254095601781569, 0.3543055242973404, 0.09668332579800658, 0.12795992070817458, -0.16415213335833329, -0.17609839615395678, 0.006561213058238124, 0.03050836729442998, -0.3271355404869732, -0.03198090622144884, 0.0023515467609005677, -0.03813991823585604, -0.14356042074140993, -0.09512060488427863, -0.03104432853390552, 0.015973760796785964, 0.10659390115871856, 0.19053571958274348, -0.051884417007682634, -0.08021546140913628, 0.07715378930144541], [0.1069007151687341, -0.07651795355057484, 0.1391412293814782, 0.172183867442145, 0.22755733301670167, 0.312812929173335, -0.15305476268429546, 0.0028511231728444966, 0.0018165736101302175, -0.017040231900650037, -0.11433739265726724, -0.2618169408932625, 0.016330561466603968, -0.13531175189132155, 0.015224434489209664, -0.14029763945764587, -0.19390157032704647, 0.04144031599633942, 0.026813153061328573, 0.10194296507729504, 0.3846823828889536, 0.04886455304767498, 0.0857379841020039, -0.19012213326403848, -0.22716042030991448, 0.2790905352012622, -0.16304494253307195, -0.18391559419952633, -0.0064668395083926035, -0.01601658589137838, -0.15903456942552116, -0.053443211233296116], [0.21654366039698295, -0.14190719193731666, -0.2457747664768235, 0.1659967228363328, 0.08676499005275436, -0.1092960316967794, -0.2787782032488216, -0.13111325684548286, -0.009724426182787656, 0.20556347988839757, -0.18260702353686037, -0.014925119620630464, 0.11902567066237257, -0.419619766054238, 0.18219419534257877, -0.20851483246537172, 0.05847106876721404, 0.04344584476491719, 0.19123618569482803, 0.09696956297933045, -0.4191405700316041, -0.1383136017152298, 0.024361676491670876, -0.03461374934918966, 0.08395220541496869, 0.13907310165761194, 0.10713097398786271, -0.037626281884561415, -0.32520642473509875, -0.0804634000514838, 0.07337059903690983, -0.19190413063251505], [0.11084174669614202, 0.1600577364676754, 0.02208598912434326, -0.540246026157879, -0.2252076850838719, 0.3321129106401008, -0.09655813441009888, -0.349319871747537, 0.2177045532863233, 0.0026020202673790235, 0.19465964008628406, 0.04866950785680248, 0.0808348683458643, 0.0640895341092014, 0.12299130766800392, 0.401006751392182, 0.17085388828844678, -0.2783332636859591, 0.07879524098589533, 0.2007638859112685, 0.21078682581239763, -0.07532855488855646, 0.2059919525653814, 0.16300694331000404, 0.4532559984589626, -0.13209938017212938, -0.08952967084681868, -0.05390598242731972, -0.08632419625498543, -0.15685114491419938, -0.4867722211950575, -0.07651365130187264], [0.06508811202321281, -0.08678877246016198, 0.3407794767337883, 0.00223222281698429, 0.22755753495977726, 0.04619777620625359, 0.14567352813865983, 0.04931673970683335, 0.241067189759055, 0.010111988271982467, 0.0875426326918176, 0.06437980302641919, -0.0506144353172934, 0.07145913976412938, 0.3937598487359882, -0.04776265176169055, 0.07377298401438434, 0.22153074695158143, 0.20111055669385475, 0.0017864221697794828, -0.42038665245762286, 0.09094004367368841, -0.3906725961342164, 0.25864401032769774, 0.029891283188105564, 0.17597878995922775, -0.15890528035880902, -0.27344989452253093, 0.045829671753664154, -0.006064256138093407, -0.08670267264197866, 0.01502398263347362], [0.48810333500997893, 0.14709742650342922, 0.1849800059742196, 0.14896995703552024, 0.2608589255003839, -0.03316645224407482, -0.3618447885537928, -0.033458035284738154, 0.1432725641712852, -0.1709282811706372, -0.03136314100251748, -0.1223112279079268, 0.2647264100554366, 0.1320940791705869, 0.1146744514483864, 0.10939391735542056, -0.006587749281818179, 0.03475552497902356, -0.20866684136054214, -0.3852574995719657, 0.026934962509307332, 0.05694692432835663, 0.21278098216065144, 0.2769374399323494, 0.27690658505310967, -0.1758553148284301, -0.061924756671171054, 0.08462855632154609, 0.445869935809631, 0.26075069295291603, 0.19734112801686965, -0.06841733953377183], [-0.15607542131968336, 0.1389810995011151, -0.19402300515133153, -0.04227195986073542, -0.020270841008526993, 0.2803021077084536, -0.06271847631013792, -0.4295967407044566, 0.08887628394952429, -0.1230892693572058, 0.007543514347071598, -0.01519819040617695, -0.048232016667413516, 0.13931162006497302, -0.2700406247283446, -0.091129126452107, 0.12051761733691171, -0.10806875278869593, -0.28342464700600967, 0.11775628940449633, 0.19754049027941425, -0.007898707631154541, -0.345375165038113, 0.12429279074150372, -0.29256478464356034, 0.05451915471934886, -0.1564739656912187, -0.20441426620562345, -0.07778250413804944, -0.03228137023454858, -0.1135515329803621, 0.10376522669858936], [-0.07892679515285683, 0.1726330939484167, 0.049792096682953216, -0.12298547512342244, -0.15275984396868209, -0.2906343606222613, 0.05109846858404583, -0.06245630986616822, -0.41826206127718474, -0.09448174007805675, -0.15852072145270613, 0.27814320176359775, -0.30019786847166463, -0.2541066437006343, 0.19570046413045641, 0.2392054569448886, -0.131147308710965, -0.11135197972376824, 0.10841989798881772, -0.40985150044326246, -0.32764524436307196, -0.049290569193745824, 0.27277342738087834, -0.07654503380830929, 0.017377352076430937, 0.19994235343060793, 0.3709883963904445, -0.10164829210507405, -0.002462696583097359, 0.3211260129319084, -0.26824738753705923, 0.1812444430863251], [-0.17940461949453423, 0.018106983752052216, -0.0428041040059211, -0.16881953492194962, -0.17320144597994921, 0.04877171403309871, 0.17551595030895858, -0.0229010541514844, 0.012431447425545411, 0.10071861567816628, -0.17133747906504954, 0.13018322509466962, 0.14437314370766305, 0.4588098550016294, -0.06629370999094561, -0.08095320773058365, 0.13535381780613157, 0.14427470771524017, -0.09432235360978933, -0.07123449359827727, 0.09507420734200486, -0.14591962673859377, -0.07194686885169481, 0.015542944359370812, 0.17549498384594506, -0.10655695574839523, -0.3246458922792443, -0.33767650118811204, -0.22195143624784092, -0.23146843746884888, -0.027140327593890293, -0.2094570396517282], [-0.12424837704484715, -0.13640426934946503, -0.07763140515845544, 0.23280112497568037, 0.11652727991626534, 0.0025755914378293695, -0.08139634887391056, -0.076174466394199, 0.057443139697126944, 0.10306911052075196, -0.1597113843108245, 0.006778324329573141, -0.3580608816549988, 0.037205586173626695, 0.1344664730730522, -0.049543873658501464, 0.31999017864857565, -0.15527576490175646, 0.03808305271967058, -0.006473343240691616, -0.01823056027421171, -0.020029511604389337, 0.019330631284839125, 0.14906440094680407, 0.24221914078027826, -0.00017980661498288286, 0.1433880213318798, -0.1235798907320785, 0.1355779699974577, -0.1344201306456155, 0.1923203148634406, 0.38987328146462374], [-0.021346511108032717, -0.38633872615489534, -0.09667514511022714, 0.21708915481239147, 0.09757160218705303, 0.04405309279935355, 0.17783516576856662, 0.08529425672366735, 0.21450547934629363, 0.16226770431106463, 0.26823398421702316, 0.06304196731326926, 0.15969550023222154, -0.054038878616158546, -0.10593177760776332, 0.30071512862431365, 0.037966640848856356, 0.14177338885271704, 0.022024005149738502, -0.10357858701103918, 0.0015900038485568908, 0.2529700152132634, 0.09815243779127805, -0.3020049658932594, -0.03802828274007247, 0.31421370110096525, -0.03773780656116599, -0.3171893368945461, 0.3336522319191433, 0.1201021317606936, -0.012258513794496113, -0.0653197949663953], [0.19042115263803894, -0.0955540239242741, 0.20224270198468097, 0.09530004251976382, 0.042962768756363706, 0.025488767000139634, -0.031130357999151394, 0.18448940036949368, -0.15244449811596977, -0.2859064051421783, 0.10816643931957985, 0.11133219754440578, 0.08448749658533934, 0.07188917100064703, -0.0564946322699571, 0.13868604460308556, -0.008064592080044994, -0.08570156252299453, -0.05524539959012577, 0.3560514890167503, -0.3061392085476367, 0.08808532332455898, -0.29562075805396437, -0.018962163102911007, -0.07639375194663346, -0.3675572950334322, 0.06852982430548021, -0.06704757327671282, -0.36986691837602387, 0.14811273195482502, 0.2528465735081436, 0.26249593217079686], [0.06335110760574533, 0.008010186579913996, 0.23419278749686376, 0.2965696643276982, 0.19973050132932227, -0.16593443722291493, 0.03544567933411762, 0.07735685035197704, -0.3186623052496032, 0.0825691267906973, 0.40036206458791, 0.11260388611588935, 0.25951334332443976, 0.03228619817967373, -0.012981975844223698, 0.0671214223878297, -0.1436425617742257, -0.16979212131484844, 0.22311937002646365, 0.24196082118763557, -0.17426827091901223, 0.1706238924049937, -0.015462307436726642, 0.06019037655531273, 0.08135765081466959, 0.17518164233800312, 0.014739098085614424, 0.24833201418024875, 0.0542512687332415, 0.11006844398524639, -0.14689284963139346, 0.380201523187354], [0.08251004625621909, 0.12559376568740988, -0.283596511903253, -0.14525322092902151, 0.21811696510442655, 0.050392592379018136, -0.3374258064143965, 0.18311728490464999, -0.09564194056930658, 0.24892213428820373, -0.01574981997698351, 0.035898008259804465, 0.20769628794915557, -0.15800862140049352, -0.1748510285766976, -0.03504697762886622, 0.14548499089795794, -0.23430319657210052, -0.2940898451890787, 0.1447355314112252, -0.10783325420121181, -0.06925285075062818, -0.3263151520893526, -0.12028400823391074, -0.001582205663582346, 0.1643562765181131, -0.1360915190185258, 0.29201566116651717, -0.12037446287804114, -0.12045702586695875, 0.2711966084785784, 0.03742087287497724], [-0.09749208139192307, -0.027239569948011966, 0.23823452777609522, 0.2581379565806112, -0.14392429494032288, -0.007514419405462539, 0.015833323218134472, -0.17359925478157048, -0.010065684599739137, 0.00113716798673088, 0.20108330428465487, 0.2127557728574406, -0.057888072445532436, -0.03767395423847443, 0.11712863328661378, -0.10324863941455749, 0.10349232628567502, -0.015572536821404439, -0.17086165115971294, -0.16886739214255353, 0.2544844789515888, -0.027616400313973513, 0.28960465181859457, -0.09086837964165399, 0.05110135606523759, 0.4216246226127117, -0.18648203681871556, -0.3343076757415281, 0.22690971719925174, -0.14586501003931115, -0.003604163136707137, -0.1030404752333981], [0.046863085317497916, -0.16746479592585317, -0.03171974083613392, 0.07907464017553745, -0.1776993858425191, -0.12363292145611281, -0.061263184538724785, -0.25164763257958006, -0.07491463273976191, 0.02120773130900098, -0.06996658540265563, -0.04751387262347402, -0.003345768485286493, -0.11561002471175705, 0.12195767988764077, 0.2531094878316354, -0.08188688964774929, 0.08546985812547538, -0.042091926894083836, 0.06431176202792406, 0.2756289214609539, 0.08973359232514243, -0.3124383547091792, 0.07956564245094115, 0.21664730008646818, -0.038732993507521164, 0.17508186526946287, -0.12144632104480614, -0.26118644653236217, 0.024609618829494053, -0.3094611602241433, -0.04181351096801071], [0.22692568695289217, -0.33690943502661513, -0.22462711575390562, -0.1814460823895625, -0.0111698488259172, -0.06477971973064063, 0.2466407004915826, 0.16772777065839792, 0.08719962943887408, 0.025505950538726434, 0.06948237876495378, -0.1515059527685095, 0.15107059614457338, -0.1959601765603929, 0.14724283546826006, 0.20973721165277168, 0.03729410042119275, -0.031121606931017513, 0.07036150758578706, -0.503848281020497, 0.0543392346473679, -0.0198224772789022, -0.00938672071188797, 0.12510243521733644, -0.01309989759974011, -0.20027171832777158, -0.025086133885752492, 0.011556107245357295, 0.020360505860806254, 0.028785458395611512, 0.18320929534489488, -0.19161876658092067], [0.03119966574018832, 0.22707947722268348, -0.3051767725237299, 0.03197145578572409, -0.10318215133599472, -0.06537206220126703, -0.1593991607397667, -0.030153484226472065, 0.3245253131187811, -0.22303273746936136, -0.20613017869754774, -0.22936668293348983, 0.3042955370395755, -0.08149656334555494, -0.0045843893937493945, -0.07074870822434338, -0.16626045956177776, -0.04148459876316979, 0.43307786320557556, 0.2456412967272749, -0.14932261749345674, 0.11420949013243231, -0.1470394035352464, -0.31239966715375556, 0.1797317787875334, 0.20471992036300365, 0.18426393104015168, -0.08301227920323809, -0.029333866076785568, 0.13232460706344792, 0.06899071333166724, -0.06954075102973369], [-0.28606249651734594, 0.02022959766270986, 0.18964587300893848, -0.21159691544429365, 0.11256588691739433, 0.05800636489603011, 0.13185670456244503, 0.15421554038923926, -0.12256813687868169, -0.28461503336943716, -0.0938910773091247, 0.1565682890022316, -0.09535450774001404, -0.12219420432594777, -0.32084550873725853, 0.3085221788771689, 0.14528495739634553, 0.13583537191879316, 0.17072883740329242, 0.10129991716115139, -0.04415704580901383, -0.02890995057920658, -0.07477702209188834, 0.463698366710376, 0.09774395929238902, -0.08186525867775585, 0.08190784127446009, -0.17793202285316528, 0.26521555726820084, -0.1167162703814865, 0.08823370655781014, 0.18814027598696176], [0.06758814749659443, 0.016612503822669284, 0.002075565912431651, -0.009958710080000268, -0.10171339236219674, -0.07947604176687281, 0.26059899019367994, -0.019056861897577635, -0.13837469401951746, -0.0912234022919243, 0.1938022661818695, 0.11903664702938946, 0.0985977843849483, -0.04543870111266924, 0.10092061773121253, -0.11337059429816752, -0.045577764246178785, 0.17092099850603185, 0.15400815703652734, -0.17275460645020074, -0.15002035398246405, 0.01923908910016313, 0.30369545477647764, -0.33701301027472086, 0.049232972762919595, -0.24258738926899145, -0.1116833836550998, -0.06434710215492118, -0.07426502562009486, -0.09396661667432268, 0.0011189790873298272, -0.09443009930257178], [-0.2577999464520814, 0.13751707461128082, 0.1326506263385876, 0.14857092891351573, -0.2715071283086727, 0.0526392114213769, 0.11914803804766684, -0.18167320554712776, 0.0016074382256967583, -0.020445519336531343, 0.3246031293729222, 0.3391120169848046, -0.2933506435171458, 0.439419450629015, -0.16128901274616028, 0.17261380857426617, 0.17108933096828904, -0.1754645676385555, 0.0869221092774888, -0.018902084034659088, 0.09776591750893676, 0.040766092603300136, 0.21083038056940934, 0.013333073092761858, -0.02961001089191373, 0.1929557270102908, 0.1023357877592023, 0.12903302027719607, -0.11718162271213671, -0.18435487361537048, -0.10007218325208934, -0.10930479326859471], [0.13828733532772758, 0.17212819930700465, -0.027820756246243823, 0.2517955791320884, 0.24119047192050755, 0.04287824460627054, -0.14493845910516975, 0.2779342348069059, -0.010840948927733603, 0.02244826780226864, -0.0597794268366063, -0.15684188614825437, -0.25862635256863786, 0.1116206950657927, -0.1379494069179853, 0.5390824514282743, -0.1915762954923208, -0.22150471640964717, 0.08991135304945454, 0.269135955180671, 0.010305314892661756, 0.10073191334559041, -0.32418587416913586, -0.11990886672438013, -0.1891521457027302, -0.3341244363906262, 0.020681486520300357, -0.3950786908046599, -0.23313238597391295, -0.09473475667236265, -0.14650041614821746, 0.06986991522998612], [0.05332091984152242, 0.15745630540781821, 0.13257623455115697, 0.20078371790510569, -0.0003746685269602653, 0.05295879165265715, 0.08985878142722149, 0.02522257896586038, -0.06997443127500313, -0.058458295680953246, -0.14405234182174131, 0.07415130214389855, -0.016609455905539854, -0.11679161773166648, -0.11667274994292008, -0.2135759894240384, 0.17251594509149543, 0.013995846692987849, -0.15165132750848032, 0.14250702403224488, -0.09863469850567187, -0.2478636679257335, 0.1796872829837791, -0.09454009118812205, -0.07216261084222571, 0.007290327708393344, 0.20117371404740628, 0.003535337471057324, -0.21111160912292218, 0.09591103302993623, -0.08555806504889174, 0.3327641594661124], [-0.0005234586732806435, -0.3939783632502925, 0.06316080064087078, 0.3425799732170805, 0.27767898189921936, 0.3222052072514923, -0.17984078495358008, 0.16079275091088488, -0.12727480989098772, 0.03959481296724225, -0.22423638211914185, -0.11347541878164266, -0.11912786049589737, 0.15842555104289996, 0.14112998499157223, 0.048961415242350786, -0.23797665841798785, -0.054885031255127496, -0.13133734877003148, 0.15327204325120725, 0.2076512410438058, 0.18609309797746149, -0.1331122893826647, -0.4825910511954358, -0.3113179673716072, 0.25070319809529784, -0.07085050235613122, -0.13240571713914878, 0.28950334631484276, 0.22308270891289544, 0.004273351651218279, -0.05178150505153894], [-0.02380444916674726, 0.03985860502598812, 0.2820744168088257, 0.07423009312109725, 0.12786251790446637, 0.20560053501213724, -0.2064004030325474, 0.1331604919365078, -0.05221512435676154, -0.443130013213591, -0.3746991984149437, -0.1791320715749214, 0.09374064615518667, 0.020181727482118772, 0.03262587417366869, 0.3441058432651286, -0.22367855132227052, -0.0047530099486540155, 0.05355530171257046, -0.12980978852735253, 0.00443268972888896, -0.2817422004171973, 0.24910556554608054, -0.12023753333952739, 0.3576993006102978, -0.005458795750527206, 0.18095399367302034, -0.009408312396547021, -0.005133471837080747, -0.10290444040890631, 0.02092455680970627, 0.05612113606191094], [-0.13830426136539697, -0.021817476102546054, -0.10790286367177192, 0.40503719215294204, -0.01576134602240068, 0.27242145016109187, -0.03444008315841369, 0.04591707677601604, -0.23294609188950877, -0.07863311159285494, 0.03721149155429251, 0.279358229597017, 0.03925424140396742, 0.24388588803754924, 0.11286806860716772, 0.2867075586349801, -0.010495243765183241, 0.42108319478045514, -0.08543279392672425, -0.1352526432531529, -0.21351723942375747, 0.4107363256560011, 0.1448460968240053, -0.05907490703599299, 0.22031789912690966, 0.12061777249500591, 0.3466519959071599, -0.27256809814127925, -0.04712995433033102, -0.08161207736167317, -0.3479881240426986, 0.18682862207834283], [-0.047846964782836336, 0.1303455382245637, 0.4156226702285841, -0.06249333138241496, -0.07427770172095513, 0.02092410422028001, 0.17378318005326787, -0.09966287883889179, -0.11135110090375239, 0.18635720415862467, 0.06678253938152473, -0.3602265118381158, -0.21595705657349046, 0.26457179698319844, 0.07087592446314149, -0.13449817702061437, -0.03020223420480343, 0.002349663317833595, 0.12935404178084528, -0.2395787333593002, -0.14898372244122188, 0.04814261495305985, -0.01684872754166166, 0.10046335047774697, -0.21686053514512735, 0.06283321394226424, 0.19226687178438917, 0.08586379250743612, 0.02471017303808895, -0.016956782594917563, -0.14704390757710378, -0.012559855075386296]], "k_proj": [[0.22215149531415426, -0.021057816637795834, -0.1571405890833976, -0.08689966513155954, 0.03526115244679446, -0.06616445608673624, 0.08553951573135307, 0.09219478267242584, 0.156754826896534, 0.2506961384180486, 0.17538698511575657, -0.16452376955948628, -0.15970923443850987, -0.013027660263638802, -0.0794534436977105, -0.19996126247793114, -0.07781448224338305, -0.0834298194838277, -0.11837903023755576, -0.05606309474488585, 0.2076264795903934, 0.03497664119889429, 0.43551878870862665, 0.03023535712997125, -0.051094227668783306, 0.00018512132362476238, 0.044979983459981124, 0.07725207467544083, 0.3660499709276499, -0.14916102591013294, 0.15225504090856526, 0.03606872195367183], [-0.276961415878983, 0.13594841308144098, 0.223415147787361, -0.15113667960802676, -0.0017444104562960852, -0.30402162607570704, -0.22186818912089992, 0.18447894691022484, -0.08222912882534585, -0.19533372609008723, 0.040799422024772325, -0.09218247704254803, -0.0826737822787453, 0.13053821143861524, -0.20500512012286295, -0.15996966971928744, 0.02708663468695783, 0.1708038024407261, 0.21817885346733634, -0.1170069286468714, 0.16504040875048173, -0.13815235620928687, 0.32165126399702904, -0.1997688476347625, 0.23401248169220454, -0.11579738803380112, 0.3548907549175488, 0.10385851404703261, -0.17915334038055586, -0.09233356237145297, 0.13732335285555225, 0.18547292742874852], [-0.012349057633128296, 0.007758852901333293, 0.13354335982404117, 0.023289678868589556, -0.22803066035271763, -0.14338533882385632, 0.04150319492940343, 0.214142013980049, 0.28450957209631184, 0.13757828939642286, 0.050693513079118006, 0.1321677458580294, -0.11744238782929771, -0.027154627911756234, -0.1454262513992509, -0.2206662750405938, 0.05849650506873058, 0.03298640044677033, 0.12148834202908118, 0.09626738607900646, 0.042768094739206494, 0.09828161760562905, -0.006920912745431181, 0.07220422979818318, -0.1281022666712882, 0.06515120848640125, 0.11785241165931061, -0.1177138364232701, 0.009008972099624049, -0.10963227995988656, -0.09258613019566021, -0.19783163330262013], [0.22343355466078882, 0.18757927805565697, 0.09408489551370024, 0.34743208315014246, -0.03362090970646079, 0.5333817795394309, -0.039832698642870756, 0.04516983330007331, -0.07006086297372495, 0.06560550650265512, 0.1468560988118397, -0.019861142058498867, 0.3125786664610038, 0.04190826265476297, 0.04778358380058761, -0.15967878906181707, 0.07348495575401096, -0.023115834437754616, -0.10675545314110663, -0.1373026639522525, 0.4709041642660036, -0.0462038043743027, -0.2559440813169986, -0.12348563121498257, -0.009229927236961984, 0.09600773181004443, 0.09732014917526419, 0.1196281840212863, -0.11337593453609279, 0.05989030643318846, -0.15374961474753793, -0.10964640632368294], [-0.16131998258004193, -0.20968536938734594, 0.18681685738399606, 0.12127099109073713, 0.17184273802938638, 0.006103561390769224, 0.13715841527945288, -0.3101773768126812, 0.15188278309675748, 0.031352786119571915, 0.11029183902689658, 0.06736006107273489, -0.1744216630660951, -0.2641132978867482, -0.12540950656841848, 0.09949760775194344, 0.12103740145535334, -0.2407165628777346, -0.17228055497129324, -0.12800085593741778, -0.06315702569832894, -0.23996695629898662, -0.24957373895441387, -0.14551403713339134, 0.015055953226740726, -0.2086110994758988, -0.020748233569593856, 0.1872162166188528, -0.22944026485553903, -0.03653473739410042, 0.18147116321680978, -0.07391935761780564], [-0.1010508865670186, 0.20503540471460643, -0.05396472750604214, 0.1946008244420913, 0.07555612751950272, -0.06048598945036147, 0.0845667249376137, 0.056541479970416975, 0.1798571573581792, -0.09651655461534916, 0.007163306685787716, -0.010699866375150366, 0.12372665087851387, -0.18061689895652197, 0.17910467718311535, 0.08236126455951204, -0.23213061495555484, 0.2130476426324881, 0.39371811616048646, 0.17646606724495184, 0.25175169354995025, 0.014917647244485544, -0.2925855207149083, -0.32510131285613414, 0.044860868741593785, -0.10426081816695963, -0.1612988776732538, -0.010984295760265205, 0.10856326876220365, -0.2560302330088408, -0.07891252707783511, 0.2659637968411901], [-0.1898159419145457, 0.1533405410678119, -0.08491607104360772, 0.09625259911814267, 0.19371793087949796, 0.13145293580159711, 0.16001250831133337, -0.20310090646525594, 0.19636745768740663, -0.15047332318502316, 0.04621504114445551, 0.04518747773445758, 0.08628176458937992, 0.05957005973738959, -0.1486972924999175, -0.23840753336861709, 0.15392313628232923, 0.032397518787452825, 0.20226753165954192, -0.0074374787006621125, -0.2475082827640942, 0.1700663662432085, -0.06578404487974458, 0.06058175618355898, -0.11388158107814808, 0.29027424559208015, -0.15421277880650128, -0.06048630416404623, 0.01899276296903224, -0.19269989961367984, 0.057042109873939, 0.2840374287204354], [-0.08650282831210739, 0.06961614021980086, -0.484306837560624, -0.006862132406681275, -0.05502053960701802, -0.14387871104201735, 0.19044906581943558, -0.057605749701976204, -0.031280567694893416, -0.06640608645942916, -0.3374971518735489, -0.19961154456903288, 0.16973559585219383, -0.37168527751420216, -0.13516262008590962, -0.0708738751312355, 0.30730732500351393, 0.13548115666678753, -0.09823660579316322, 0.2301458383865548, -0.13037675134628982, 0.17789583982520438, -0.23955856607364936, 0.18912561854358165, -0.07155556551253191, -0.18102067012312043, -0.03810649993474619, 0.04861270644545628, -0.08725305440908765, 0.09767252048141618, -0.10312798689035692, 0.10955078016970604], [0.07767064294507164, -0.010613715429559141, -0.07732471044236368, 0.026693862151022332, 0.09722391027035143, 0.36398355624548284, 0.16529963340417836, 0.17185760344040452, 0.544397640095344, 0.09079490123312833, 0.08552343118184948, 0.12378973861054154, -0.1774843180869271, -0.07808841584253277, -0.08914743898177745, 0.114177360918447, -0.03032195281149322, 0.024047645050326954, 0.19115515719499276, 0.15224039398628142, -0.02839711673442048, -0.11834459493805359, 0.19913473166288015, 0.13700649623875003, -0.2829461151409058, -0.05500928381675107, 0.029329056751646085, 0.1368646815200987, 0.16040077410080436, 0.049910245579997105, 0.10277559836757626, 0.011174375042801358], [-0.11884837725072768, -0.04596231044217798, 0.003554444397499104, -0.0061579233660495995, -0.33221610549337155, -0.06980260517347925, 0.009737333715925328, -0.04977974742043202, -0.04343204630265004, 0.08599654074236039, -0.18991867933689782, -0.2871123055961288, -0.061051614558464515, 0.13481618230585646, 0.2971806692436237, 0.13762055170695878, -0.25852994753988934, -0.04092740190571821, 0.045014520780841547, 0.031557472734081216, 0.09509383938005443, -0.16151402916614224, 0.01100744024592757, 0.07435486613270936, 0.14545585035977804, -0.14185534428909918, -0.060632678674944304, -0.47686549415884344, -0.10955893321505389, -0.09247346243184812, -0.18016009871463426, 0.029288070035266255], [-0.009730716020833658, -0.3981656065618024, 0.037680650190354076, -0.1637030874943553, 0.0854246889257056, -0.22623370715392266, 0.0053678113530816135, -0.049934195126405824, 0.053453667218453974, 0.021839681098318558, -0.04483914951258348, -0.27064944028420407, -0.2603527248865662, -0.10268141570195222, -0.0014177661090783132, -0.1071903211323981, 0.11005248358724211, -0.049041545973081115, -0.1699086936052865, -0.049287737890506465, 0.03978865774199574, 0.05717115674570695, 0.33129137480498605, -0.11791100779783219, -0.012938782411632417, 0.07486314124723914, -0.004276561777795842, -0.08842892482064843, -0.27287385738797926, -0.09043097689770802, -0.18928162660645903, -0.30468874577247135], [-0.14043956257464427, -0.18437217647337908, 0.1031806007386906, 0.10600536954999841, -0.15914593212083905, -0.04547341883840203, -0.3275063820400916, -0.08712854095442028, 0.07036982141395433, 0.14531584257682056, -0.12563825480600377, 0.18525493241566274, -0.26696349042098166, -0.2198589926549303, 0.12514732513525736, 0.294543996884302, 0.08704527083837249, -0.007441627111784854, -0.38700949067484314, -0.3562657380345683, 0.02275239677614766, -0.0633055351966916, -0.1951506398544898, 0.011724597584691637, 0.020411314588299756, 0.16661156063463237, 0.024166747968074147, 0.2163236640840973, 0.0013633440318556232, -0.020319482180739156, 0.18735074200074786, -0.1723162981703053], [0.4959003667456183, 0.06607652243953091, 0.06721838777586929, 0.09263987156848132, 0.33088130507325786, 0.13980553489222775, -0.2828038794952561, 0.24731884233563503, -0.06013813733860834, 0.018920186825805624, -0.22537823810379817, 0.09275228905327793, -0.11453658619283714, 0.01740637386277447, -0.05005411370453133, 0.338861623609039, 0.349184201337704, 0.00823276045203551, 0.011433233831612762, -0.06553823527595938, 0.19499823461083698, -0.05779832770325007, -0.07392033777928218, 0.17212552725814959, -0.09484042133287317, -0.006328910867642831, -0.2785780648892512, 0.12397091844189832, 0.34199506225991144, 0.1272891509340536, 0.2573856540573349, -0.1488145639438747], [0.04162727886739032, -0.16618186912452876, -0.04002030250721036, 0.13605699135704552, 0.018018341236130993, -0.24869542960478924, -0.23179699108087268, -0.24338961987195099, 0.0866589023553058, 0.3636233643565826, 0.24024134077285966, -0.33418918081552773, 0.25058984968231496, 0.1651250432410995, -0.27232115814518154, -0.05353964634311435, 0.19317549928407082, 0.09700422165115624, -0.23084802162109255, 0.10773791463089438, -0.3764494566449464, -0.039327737075447004, 0.20030139520460913, 0.00337812803376478, -0.08785486010549373, 0.156877451879572, 0.17184060600509288, 0.23058054429575311, 0.15415595351700584, 0.19053513350032247, 0.1288523381472764, 0.04677312080803888], [0.015476727514099014, -0.04176272324021957, -0.2130308906044604, -0.16819318881612502, -0.0493859568285573, 0.0434198306811787, 0.2537195133179829, -0.007485573358329616, 0.17675681216483746, 0.19028766122178103, -0.04056699546667678, 0.10473928727443309, -0.042728693647051084, 0.23304813513295597, 0.11178265775391752, -0.21005991283602288, 0.028678574847660832, 0.2904053417799774, -0.032150723008126124, 0.0794686266586398, 0.09663963171035346, -0.1825771539743612, 0.0897584027552366, -0.24554033396840078, -0.11022012395830101, 0.1900907344625471, 0.06307627415981211, -0.05392669587734496, 0.07875129647829206, -0.010255847382847532, 0.0018044200186435625, 0.11606632812853329], [-0.128331670818994, 0.0072159245598947454, -0.05478230978161243, -0.2793833741235754, -0.1621755393977991, 0.27656812573366735, 0.06768288090264607, -0.2333458964247545, -0.2713439039742335, -0.01977782709748222, 0.27517977545461897, -0.033078125652033746, 0.23043478174472984, 0.06208687106515687, 0.08299949164117133, -0.23539431457180124, 0.16527115373938303, -0.059038212460081514, 0.15200595011656567, -0.14331295143532274, 0.031083394923205606, 0.06211674846078684, -0.02735685004508618, 0.07140781575697328, -0.04699162333578293, -0.11426393792138294, 0.2829948016949571, 0.1843643260709289, -0.13399833034712771, 0.10007031833787533, -0.1314011705015225, -0.2088343419048872], [0.18226122754089594, -0.30035292907878874, 0.16333848631453085, -0.04453473267927826, -0.03712630891830841, 0.07227284811250417, 0.10241160796660424, -0.1455310465105011, 0.1264974256838473, 0.019930336245092554, -0.2214229415345682, -0.029910135426262058, 0.24316606421090742, 0.29561159745967786, 0.12631036276936936, -0.20943163975391693, 0.08657760950890936, 0.14987331561028766, 0.1277103337542483, 0.13831638214826594, 0.06417480071983829, -0.01290712360997209, -0.10751102190759065, -0.33425489003401165, 0.05994021096175591, 0.032844214896568816, 0.09823329945881719, -0.23543912302712552, 0.11364773275333252, 0.36216966051625826, 0.01408703879110114, -0.010835511787451908], [0.05454977591486579, 0.35814255801623546, -0.18056812678575862, 0.03580206509748984, -0.14097503757409985, -0.09670570601639687, -0.008639477793452682, 0.23756286345353964, 0.31733137868750644, 0.07889862189269548, -0.06650451687046177, 0.43941112213436617, -0.07563326390837334, -0.10062951279288918, -0.31250804632173285, 0.2461823148791597, 0.17034329102975765, 0.42582068504953263, -0.24467526341542542, 0.25664849939969064, 0.011999464140469466, 0.14185099859667755, -0.2900678187788787, 0.2585713269830071, 0.13869776426602934, -0.007042528281911523, 0.11366579446939352, -0.13472517838277354, -0.10223754156438122, -0.08177134195399018, -0.3263995329409737, 0.15187669153573924], [0.20988408574267042, -0.12335544485166333, 0.061700577046995914, -0.046873192026722174, 0.057954837673308696, -0.11026159212827621, -0.15580270119777526, 0.18545112669711333, -0.011142240820910594, 0.3563393450858326, 0.008156899680081518, -0.16320512640315987, 0.21576794057910478, 0.11169020893834833, 0.12781645217462362, 0.2104476720735534, -0.11466310620520821, -0.022649655900328775, -0.03074767745842348, -0.2273102268991139, -0.04605586167299185, 0.23504617971454111, 0.041016081162820295, -0.2366461155003969, -0.2740524700725281, 0.29367396019593134, -0.015793075820773154, -0.11397451081978514, -0.048261070221932205, -0.2601333639077089, 0.25086485456583735, -0.06920031425497708], [0.24084483429385523, 0.009102098964226422, 0.2521921679554225, 0.045256633272994416, 0.1504752275646876, 0.1271348973244781, 0.10969690235206585, 0.06112267639181393, -0.04094639965134039, 0.33740032235467504, -0.15948933920179115, 0.00046379525821494614, 0.003339120612740485, 0.07094438796845821, -0.07582689859639256, 0.054946149662759666, -0.02946979608816898, -0.2786603400945747, 0.0014803262848478616, -0.19356337891748135, -0.3054546973789814, 0.024278094038692716, 0.08557944246958994, 0.0930530631608211, 0.09998652669475502, -0.34023883386221715, -0.23956714097527276, 0.347353336131991, -0.18452675377174624, 0.10777077377607669, -0.12155804207941055, 0.014179175426794855], [-0.11189733851445896, 0.0990237985484235, 0.024618370140745586, -0.07885549166512115, -0.1848356787540162, 0.04788543148264811, -0.21386807335185234, 0.07510407418192741, 0.46276795338345095, 0.23801535361024057, 0.1268262059159383, -0.015288223469893359, -0.3410559711443688, -0.23312667601744327, 0.22584167314067846, -0.1397399688104492, -0.12315748493037325, -0.029216810523562207, -0.1871575798864561, -0.21559503246053274, -0.008908363406211197, -0.15681393925699555, -0.13059644604225976, -0.13779512003307065, 0.09201671545398607, -0.040362719309227024, -0.031228850472667605, 0.10462285225328842, -0.025024522995281632, -0.04880926109481761, 0.08206468704785025, 0.11815925151377003], [-0.02586955942438662, 0.014214545087785631, -0.13797044135316094, -0.15159514912578334, 0.13537303131961292, 0.07797938245956626, 0.08042660775847454, 0.04968062241727383, 0.008240360441155755, 0.12262123207827481, 0.16437370855273703, 0.16062582772554798, -0.017904328218335968, 0.24390337723295338, 0.04064568379121173, 0.11189565442513909, 0.04948635906516305, 0.043558028479688114, -0.12930239732189372, 0.123304036975488, 0.500895564273695, -0.06575416467878284, 0.013116322881199436, -0.07895163870585488, -0.08599234157155795, 0.2721176220343157, -0.11884251929905758, -0.08323988566269044, -0.2795606120009804, -0.13328829862741665, -0.30076837547789315, 0.1111872973204187], [0.49348665686577353, -0.06471848139009494, -0.2940500223773085, 0.15855559895171734, -0.12816062842018258, 0.22856690784856026, -0.04957735882537389, -0.11121768408637225, -0.031320720671526255, 0.13341955515203915, -0.04025400895695931, -0.08740263080116623, -0.03527417504016123, -0.2241887776855283, 0.07016057032364292, -0.31454005476618485, -0.07844690741457178, 0.13393708688161202, 0.0536869388436887, 0.10379335480467018, -0.011645819998362714, 0.20627327242423166, 0.1634616827246562, 0.07839922469390719, 0.16349150350276365, 0.13198101186568875, -0.07762101513980586, -0.2363620737884071, 0.07415093317207405, 0.09626659269619456, 0.19268805376687426, -0.16518585217289558], [-0.1600164761226694, 0.08117555432357303, -0.012059560031526983, -0.3322562448405592, 0.06631789978869385, -0.32577060718901013, -0.16675910446496736, 0.23795119911489135, 0.32162620835780964, -0.21428207561189067, -0.057668235575915175, 0.007218502718769153, 0.31455914761484993, -0.08671524433264287, -0.08412232543172767, 0.2724004468503855, -0.06567316912297042, 0.12694037988182252, -0.26073225460184407, -0.02984615385410883, -0.2923245405139291, -0.18621348181651015, 0.14705162675314976, -0.00827763211807101, -0.056134168175954686, -0.13149561925898942, -0.038577650643748844, 0.052151618490357946, 0.17312292585035194, -0.46275623544981076, -0.14765199184735828, 0.028200222198534398], [-0.017330957447588592, 0.07095645283099733, 0.04694330396006918, -0.05367418466990264, -0.0928352500030693, -0.0434258477983198, 0.20253453145054817, -0.12897098346761754, -0.011119178540157778, 0.03219303050676178, 0.2750534934148617, -0.052828691761276754, 0.16913027428714505, 0.2170090730732747, -0.011024326850218008, -0.037469129539218334, -0.05829063619275524, -0.04509626922102486, 0.15078726056925665, 0.04057719420015701, 0.041392695764412034, -0.1983140806641157, -0.16993114130213724, 0.377328223457955, -0.03126323390429475, -0.13651454799137583, 0.25209333261736055, 0.04945851398685902, 0.10181094275147637, -0.024555058622056893, -0.05644201698235981, -0.029823513816377916], [-0.24372573222593608, -0.015515592412250093, 0.052243254308297016, 0.32611920788503934, 0.015167626065027468, -0.4111437551260482, -0.01655560193239281, 0.48268467455490277, 0.15249736264926636, -0.14284175631284765, 0.10442684739872854, -0.13061538553515833, -0.2383620848084576, -0.06134187692228207, 0.01604953750180957, -0.3304074719152389, -0.20264989602427555, 0.001881640247972396, -0.07176832369604266, 0.06970619398270572, -0.21406915787712896, 0.12594175370144695, -0.20835167125462803, 0.28922567151253153, -0.3023555733064323, -0.19248079748421495, 0.07363715545278336, 0.29310486146534764, 0.05539474921493814, 0.09914714592781464, 0.002809544508605241, -0.18063835822970462], [-0.08647835503776356, -0.2133825498879467, -0.22507058350896667, 0.07073971080832642, -0.1979351565135026, 0.05648292390797077, -0.22951469421495974, 0.05212258661206616, -0.08603622562476199, 0.247932637883213, 0.057017107458589227, 0.21760035032184077, -0.13321962866424794, 0.01011361519890276, -0.17313440325487778, -0.07253215758649696, -0.04578316820565685, -0.12812439353163335, -0.21465868767849103, -0.24898895269959542, -0.4122297696717785, -0.18639845369211866, 0.10965128978587589, -0.2810551279763548, -0.24107064170884673, 0.3155464978506004, -0.11198224263957678, 0.05684716005018308, 0.11299322868795438, 0.1169120572796245, -0.2679347774306996, -0.040542477399457114], [-0.28545519134349634, 0.43118436452963343, -0.2808093195239585, -0.1845485821206255, -0.18323243627173774, -0.26336342857001505, 0.23829903209746253, 0.42676060452398584, -0.0836880466602516, -0.23293574127699349, -0.3938684165380884, -0.04322788336283154, -0.0550620767570445, -0.1148401235674065, 0.03940601327313015, 0.06913575931103044, 0.05691352471555708, -0.05604792522652861, -0.1941580954603753, 0.11744096471428038, 0.002148111846046172, 0.1562727995169484, 0.13912599855407776, -0.25036109017036895, -0.252508679236253, -0.13292232970514845, -0.18601167299294996, 0.13215393237567574, 0.06189091082383026, 0.19312999367830677, 0.0688861727508868, 0.03657206097010444], [0.21129238737892578, 0.08281436507433024, 0.01207728666760366, 0.2609380936333658, 0.02033220563724496, -0.05355923407453325, -0.1476102039022415, 0.12388508192312865, 0.2182009958802243, -0.009124028283262729, 0.2304701322400818, -0.3474004415266946, -0.009288209562696877, -0.007324310526786773, -0.12780190720231155, 0.4200680240236526, -0.011491151074716864, -0.07186600631358951, 0.00449908960328967, -0.3528805868563404, -0.1338662760215807, 0.1732803833675971, -0.11099621481005288, -0.14580847653545562, 0.23090941800706993, 0.23634826885204474, 0.09108996922464614, -0.08063042161071585, -0.04207459188795572, -0.1418818255396533, -0.17573981176616799, -0.1842607110037707], [-0.10924373483964248, -0.182137808097838, -0.275073292068456, 0.038801356690277254, 0.041506779927759384, 0.3002015995091797, -0.11792919039011707, 0.052065279877522415, 0.055233736859450655, -0.044708609834435524, 0.131224211822551, 0.1363833258772187, 0.057773134162346654, -0.04493071973237884, -0.06312168543606167, -0.24071369043700117, -0.1416606599587103, -0.1098145869918183, -0.19838291644679104, 0.07795670168084502, 0.21082751649869938, -0.15986656589944903, 0.04928583986821984, -0.1818449498029241, -0.05369238422202137, -0.1213561587600763, 0.10628240303029333, -0.11976818076537066, 0.1782623242022227, -0.0430000848133487, -0.11474836401443829, -0.22057298899522437], [0.04464022695514099, 0.15773830244576087, 0.04817217826574392, 0.39449258790337877, 0.25194799513841387, -0.05410424744660553, -0.0561306053329572, 0.08266624351837196, -0.14769350215743834, 0.20552975540712484, 0.06391684133296807, 0.04501779679219288, 0.12146830771446139, 0.3035801994529944, 0.029955973773344493, -0.020315342094328264, 0.266129801872531, 0.17046541034766913, -0.05679569820752256, 0.00105283894499105, 0.034418048085530575, 0.06376909847852223, -0.23959935877178368, -0.27142014855249946, -0.15636675078788068, -0.17019982319495283, -0.11320489292534124, 0.11199147969853246, -0.0299637799521055, 0.03467870786572803, -0.21556929978696363, -0.08116101541739654], [0.10338901259187631, 0.10482584219645051, -0.12730651625401201, 0.028512375648048534, 0.3877382160524694, -0.002526360037924984, -0.12234910926256687, -0.030716910573980183, 0.016219467633114253, -0.026602842838546095, -0.005409688423004083, -0.2544459524494592, -0.16954025256215688, -0.0261252786153138, -0.0293815530112029, -0.09984944276772581, -0.030842864858352057, 0.010803581439739094, 0.15640000597827236, -0.017160228796966846, 0.0706286645859379, -0.0953908937275345, 0.10025679289296069, 0.06654001784584662, 0.15257164018361205, 0.12586707884675596, 0.10393914350023808, -0.01720185315415717, 0.043154685144612306, 0.18772264040524286, -0.11483190095274136, -0.11053210782460686]], "v_proj": [[0.04456563034248797, 0.08094699060629458, -0.14097281336825496, -0.004309064312037824, -0.0015762884945240687, -0.40757241592068816, -0.03228004131818998, -0.04539291167191184, -0.021016873228243617, 0.24551159721429824, -0.21504592242922438, -0.14922152554211607, -0.4680594947128967, -0.09616663054534766, -0.07156986994272929, -0.09240171725407371, 0.1945826879021236, 0.1451577035541527, 0.025341714058202604, -0.06945392203037988, 0.1765178408753281, 0.007667365231815599, -0.1494945637323938, -0.31653799822751166, -0.08725826758723729, 0.12909231060770135, 0.4052078934748438, 0.0009872254764899376, -0.14531698739429044, -0.21048890985078395, 0.09905374884091188, -0.30534819723750706], [0.09941575768327245, 0.14526954743091777, 0.06929847034821962, -0.04126117803299018, 0.09961201445987258, 0.031307942300889964, -0.13399141340747253, 0.3252327938408711, -0.06602235937240143, 0.13931843700822297, -0.42326948759208194, 0.2281570842708156, 0.2567256192996521, 0.005085197222064226, 0.0997965942425651, 0.099543634182067, -0.10173624884312492, 0.09245005757219489, -0.143598040075445, -0.11969643423024744, 0.19209568388798356, 0.18107000765097242, -0.12462327319943574, -0.12760760548113725, -0.10748282355575481, 0.1273796658034975, -0.1781771788223161, 0.06478182053148093, 0.1286306978737975, -0.015585092644490225, 0.17517440419053773, -0.06164306777870093], [-0.030544460159136297, -0.16634405211058745, 0.1567459451634723, -0.1507750190181696, 0.05837343891330905, -0.000488060671045359, -0.18610336147945347, -0.09932513512383777, 0.231376975606302, 0.04531929200809233, -0.1689652911611386, 0.05970318869027572, -0.017787307968422053, 0.6233315721406597, 0.0675134085957722, -0.05278339205104942, 0.26972795657397447, -0.3249926000187277, 0.01058463244421918, 0.33844343654770087, -0.037221709108731585, -0.2962417694503736, -0.07423774953853575, 0.265770080048763, 0.07966717130739744, -0.15024782537024747, -0.13246072576630655, -0.09308691315475826, 0.06105905963784334, 0.2344104636508831, 0.17749380917394125, 0.07388036607869404], [-0.2642481902826776, -0.23928911821341017, 0.10877491030646498, -0.23557224564895246, -0.04937155686028428, 0.06969174642822021, -0.20484240142684074, -0.15547421129502062, -0.012815341288526634, 0.07555853428526198, 0.17458648591113746, 0.10942371769984975, 0.009610182420851049, -0.12644768236118156, -0.19748548271955405, -0.10921916926669525, 0.06317962407054573, 0.04960961855729094, -0.3698263814567906, -0.1330121161117338, 0.2464764597708175, 0.0032686283898826374, -0.24137882104962663, 0.41782258145805945, 0.0032638040061684736, 0.08376651927094757, 0.06616375978626986, -0.05378506013656962, -0.11144674868765428, 0.3831611187245959, 0.1910436651905026, 0.1318201088664426], [0.07410669439067245, -0.17309789916704965, 0.23271542612911283, -0.1531964129006823, 0.04286968009020807, -0.2695216439802636, -0.36614797652302217, 0.07590024941445855, -0.1480206345567846, -0.3589689547644247, 0.08985919905200845, 0.37372836735674675, 0.24091664482938027, -0.03439056026891233, 0.0038156024640581734, 0.145646120134973, 0.2018975504723336, -0.08157610201807218, 0.003950095317561369, 0.0456504947088093, 0.12043486303475977, -0.019645395580780316, -0.01618022462157376, 0.24517623404771144, 0.22580075948189562, 0.09718120163438482, 0.2868977889451039, -0.06258819855758845, 0.2924552633964061, 0.11003277090253663, 0.5940053117970737, -0.2288857527137267], [-0.12907671317838393, 0.0736987874215523, 0.07418354366495601, 0.3405348782822388, -0.1262527353897171, 0.1661170999287507, 0.2082452388295187, 0.13290899697462216, -0.17181429827927025, 0.24319010879434105, 0.2103935360738634, 0.10668668304467822, 0.034715599949514626, 0.044381008014314924, -0.02050472760369994, 0.1077571182142995, 0.00863588301980228, -0.15750749035642095, -0.18568947368973196, -0.13438283988851404, 0.042851424446603004, 0.0007227621687712557, 0.04332781708060538, 0.09250801376379796, -0.10236983350552345, 0.26249559668487954, -0.04887793237934298, -0.0725622581469527, 0.08995581184453633, -0.3227780112860953, -0.132215876422806, 0.16859032474668267], [-0.3039761888523397, 0.20792243078978598, 0.2795214492810265, -0.05608011882613847, 0.0601537175060465, 0.1839629464778201, -0.08103156830221182, 0.13805546957769532, -0.11267623863196571, -0.09530810414581928, -0.15508569674190756, 0.05392686204474736, 0.20715332056164174, -0.03529488343546338, -0.2296129056871578, -0.1890390693025465, 0.05455292035807987, 0.3243230681946394, 0.08296878573531345, -0.056361665079622994, 0.13866755396635394, -0.03778134450176999, -0.069709991691105, -0.18598568833113824, 0.23827269006076654, -0.4575192308866458, 0.14505696930121084, -0.088689715668278, -0.07676082371971184, 0.296812584468674, -0.11566299326033977, -0.10323585515897934], [-0.027910621463641285, 0.07381142861143063, -0.09109113710225983, -0.28327940982861893, -0.15643827317090436, 0.23743244729171123, 0.007756908101133217, 0.08634565086745322, -0.05466520856481083, -0.11243897585106137, 0.3012005604615482, -0.029379350080556667, -0.07354325145891182, 0.20395341645033177, -0.12016150386312299, -0.0988279819214778, -0.0013563466691156685, 0.005019495262215148, 0.035150709651113124, 0.3681109630329404, 0.05984955741090552, -0.42660462198748295, 0.05608263159269235, 0.015757152966535695, 0.013916865095375897, 0.043298136236632576, -0.015804776269523847, -0.006159221439916193, 0.11250642813656145, -0.09035638957151747, -0.16958301564446387, 0.5364125450117205], [-0.11155236674915127, 0.019274635229130983, -0.2611203690532568, 0.02468678205465993, -0.1582177094455191, -0.09045931934094618, 0.18843884555297666, 0.07099057935703601, 0.10733095908774147, -0.3097756684242021, 0.32453375582086735, -0.21326969289898454, 0.2710548785801617, 0.17159252124328675, 0.09974167492815053, -0.14653078259199803, 0.023383845060419847, -0.08031669362532995, 0.008713153942192972, -0.0392743399571936, -0.3688572518271709, 0.20166982241825843, -0.01648769282441893, -0.09131433484017362, -0.10930526603263951, 0.05746748417828665, -0.15002880344204386, -0.4053334289247838, 0.06728465707506415, 0.08673917483059042, -0.03551970400757901, 